digraph Tree {
node [shape=box, style="filled, rounded", color="black", fontname=helvetica] ;
edge [fontname=helvetica] ;
0 [label="background <= 0.947\ngini = 0.889\nsamples = 3778\nvalue = [659, 677, 643, 630, 686, 691, 622, 677, 673]\nclass = fear", fillcolor="#3964e500"] ;
1 [label="n_green <= 0.13\ngini = 0.853\nsamples = 1928\nvalue = [335, 661, 285, 593, 117, 233, 81, 241, 491]\nclass = joy", fillcolor="#d7e53907"] ;
0 -> 1 [labeldistance=2.5, labelangle=45, headlabel="True"] ;
2 [label="gini = 0.585\nsamples = 483\nvalue = [46, 13, 10, 466, 8, 74, 7, 84, 43]\nclass = AMBIGUOUS", fillcolor="#39e58192"] ;
1 -> 2 ;
3 [label="gini = 0.835\nsamples = 1445\nvalue = [289, 648, 275, 127, 109, 159, 74, 157, 448]\nclass = joy", fillcolor="#d7e5391c"] ;
1 -> 3 ;
4 [label="magenta <= 0.002\ngini = 0.849\nsamples = 1850\nvalue = [324, 16, 358, 37, 569, 458, 541, 436, 182]\nclass = trust", fillcolor="#39d7e503"] ;
0 -> 4 [labeldistance=2.5, labelangle=-45, headlabel="False"] ;
5 [label="gini = 0.529\nsamples = 278\nvalue = [34, 0, 17, 13, 9, 37, 6, 294, 28]\nclass = anger", fillcolor="#e539d7a3"] ;
4 -> 5 ;
6 [label="gini = 0.834\nsamples = 1572\nvalue = [290, 16, 341, 24, 560, 421, 535, 142, 154]\nclass = trust", fillcolor="#39d7e503"] ;
4 -> 6 ;
}