digraph Tree {
node [shape=box, style="filled, rounded", color="black", fontname=helvetica] ;
edge [fontname=helvetica] ;
0 [label="background <= 0.917\ngini = 0.889\nsamples = 3784\nvalue = [642, 686, 645, 685, 644, 704, 632, 655, 665]\nclass = fear", fillcolor="#3964e501"] ;
1 [label="n_green <= 0.001\ngini = 0.84\nsamples = 1742\nvalue = [290, 631, 218, 623, 115, 179, 60, 178, 459]\nclass = joy", fillcolor="#d7e53901"] ;
0 -> 1 [labeldistance=2.5, labelangle=45, headlabel="True"] ;
2 [label="gini = 0.506\nsamples = 448\nvalue = [44, 10, 0, 497, 4, 64, 5, 68, 32]\nclass = AMBIGUOUS", fillcolor="#39e581a7"] ;
1 -> 2 ;
3 [label="gini = 0.822\nsamples = 1294\nvalue = [246, 621, 218, 126, 111, 115, 55, 110, 427]\nclass = joy", fillcolor="#d7e5391f"] ;
1 -> 3 ;
4 [label="n_red <= 6.002\ngini = 0.857\nsamples = 2042\nvalue = [352, 55, 427, 62, 529, 525, 572, 477, 206]\nclass = anticipation", fillcolor="#8139e504"] ;
0 -> 4 [labeldistance=2.5, labelangle=-45, headlabel="False"] ;
5 [label="gini = 0.619\nsamples = 323\nvalue = [20, 6, 18, 13, 17, 82, 12, 314, 54]\nclass = anger", fillcolor="#e539d782"] ;
4 -> 5 ;
6 [label="gini = 0.845\nsamples = 1719\nvalue = [332, 49, 409, 49, 512, 443, 560, 163, 152]\nclass = anticipation", fillcolor="#8139e506"] ;
4 -> 6 ;
}