digraph Tree {
node [shape=box, style="filled, rounded", color="black", fontname=helvetica] ;
edge [fontname=helvetica] ;
0 [label="n_magenta <= 2.097\ngini = 0.889\nsamples = 3789\nvalue = [679, 662, 612, 709, 668, 647, 641, 657, 683]\nclass = AMBIGUOUS", fillcolor="#39e58101"] ;
1 [label="dog <= 0.0\ngini = 0.679\nsamples = 439\nvalue = [38, 7, 36, 177, 14, 32, 7, 335, 35]\nclass = anger", fillcolor="#e539d750"] ;
0 -> 1 [labeldistance=2.5, labelangle=45, headlabel="True"] ;
2 [label="gini = 0.544\nsamples = 300\nvalue = [38, 7, 27, 16, 14, 28, 7, 303, 18]\nclass = anger", fillcolor="#e539d7a1"] ;
1 -> 2 ;
3 [label="gini = 0.45\nsamples = 139\nvalue = [0, 0, 9, 161, 0, 4, 0, 32, 17]\nclass = AMBIGUOUS", fillcolor="#39e581ac"] ;
1 -> 3 ;
4 [label="background <= 0.947\ngini = 0.886\nsamples = 3350\nvalue = [641, 655, 576, 532, 654, 615, 634, 322, 648]\nclass = joy", fillcolor="#d7e53900"] ;
0 -> 4 [labeldistance=2.5, labelangle=-45, headlabel="False"] ;
5 [label="gini = 0.848\nsamples = 1717\nvalue = [302, 638, 277, 499, 113, 235, 81, 111, 474]\nclass = joy", fillcolor="#d7e53910"] ;
4 -> 5 ;
6 [label="gini = 0.842\nsamples = 1633\nvalue = [339, 17, 299, 33, 541, 380, 553, 211, 174]\nclass = anticipation", fillcolor="#8139e502"] ;
4 -> 6 ;
}