digraph Tree {
node [shape=box, style="filled, rounded", color="black", fontname=helvetica] ;
edge [fontname=helvetica] ;
0 [label="cyan <= 0.0\ngini = 0.889\nsamples = 3783\nvalue = [643, 674, 658, 680, 671, 674, 665, 651, 642]\nclass = AMBIGUOUS", fillcolor="#39e58100"] ;
1 [label="green <= 0.0\ngini = 0.854\nsamples = 1172\nvalue = [129, 143, 286, 483, 180, 147, 131, 247, 89]\nclass = AMBIGUOUS", fillcolor="#39e58120"] ;
0 -> 1 [labeldistance=2.5, labelangle=45, headlabel="True"] ;
2 [label="gini = 0.712\nsamples = 579\nvalue = [53, 7, 63, 420, 26, 52, 43, 219, 25]\nclass = AMBIGUOUS", fillcolor="#39e5814a"] ;
1 -> 2 ;
3 [label="gini = 0.856\nsamples = 593\nvalue = [76, 136, 223, 63, 154, 95, 88, 28, 64]\nclass = sadness", fillcolor="#64e53917"] ;
1 -> 3 ;
4 [label="cyan <= 0.008\ngini = 0.883\nsamples = 2611\nvalue = [514, 531, 372, 197, 491, 527, 534, 404, 553]\nclass = surprise", fillcolor="#e5396401"] ;
0 -> 4 [labeldistance=2.5, labelangle=-45, headlabel="False"] ;
5 [label="gini = 0.866\nsamples = 935\nvalue = [328, 193, 43, 157, 134, 210, 164, 107, 135]\nclass = disgust", fillcolor="#e5813918"] ;
4 -> 5 ;
6 [label="gini = 0.874\nsamples = 1676\nvalue = [186, 338, 329, 40, 357, 317, 370, 297, 418]\nclass = surprise", fillcolor="#e5396405"] ;
4 -> 6 ;
}