digraph Tree {
node [shape=box, style="filled, rounded", color="black", fontname=helvetica] ;
edge [fontname=helvetica] ;
0 [label="n_magenta <= 1.014\ngini = 0.889\nsamples = 3746\nvalue = [689, 669, 661, 640, 666, 638, 716, 666, 613]\nclass = anticipation", fillcolor="#8139e501"] ;
1 [label="bird <= 0.0\ngini = 0.539\nsamples = 277\nvalue = [16, 2, 0, 129, 6, 7, 6, 271, 6]\nclass = anger", fillcolor="#e539d773"] ;
0 -> 1 [labeldistance=2.5, labelangle=45, headlabel="True"] ;
2 [label="gini = 0.432\nsamples = 225\nvalue = [16, 0, 0, 54, 6, 7, 6, 262, 5]\nclass = anger", fillcolor="#e539d7b0"] ;
1 -> 2 ;
3 [label="gini = 0.245\nsamples = 52\nvalue = [0, 2, 0, 75, 0, 0, 0, 9, 1]\nclass = AMBIGUOUS", fillcolor="#39e581d8"] ;
1 -> 3 ;
4 [label="green <= 0.0\ngini = 0.886\nsamples = 3469\nvalue = [673, 667, 661, 511, 660, 631, 710, 395, 607]\nclass = anticipation", fillcolor="#8139e502"] ;
0 -> 4 [labeldistance=2.5, labelangle=-45, headlabel="False"] ;
5 [label="gini = 0.753\nsamples = 564\nvalue = [70, 11, 83, 403, 25, 94, 63, 108, 46]\nclass = AMBIGUOUS", fillcolor="#39e5815f"] ;
4 -> 5 ;
6 [label="gini = 0.876\nsamples = 2905\nvalue = [603, 656, 578, 108, 635, 537, 647, 287, 561]\nclass = joy", fillcolor="#d7e53901"] ;
4 -> 6 ;
}