digraph Tree {
node [shape=box, style="filled, rounded", color="black", fontname=helvetica] ;
edge [fontname=helvetica] ;
0 [label="red <= 0.999\ngini = 0.889\nsamples = 3821\nvalue = [706, 664, 672, 644, 650, 651, 693, 635, 643]\nclass = disgust", fillcolor="#e5813901"] ;
1 [label="n_red <= 6.002\ngini = 0.887\nsamples = 3617\nvalue = [692, 664, 670, 513, 648, 651, 693, 473, 643]\nclass = anticipation", fillcolor="#8139e500"] ;
0 -> 1 [labeldistance=2.5, labelangle=45, headlabel="True"] ;
2 [label="gini = 0.695\nsamples = 409\nvalue = [31, 13, 30, 11, 43, 69, 17, 322, 96]\nclass = anger", fillcolor="#e539d76c"] ;
1 -> 2 ;
3 [label="gini = 0.88\nsamples = 3208\nvalue = [661, 651, 640, 502, 605, 582, 676, 151, 547]\nclass = anticipation", fillcolor="#8139e501"] ;
1 -> 3 ;
4 [label="dog <= 0.0\ngini = 0.549\nsamples = 204\nvalue = [14, 0, 2, 131, 2, 0, 0, 162, 0]\nclass = anger", fillcolor="#e539d72c"] ;
0 -> 4 [labeldistance=2.5, labelangle=-45, headlabel="False"] ;
5 [label="gini = 0.3\nsamples = 125\nvalue = [14, 0, 2, 13, 2, 0, 0, 151, 0]\nclass = anger", fillcolor="#e539d7d0"] ;
4 -> 5 ;
6 [label="gini = 0.156\nsamples = 79\nvalue = [0, 0, 0, 118, 0, 0, 0, 11, 0]\nclass = AMBIGUOUS", fillcolor="#39e581e7"] ;
4 -> 6 ;
}