digraph Tree {
node [shape=box, style="filled, rounded", color="black", fontname=helvetica] ;
edge [fontname=helvetica] ;
0 [label="green <= 0.0\ngini = 0.889\nsamples = 3776\nvalue = [666, 660, 660, 704, 655, 676, 628, 665, 644]\nclass = AMBIGUOUS", fillcolor="#39e58101"] ;
1 [label="person <= 0.011\ngini = 0.73\nsamples = 784\nvalue = [74, 9, 75, 564, 26, 101, 61, 291, 64]\nclass = AMBIGUOUS", fillcolor="#39e58147"] ;
0 -> 1 [labeldistance=2.5, labelangle=45, headlabel="True"] ;
2 [label="gini = 0.768\nsamples = 314\nvalue = [9, 0, 75, 59, 17, 76, 59, 197, 6]\nclass = anger", fillcolor="#e539d749"] ;
1 -> 2 ;
3 [label="gini = 0.537\nsamples = 470\nvalue = [65, 9, 0, 505, 9, 25, 2, 94, 58]\nclass = AMBIGUOUS", fillcolor="#39e5819c"] ;
1 -> 3 ;
4 [label="background <= 0.903\ngini = 0.879\nsamples = 2992\nvalue = [592, 651, 585, 140, 629, 575, 567, 374, 580]\nclass = joy", fillcolor="#d7e53901"] ;
0 -> 4 [labeldistance=2.5, labelangle=-45, headlabel="False"] ;
5 [label="gini = 0.816\nsamples = 1204\nvalue = [225, 593, 217, 107, 74, 108, 45, 114, 384]\nclass = joy", fillcolor="#d7e53924"] ;
4 -> 5 ;
6 [label="gini = 0.852\nsamples = 1788\nvalue = [367, 58, 368, 33, 555, 467, 522, 260, 196]\nclass = trust", fillcolor="#39d7e504"] ;
4 -> 6 ;
}