digraph Tree {
node [shape=box, style="filled, rounded", color="black", fontname=helvetica] ;
edge [fontname=helvetica] ;
0 [label="person <= 0.001\ngini = 0.889\nsamples = 3760\nvalue = [671, 681, 677, 650, 646, 649, 698, 626, 660]\nclass = anticipation", fillcolor="#8139e501"] ;
1 [label="n_red <= 6.002\ngini = 0.806\nsamples = 1384\nvalue = [295, 21, 250, 35, 38, 440, 652, 406, 66]\nclass = anticipation", fillcolor="#8139e51f"] ;
0 -> 1 [labeldistance=2.5, labelangle=45, headlabel="True"] ;
2 [label="gini = 0.466\nsamples = 240\nvalue = [12, 0, 17, 0, 1, 45, 8, 259, 20]\nclass = anger", fillcolor="#e539d7ac"] ;
1 -> 2 ;
3 [label="gini = 0.784\nsamples = 1144\nvalue = [283, 21, 233, 35, 37, 395, 644, 147, 46]\nclass = anticipation", fillcolor="#8139e52c"] ;
1 -> 3 ;
4 [label="person <= 0.051\ngini = 0.861\nsamples = 2376\nvalue = [376, 660, 427, 615, 608, 209, 46, 220, 594]\nclass = joy", fillcolor="#d7e53904"] ;
0 -> 4 [labeldistance=2.5, labelangle=-45, headlabel="False"] ;
5 [label="gini = 0.801\nsamples = 890\nvalue = [157, 54, 184, 107, 531, 118, 30, 73, 171]\nclass = trust", fillcolor="#39d7e547"] ;
4 -> 5 ;
6 [label="gini = 0.826\nsamples = 1486\nvalue = [219, 606, 243, 508, 77, 91, 16, 147, 423]\nclass = joy", fillcolor="#d7e5390e"] ;
4 -> 6 ;
}