digraph Tree {
node [shape=box, style="filled, rounded", color="black", fontname=helvetica] ;
edge [fontname=helvetica] ;
0 [label="n_green <= 0.009\ngini = 0.889\nsamples = 3769\nvalue = [685, 656, 630, 623, 669, 674, 690, 674, 657]\nclass = anticipation", fillcolor="#8139e500"] ;
1 [label="boat <= 0.0\ngini = 0.741\nsamples = 739\nvalue = [62, 13, 76, 489, 27, 91, 67, 288, 46]\nclass = AMBIGUOUS", fillcolor="#39e5813b"] ;
0 -> 1 [labeldistance=2.5, labelangle=45, headlabel="True"] ;
2 [label="gini = 0.716\nsamples = 668\nvalue = [62, 13, 4, 464, 27, 91, 63, 275, 46]\nclass = AMBIGUOUS", fillcolor="#39e5813f"] ;
1 -> 2 ;
3 [label="gini = 0.539\nsamples = 71\nvalue = [0, 0, 72, 25, 0, 0, 4, 13, 0]\nclass = sadness", fillcolor="#64e53987"] ;
1 -> 3 ;
4 [label="n_cyan <= 5.997\ngini = 0.879\nsamples = 3030\nvalue = [623, 643, 554, 134, 642, 583, 623, 386, 611]\nclass = joy", fillcolor="#d7e53900"] ;
0 -> 4 [labeldistance=2.5, labelangle=-45, headlabel="False"] ;
5 [label="gini = 0.87\nsamples = 1937\nvalue = [580, 412, 436, 116, 453, 326, 363, 169, 234]\nclass = disgust", fillcolor="#e581390c"] ;
4 -> 5 ;
6 [label="gini = 0.854\nsamples = 1093\nvalue = [43, 231, 118, 18, 189, 257, 260, 217, 377]\nclass = surprise", fillcolor="#e5396415"] ;
4 -> 6 ;
}