digraph Tree {
node [shape=box, style="filled, rounded", color="black", fontname=helvetica] ;
edge [fontname=helvetica] ;
0 [label="person <= 0.001\ngini = 0.889\nsamples = 3763\nvalue = [699, 640, 671, 657, 647, 657, 694, 654, 639]\nclass = disgust", fillcolor="#e5813900"] ;
1 [label="magenta <= 0.002\ngini = 0.809\nsamples = 1424\nvalue = [314, 14, 242, 40, 52, 440, 652, 419, 69]\nclass = anticipation", fillcolor="#8139e51e"] ;
0 -> 1 [labeldistance=2.5, labelangle=45, headlabel="True"] ;
2 [label="gini = 0.513\nsamples = 273\nvalue = [24, 0, 21, 15, 6, 45, 9, 296, 17]\nclass = anger", fillcolor="#e539d7a5"] ;
1 -> 2 ;
3 [label="gini = 0.779\nsamples = 1151\nvalue = [290, 14, 221, 25, 46, 395, 643, 123, 52]\nclass = anticipation", fillcolor="#8139e52d"] ;
1 -> 3 ;
4 [label="n_blue <= 1.982\ngini = 0.863\nsamples = 2339\nvalue = [385, 626, 429, 617, 595, 217, 42, 235, 570]\nclass = joy", fillcolor="#d7e53901"] ;
0 -> 4 [labeldistance=2.5, labelangle=-45, headlabel="False"] ;
5 [label="gini = 0.857\nsamples = 1623\nvalue = [177, 333, 323, 560, 327, 160, 33, 198, 465]\nclass = AMBIGUOUS", fillcolor="#39e5810b"] ;
4 -> 5 ;
6 [label="gini = 0.822\nsamples = 716\nvalue = [208, 293, 106, 57, 268, 57, 9, 37, 105]\nclass = joy", fillcolor="#d7e53907"] ;
4 -> 6 ;
}