digraph Tree {
node [shape=box, style="filled, rounded", color="black", fontname=helvetica] ;
edge [fontname=helvetica] ;
0 [label="background <= 0.904\ngini = 0.889\nsamples = 2447\nvalue = [412, 432, 439, 440, 445, 439, 436, 441, 404]\nclass = trust", fillcolor="#39d7e500"] ;
1 [label="n_green <= 1.0\ngini = 0.841\nsamples = 1198\nvalue = [103, 405, 165, 419, 162, 78, 23, 178, 340]\nclass = AMBIGUOUS", fillcolor="#39e58102"] ;
0 -> 1 [labeldistance=2.5, labelangle=45, headlabel="True"] ;
2 [label="gini = 0.676\nsamples = 314\nvalue = [41, 10, 123, 252, 5, 31, 12, 12, 17]\nclass = AMBIGUOUS", fillcolor="#39e58157"] ;
1 -> 2 ;
3 [label="gini = 0.814\nsamples = 884\nvalue = [62, 395, 42, 167, 157, 47, 11, 166, 323]\nclass = joy", fillcolor="#d7e53912"] ;
1 -> 3 ;
4 [label="red <= 0.939\ngini = 0.846\nsamples = 1249\nvalue = [309, 27, 274, 21, 283, 361, 413, 263, 64]\nclass = anticipation", fillcolor="#8139e508"] ;
0 -> 4 [labeldistance=2.5, labelangle=-45, headlabel="False"] ;
5 [label="gini = 0.836\nsamples = 914\nvalue = [276, 19, 158, 12, 260, 326, 110, 238, 58]\nclass = fear", fillcolor="#3964e50b"] ;
4 -> 5 ;
6 [label="gini = 0.65\nsamples = 335\nvalue = [33, 8, 116, 9, 23, 35, 303, 25, 6]\nclass = anticipation", fillcolor="#8139e56c"] ;
4 -> 6 ;
}