digraph Tree {
node [shape=box, style="filled, rounded", color="black", fontname=helvetica] ;
edge [fontname=helvetica] ;
0 [label="magenta <= 0.062\ngini = 0.889\nsamples = 2452\nvalue = [445, 441, 386, 446, 439, 467, 430, 401, 433]\nclass = fear", fillcolor="#3964e502"] ;
1 [label="background <= 0.979\ngini = 0.872\nsamples = 1519\nvalue = [194, 160, 349, 315, 56, 315, 375, 391, 281]\nclass = anger", fillcolor="#e539d702"] ;
0 -> 1 [labeldistance=2.5, labelangle=45, headlabel="True"] ;
2 [label="gini = 0.855\nsamples = 986\nvalue = [136, 159, 292, 311, 38, 91, 55, 220, 266]\nclass = AMBIGUOUS", fillcolor="#39e58104"] ;
1 -> 2 ;
3 [label="gini = 0.749\nsamples = 533\nvalue = [58, 1, 57, 4, 18, 224, 320, 171, 15]\nclass = anticipation", fillcolor="#8139e526"] ;
1 -> 3 ;
4 [label="person <= 0.071\ngini = 0.831\nsamples = 933\nvalue = [251, 281, 37, 131, 383, 152, 55, 10, 152]\nclass = trust", fillcolor="#39d7e516"] ;
0 -> 4 [labeldistance=2.5, labelangle=-45, headlabel="False"] ;
5 [label="gini = 0.746\nsamples = 535\nvalue = [226, 29, 31, 8, 319, 148, 54, 0, 27]\nclass = trust", fillcolor="#39d7e526"] ;
4 -> 5 ;
6 [label="gini = 0.734\nsamples = 398\nvalue = [25, 252, 6, 123, 64, 4, 1, 10, 125]\nclass = joy", fillcolor="#d7e53943"] ;
4 -> 6 ;
}