digraph Tree {
node [shape=box, style="filled, rounded", color="black", fontname=helvetica] ;
edge [fontname=helvetica] ;
0 [label="n_blue <= 1.02\ngini = 0.889\nsamples = 2441\nvalue = [428, 416, 423, 443, 445, 452, 430, 438, 413]\nclass = fear", fillcolor="#3964e501"] ;
1 [label="green <= 0.006\ngini = 0.859\nsamples = 1368\nvalue = [85, 108, 332, 261, 34, 278, 319, 417, 339]\nclass = anger", fillcolor="#e539d70b"] ;
0 -> 1 [labeldistance=2.5, labelangle=45, headlabel="True"] ;
2 [label="gini = 0.807\nsamples = 652\nvalue = [33, 59, 247, 239, 21, 74, 258, 46, 39]\nclass = anticipation", fillcolor="#8139e504"] ;
1 -> 2 ;
3 [label="gini = 0.786\nsamples = 716\nvalue = [52, 49, 85, 22, 13, 204, 61, 371, 300]\nclass = anger", fillcolor="#e539d715"] ;
1 -> 3 ;
4 [label="magenta <= 0.072\ngini = 0.84\nsamples = 1073\nvalue = [343, 308, 91, 182, 411, 174, 111, 21, 74]\nclass = trust", fillcolor="#39d7e50d"] ;
0 -> 4 [labeldistance=2.5, labelangle=-45, headlabel="False"] ;
5 [label="gini = 0.865\nsamples = 422\nvalue = [103, 128, 67, 87, 44, 102, 89, 21, 30]\nclass = joy", fillcolor="#d7e5390b"] ;
4 -> 5 ;
6 [label="gini = 0.778\nsamples = 651\nvalue = [240, 180, 24, 95, 367, 72, 22, 0, 44]\nclass = trust", fillcolor="#39d7e528"] ;
4 -> 6 ;
}