digraph Tree {
node [shape=box, style="filled, rounded", color="black", fontname=helvetica] ;
edge [fontname=helvetica] ;
0 [label="magenta <= 0.066\ngini = 0.889\nsamples = 2463\nvalue = [415, 430, 446, 453, 410, 421, 471, 402, 440]\nclass = anticipation", fillcolor="#8139e501"] ;
1 [label="dog <= 0.0\ngini = 0.869\nsamples = 1574\nvalue = [180, 158, 403, 288, 55, 309, 425, 383, 300]\nclass = anticipation", fillcolor="#8139e503"] ;
0 -> 1 [labeldistance=2.5, labelangle=45, headlabel="True"] ;
2 [label="gini = 0.858\nsamples = 1156\nvalue = [126, 132, 263, 140, 25, 295, 392, 311, 175]\nclass = anticipation", fillcolor="#8139e50d"] ;
1 -> 2 ;
3 [label="gini = 0.835\nsamples = 418\nvalue = [54, 26, 140, 148, 30, 14, 33, 72, 125]\nclass = AMBIGUOUS", fillcolor="#39e58104"] ;
1 -> 3 ;
4 [label="bird <= 0.0\ngini = 0.834\nsamples = 889\nvalue = [235, 272, 43, 165, 355, 112, 46, 19, 140]\nclass = trust", fillcolor="#39d7e513"] ;
0 -> 4 [labeldistance=2.5, labelangle=-45, headlabel="False"] ;
5 [label="gini = 0.828\nsamples = 744\nvalue = [184, 193, 35, 154, 340, 95, 45, 18, 103]\nclass = trust", fillcolor="#39d7e526"] ;
4 -> 5 ;
6 [label="gini = 0.775\nsamples = 145\nvalue = [51, 79, 8, 11, 15, 17, 1, 1, 37]\nclass = joy", fillcolor="#d7e5392a"] ;
4 -> 6 ;
}