digraph Tree {
node [shape=box, style="filled, rounded", color="black", fontname=helvetica] ;
edge [fontname=helvetica] ;
0 [label="n_cyan <= 5.7\ngini = 0.889\nsamples = 2445\nvalue = [420, 423, 441, 413, 438, 447, 427, 437, 442]\nclass = fear", fillcolor="#3964e500"] ;
1 [label="green <= 0.0\ngini = 0.876\nsamples = 1761\nvalue = [403, 363, 381, 392, 383, 204, 372, 179, 111]\nclass = disgust", fillcolor="#e5813901"] ;
0 -> 1 [labeldistance=2.5, labelangle=45, headlabel="True"] ;
2 [label="gini = 0.781\nsamples = 522\nvalue = [31, 12, 224, 211, 18, 63, 211, 28, 18]\nclass = sadness", fillcolor="#64e53905"] ;
1 -> 2 ;
3 [label="gini = 0.864\nsamples = 1239\nvalue = [372, 351, 157, 181, 365, 141, 161, 151, 93]\nclass = disgust", fillcolor="#e5813901"] ;
1 -> 3 ;
4 [label="background <= 0.905\ngini = 0.794\nsamples = 684\nvalue = [17, 60, 60, 21, 55, 243, 55, 258, 331]\nclass = surprise", fillcolor="#e5396416"] ;
0 -> 4 [labeldistance=2.5, labelangle=-45, headlabel="False"] ;
5 [label="gini = 0.658\nsamples = 308\nvalue = [3, 50, 4, 17, 32, 35, 2, 94, 276]\nclass = surprise", fillcolor="#e539646f"] ;
4 -> 5 ;
6 [label="gini = 0.768\nsamples = 376\nvalue = [14, 10, 56, 4, 23, 208, 53, 164, 55]\nclass = fear", fillcolor="#3964e51b"] ;
4 -> 6 ;
}