digraph Tree {
node [shape=box, style="filled, rounded", color="black", fontname=helvetica] ;
edge [fontname=helvetica] ;
0 [label="person <= 0.006\ngini = 0.889\nsamples = 2491\nvalue = [435, 438, 419, 439, 436, 416, 427, 417, 461]\nclass = surprise", fillcolor="#e5396402"] ;
1 [label="n_blue <= 3.005\ngini = 0.813\nsamples = 1060\nvalue = [326, 17, 65, 3, 205, 378, 404, 213, 33]\nclass = anticipation", fillcolor="#8139e505"] ;
0 -> 1 [labeldistance=2.5, labelangle=45, headlabel="True"] ;
2 [label="gini = 0.767\nsamples = 744\nvalue = [90, 4, 40, 3, 75, 339, 370, 209, 26]\nclass = anticipation", fillcolor="#8139e50a"] ;
1 -> 2 ;
3 [label="gini = 0.68\nsamples = 316\nvalue = [236, 13, 25, 0, 130, 39, 34, 4, 7]\nclass = disgust", fillcolor="#e581394c"] ;
1 -> 3 ;
4 [label="n_red <= 9.004\ngini = 0.844\nsamples = 1431\nvalue = [109, 421, 354, 436, 231, 38, 23, 204, 428]\nclass = AMBIGUOUS", fillcolor="#39e58101"] ;
0 -> 4 [labeldistance=2.5, labelangle=-45, headlabel="False"] ;
5 [label="gini = 0.753\nsamples = 566\nvalue = [56, 81, 18, 352, 27, 16, 13, 202, 104]\nclass = AMBIGUOUS", fillcolor="#39e58139"] ;
4 -> 5 ;
6 [label="gini = 0.796\nsamples = 865\nvalue = [53, 340, 336, 84, 204, 22, 10, 2, 324]\nclass = joy", fillcolor="#d7e53901"] ;
4 -> 6 ;
}