digraph Tree {
node [shape=box, style="filled, rounded", color="black", fontname=helvetica] ;
edge [fontname=helvetica] ;
0 [label="person <= 0.007\ngini = 0.889\nsamples = 2429\nvalue = [458, 434, 418, 442, 429, 398, 438, 435, 436]\nclass = disgust", fillcolor="#e5813901"] ;
1 [label="yellow <= 0.036\ngini = 0.812\nsamples = 1015\nvalue = [327, 16, 59, 3, 190, 377, 409, 237, 37]\nclass = anticipation", fillcolor="#8139e506"] ;
0 -> 1 [labeldistance=2.5, labelangle=45, headlabel="True"] ;
2 [label="gini = 0.783\nsamples = 786\nvalue = [317, 14, 52, 3, 175, 252, 403, 60, 20]\nclass = anticipation", fillcolor="#8139e516"] ;
1 -> 2 ;
3 [label="gini = 0.63\nsamples = 229\nvalue = [10, 2, 7, 0, 15, 125, 6, 177, 17]\nclass = anger", fillcolor="#e539d739"] ;
1 -> 3 ;
4 [label="green <= 0.02\ngini = 0.846\nsamples = 1414\nvalue = [131, 418, 359, 439, 239, 21, 29, 198, 399]\nclass = AMBIGUOUS", fillcolor="#39e58103"] ;
0 -> 4 [labeldistance=2.5, labelangle=-45, headlabel="False"] ;
5 [label="gini = 0.813\nsamples = 933\nvalue = [101, 330, 294, 406, 189, 10, 25, 41, 97]\nclass = AMBIGUOUS", fillcolor="#39e58111"] ;
4 -> 5 ;
6 [label="gini = 0.758\nsamples = 481\nvalue = [30, 88, 65, 33, 50, 11, 4, 157, 302]\nclass = surprise", fillcolor="#e539643f"] ;
4 -> 6 ;
}