digraph Tree {
node [shape=box, style="filled, rounded", color="black", fontname=helvetica] ;
edge [fontname=helvetica] ;
0 [label="background <= 0.883\ngini = 0.889\nsamples = 2434\nvalue = [421, 435, 436, 441, 426, 435, 440, 451, 403]\nclass = anger", fillcolor="#e539d701"] ;
1 [label="blue <= 0.001\ngini = 0.837\nsamples = 1070\nvalue = [99, 392, 141, 397, 129, 60, 27, 183, 308]\nclass = AMBIGUOUS", fillcolor="#39e58101"] ;
0 -> 1 [labeldistance=2.5, labelangle=45, headlabel="True"] ;
2 [label="gini = 0.807\nsamples = 699\nvalue = [54, 78, 127, 331, 18, 47, 23, 166, 279]\nclass = AMBIGUOUS", fillcolor="#39e58110"] ;
1 -> 2 ;
3 [label="gini = 0.684\nsamples = 371\nvalue = [45, 314, 14, 66, 111, 13, 4, 17, 29]\nclass = joy", fillcolor="#d7e53967"] ;
1 -> 3 ;
4 [label="person <= 0.003\ngini = 0.854\nsamples = 1364\nvalue = [322, 43, 295, 44, 297, 375, 413, 268, 95]\nclass = anticipation", fillcolor="#8139e505"] ;
0 -> 4 [labeldistance=2.5, labelangle=-45, headlabel="False"] ;
5 [label="gini = 0.803\nsamples = 902\nvalue = [262, 10, 54, 4, 144, 356, 378, 181, 27]\nclass = anticipation", fillcolor="#8139e505"] ;
4 -> 5 ;
6 [label="gini = 0.813\nsamples = 462\nvalue = [60, 33, 241, 40, 153, 19, 35, 87, 68]\nclass = sadness", fillcolor="#64e53926"] ;
4 -> 6 ;
}