digraph Tree {
node [shape=box, style="filled, rounded", color="black", fontname=helvetica] ;
edge [fontname=helvetica] ;
0 [label="n_blue <= 1.512\ngini = 0.889\nsamples = 2439\nvalue = [382, 470, 417, 457, 438, 412, 440, 445, 427]\nclass = joy", fillcolor="#d7e53901"] ;
1 [label="n_red <= 9.001\ngini = 0.861\nsamples = 1429\nvalue = [79, 139, 363, 318, 43, 246, 335, 412, 366]\nclass = anger", fillcolor="#e539d706"] ;
0 -> 1 [labeldistance=2.5, labelangle=45, headlabel="True"] ;
2 [label="gini = 0.792\nsamples = 765\nvalue = [53, 17, 26, 280, 21, 121, 189, 403, 104]\nclass = anger", fillcolor="#e539d722"] ;
1 -> 2 ;
3 [label="gini = 0.8\nsamples = 664\nvalue = [26, 122, 337, 38, 22, 125, 146, 9, 262]\nclass = sadness", fillcolor="#64e53917"] ;
1 -> 3 ;
4 [label="red <= 0.943\ngini = 0.832\nsamples = 1010\nvalue = [303, 331, 54, 139, 395, 166, 105, 33, 61]\nclass = trust", fillcolor="#39d7e50d"] ;
0 -> 4 [labeldistance=2.5, labelangle=-45, headlabel="False"] ;
5 [label="gini = 0.815\nsamples = 841\nvalue = [246, 274, 49, 104, 381, 141, 40, 33, 45]\nclass = trust", fillcolor="#39d7e51a"] ;
4 -> 5 ;
6 [label="gini = 0.826\nsamples = 169\nvalue = [57, 57, 5, 35, 14, 25, 65, 0, 16]\nclass = anticipation", fillcolor="#8139e509"] ;
4 -> 6 ;
}