digraph Tree {
node [shape=box, style="filled, rounded", color="black", fontname=helvetica] ;
edge [fontname=helvetica] ;
0 [label="n_red <= 9.001\ngini = 0.889\nsamples = 2441\nvalue = [446, 448, 421, 422, 398, 456, 436, 448, 413]\nclass = fear", fillcolor="#3964e501"] ;
1 [label="magenta <= 0.158\ngini = 0.841\nsamples = 1075\nvalue = [177, 111, 31, 332, 65, 235, 244, 441, 94]\nclass = anger", fillcolor="#e539d714"] ;
0 -> 1 [labeldistance=2.5, labelangle=45, headlabel="True"] ;
2 [label="gini = 0.819\nsamples = 916\nvalue = [90, 71, 31, 275, 25, 224, 230, 437, 91]\nclass = anger", fillcolor="#e539d722"] ;
1 -> 2 ;
3 [label="gini = 0.781\nsamples = 159\nvalue = [87, 40, 0, 57, 40, 11, 14, 4, 3]\nclass = disgust", fillcolor="#e5813926"] ;
1 -> 3 ;
4 [label="n_blue <= 1.949\ngini = 0.862\nsamples = 1366\nvalue = [269, 337, 390, 90, 333, 221, 192, 7, 319]\nclass = sadness", fillcolor="#64e53907"] ;
0 -> 4 [labeldistance=2.5, labelangle=-45, headlabel="False"] ;
5 [label="gini = 0.796\nsamples = 664\nvalue = [26, 103, 310, 30, 24, 132, 127, 7, 276]\nclass = sadness", fillcolor="#64e5390b"] ;
4 -> 5 ;
6 [label="gini = 0.815\nsamples = 702\nvalue = [243, 234, 80, 60, 309, 89, 65, 0, 43]\nclass = trust", fillcolor="#39d7e513"] ;
4 -> 6 ;
}