digraph Tree {
node [shape=box, style="filled, rounded", color="black", fontname=helvetica] ;
edge [fontname=helvetica] ;
0 [label="n_blue <= 1.058\ngini = 0.889\nsamples = 2437\nvalue = [460, 432, 441, 424, 427, 415, 448, 417, 424]\nclass = disgust", fillcolor="#e5813901"] ;
1 [label="red <= 0.847\ngini = 0.86\nsamples = 1386\nvalue = [68, 117, 358, 274, 53, 254, 348, 397, 363]\nclass = anger", fillcolor="#e539d705"] ;
0 -> 1 [labeldistance=2.5, labelangle=45, headlabel="True"] ;
2 [label="gini = 0.802\nsamples = 727\nvalue = [27, 56, 75, 103, 31, 198, 36, 351, 292]\nclass = anger", fillcolor="#e539d711"] ;
1 -> 2 ;
3 [label="gini = 0.803\nsamples = 659\nvalue = [41, 61, 283, 171, 22, 56, 312, 46, 71]\nclass = anticipation", fillcolor="#8139e509"] ;
1 -> 3 ;
4 [label="cow <= 0.0\ngini = 0.831\nsamples = 1051\nvalue = [392, 315, 83, 150, 374, 161, 100, 20, 61]\nclass = disgust", fillcolor="#e5813904"] ;
0 -> 4 [labeldistance=2.5, labelangle=-45, headlabel="False"] ;
5 [label="gini = 0.828\nsamples = 841\nvalue = [374, 279, 83, 95, 203, 150, 90, 19, 44]\nclass = disgust", fillcolor="#e5813917"] ;
4 -> 5 ;
6 [label="gini = 0.662\nsamples = 210\nvalue = [18, 36, 0, 55, 171, 11, 10, 1, 17]\nclass = trust", fillcolor="#39d7e570"] ;
4 -> 6 ;
}