digraph Tree {
node [shape=box, style="filled, rounded", color="black", fontname=helvetica] ;
edge [fontname=helvetica] ;
0 [label="yellow <= 0.034\ngini = 0.889\nsamples = 2437\nvalue = [407, 418, 444, 414, 443, 442, 440, 449, 431]\nclass = anger", fillcolor="#e539d700"] ;
1 [label="blue <= 0.001\ngini = 0.881\nsamples = 1953\nvalue = [366, 394, 437, 290, 427, 266, 434, 152, 335]\nclass = sadness", fillcolor="#64e53900"] ;
0 -> 1 [labeldistance=2.5, labelangle=45, headlabel="True"] ;
2 [label="gini = 0.856\nsamples = 1121\nvalue = [76, 81, 369, 242, 67, 184, 326, 143, 293]\nclass = sadness", fillcolor="#64e53908"] ;
1 -> 2 ;
3 [label="gini = 0.806\nsamples = 832\nvalue = [290, 313, 68, 48, 360, 82, 108, 9, 42]\nclass = trust", fillcolor="#39d7e50c"] ;
1 -> 3 ;
4 [label="green <= 0.006\ngini = 0.764\nsamples = 484\nvalue = [41, 24, 7, 124, 16, 176, 6, 297, 96]\nclass = anger", fillcolor="#e539d732"] ;
0 -> 4 [labeldistance=2.5, labelangle=-45, headlabel="False"] ;
5 [label="gini = 0.69\nsamples = 126\nvalue = [15, 5, 0, 93, 0, 58, 3, 27, 4]\nclass = AMBIGUOUS", fillcolor="#39e5813d"] ;
4 -> 5 ;
6 [label="gini = 0.712\nsamples = 358\nvalue = [26, 19, 7, 31, 16, 118, 3, 270, 92]\nclass = anger", fillcolor="#e539d754"] ;
4 -> 6 ;
}