digraph Tree {
node [shape=box, style="filled, rounded", color="black", fontname=helvetica] ;
edge [fontname=helvetica] ;
0 [label="background <= 0.94\ngini = 0.889\nsamples = 2445\nvalue = [412, 466, 428, 421, 431, 427, 460, 436, 407]\nclass = joy", fillcolor="#d7e53900"] ;
1 [label="n_red <= 9.015\ngini = 0.852\nsamples = 1343\nvalue = [135, 461, 226, 415, 221, 85, 33, 214, 358]\nclass = joy", fillcolor="#d7e53907"] ;
0 -> 1 [labeldistance=2.5, labelangle=45, headlabel="True"] ;
2 [label="gini = 0.76\nsamples = 536\nvalue = [57, 96, 10, 323, 29, 22, 17, 212, 73]\nclass = AMBIGUOUS", fillcolor="#39e5812d"] ;
1 -> 2 ;
3 [label="gini = 0.815\nsamples = 807\nvalue = [78, 365, 216, 92, 192, 63, 16, 2, 285]\nclass = joy", fillcolor="#d7e53914"] ;
1 -> 3 ;
4 [label="cyan <= 0.01\ngini = 0.831\nsamples = 1102\nvalue = [277, 5, 202, 6, 210, 342, 427, 222, 49]\nclass = anticipation", fillcolor="#8139e510"] ;
0 -> 4 [labeldistance=2.5, labelangle=-45, headlabel="False"] ;
5 [label="gini = 0.767\nsamples = 602\nvalue = [144, 3, 113, 4, 169, 110, 368, 31, 8]\nclass = anticipation", fillcolor="#8139e541"] ;
4 -> 5 ;
6 [label="gini = 0.803\nsamples = 500\nvalue = [133, 2, 89, 2, 41, 232, 59, 191, 41]\nclass = fear", fillcolor="#3964e511"] ;
4 -> 6 ;
}