digraph Tree {
node [shape=box, style="filled, rounded", color="black", fontname=helvetica] ;
edge [fontname=helvetica] ;
0 [label="person <= 0.015\ngini = 0.889\nsamples = 2455\nvalue = [408, 429, 439, 414, 426, 469, 452, 428, 423]\nclass = fear", fillcolor="#3964e501"] ;
1 [label="n_yellow <= 1.978\ngini = 0.818\nsamples = 1151\nvalue = [286, 16, 105, 6, 218, 443, 427, 238, 41]\nclass = fear", fillcolor="#3964e503"] ;
0 -> 1 [labeldistance=2.5, labelangle=45, headlabel="True"] ;
2 [label="gini = 0.788\nsamples = 644\nvalue = [230, 8, 89, 3, 158, 148, 313, 24, 13]\nclass = anticipation", fillcolor="#8139e51c"] ;
1 -> 2 ;
3 [label="gini = 0.756\nsamples = 507\nvalue = [56, 8, 16, 3, 60, 295, 114, 214, 28]\nclass = fear", fillcolor="#3964e524"] ;
1 -> 3 ;
4 [label="n_blue <= 1.798\ngini = 0.845\nsamples = 1304\nvalue = [122, 413, 334, 408, 208, 26, 25, 190, 382]\nclass = joy", fillcolor="#d7e53901"] ;
0 -> 4 [labeldistance=2.5, labelangle=-45, headlabel="False"] ;
5 [label="gini = 0.807\nsamples = 814\nvalue = [41, 104, 318, 261, 21, 21, 24, 179, 335]\nclass = surprise", fillcolor="#e5396404"] ;
4 -> 5 ;
6 [label="gini = 0.751\nsamples = 490\nvalue = [81, 309, 16, 147, 187, 5, 1, 11, 47]\nclass = joy", fillcolor="#d7e53932"] ;
4 -> 6 ;
}