digraph Tree {
node [shape=box, style="filled, rounded", color="black", fontname=helvetica] ;
edge [fontname=helvetica] ;
0 [label="background <= 0.947\ngini = 0.889\nsamples = 2441\nvalue = [402, 432, 438, 421, 425, 462, 451, 436, 421]\nclass = fear", fillcolor="#3964e501"] ;
1 [label="n_green <= 1.0\ngini = 0.859\nsamples = 1396\nvalue = [159, 420, 246, 413, 251, 107, 33, 223, 378]\nclass = joy", fillcolor="#d7e53901"] ;
0 -> 1 [labeldistance=2.5, labelangle=45, headlabel="True"] ;
2 [label="gini = 0.733\nsamples = 351\nvalue = [51, 19, 183, 216, 15, 26, 18, 12, 25]\nclass = AMBIGUOUS", fillcolor="#39e58116"] ;
1 -> 2 ;
3 [label="gini = 0.839\nsamples = 1045\nvalue = [108, 401, 63, 197, 236, 81, 15, 211, 353]\nclass = joy", fillcolor="#d7e53909"] ;
1 -> 3 ;
4 [label="horse <= 0.0\ngini = 0.827\nsamples = 1045\nvalue = [243, 12, 192, 8, 174, 355, 418, 213, 43]\nclass = anticipation", fillcolor="#8139e50c"] ;
0 -> 4 [labeldistance=2.5, labelangle=-45, headlabel="False"] ;
5 [label="gini = 0.815\nsamples = 867\nvalue = [188, 5, 134, 8, 122, 335, 366, 184, 31]\nclass = anticipation", fillcolor="#8139e508"] ;
4 -> 5 ;
6 [label="gini = 0.837\nsamples = 178\nvalue = [55, 7, 58, 0, 52, 20, 52, 29, 12]\nclass = sadness", fillcolor="#64e53903"] ;
4 -> 6 ;
}