digraph Tree {
node [shape=box, style="filled, rounded", color="black", fontname=helvetica] ;
edge [fontname=helvetica] ;
0 [label="blue <= 0.002\ngini = 0.889\nsamples = 2494\nvalue = [419, 431, 445, 428, 465, 430, 415, 437, 418]\nclass = trust", fillcolor="#39d7e501"] ;
1 [label="n_magenta <= 4.005\ngini = 0.865\nsamples = 1623\nvalue = [122, 109, 400, 355, 72, 317, 339, 417, 384]\nclass = anger", fillcolor="#e539d702"] ;
0 -> 1 [labeldistance=2.5, labelangle=45, headlabel="True"] ;
2 [label="gini = 0.816\nsamples = 681\nvalue = [32, 9, 162, 253, 12, 53, 218, 236, 76]\nclass = AMBIGUOUS", fillcolor="#39e58105"] ;
1 -> 2 ;
3 [label="gini = 0.86\nsamples = 942\nvalue = [90, 100, 238, 102, 60, 264, 121, 181, 308]\nclass = surprise", fillcolor="#e5396409"] ;
1 -> 3 ;
4 [label="n_red <= 9.94\ngini = 0.802\nsamples = 871\nvalue = [297, 322, 45, 73, 393, 113, 76, 20, 34]\nclass = trust", fillcolor="#39d7e511"] ;
0 -> 4 [labeldistance=2.5, labelangle=-45, headlabel="False"] ;
5 [label="gini = 0.816\nsamples = 352\nvalue = [174, 96, 7, 66, 77, 57, 38, 20, 12]\nclass = disgust", fillcolor="#e581392c"] ;
4 -> 5 ;
6 [label="gini = 0.747\nsamples = 519\nvalue = [123, 226, 38, 7, 316, 56, 38, 0, 22]\nclass = trust", fillcolor="#39d7e526"] ;
4 -> 6 ;
}