digraph Tree {
node [shape=box, style="filled, rounded", color="black", fontname=helvetica] ;
edge [fontname=helvetica] ;
0 [label="n_red <= 9.004\ngini = 0.889\nsamples = 2460\nvalue = [444, 443, 418, 433, 457, 416, 412, 434, 431]\nclass = trust", fillcolor="#39d7e501"] ;
1 [label="person <= 0.036\ngini = 0.842\nsamples = 1048\nvalue = [151, 98, 40, 342, 72, 198, 210, 428, 133]\nclass = anger", fillcolor="#e539d710"] ;
0 -> 1 [labeldistance=2.5, labelangle=45, headlabel="True"] ;
2 [label="gini = 0.784\nsamples = 553\nvalue = [93, 7, 18, 9, 50, 191, 207, 270, 27]\nclass = anger", fillcolor="#e539d718"] ;
1 -> 2 ;
3 [label="gini = 0.75\nsamples = 495\nvalue = [58, 91, 22, 333, 22, 7, 3, 158, 106]\nclass = AMBIGUOUS", fillcolor="#39e58146"] ;
1 -> 3 ;
4 [label="cyan <= 0.009\ngini = 0.861\nsamples = 1412\nvalue = [293, 345, 378, 91, 385, 218, 202, 6, 298]\nclass = trust", fillcolor="#39d7e501"] ;
0 -> 4 [labeldistance=2.5, labelangle=-45, headlabel="False"] ;
5 [label="gini = 0.842\nsamples = 845\nvalue = [148, 249, 280, 76, 279, 74, 166, 0, 65]\nclass = sadness", fillcolor="#64e53900"] ;
4 -> 5 ;
6 [label="gini = 0.835\nsamples = 567\nvalue = [145, 96, 98, 15, 106, 144, 36, 6, 233]\nclass = surprise", fillcolor="#e539641f"] ;
4 -> 6 ;
}