digraph Tree {
node [shape=box, style="filled, rounded", color="black", fontname=helvetica] ;
edge [fontname=helvetica] ;
0 [label="blue <= 0.001\ngini = 0.889\nsamples = 2476\nvalue = [437, 423, 413, 434, 429, 414, 459, 451, 428]\nclass = anticipation", fillcolor="#8139e501"] ;
1 [label="n_blue <= 1.883\ngini = 0.862\nsamples = 1558\nvalue = [112, 108, 354, 366, 47, 298, 358, 425, 392]\nclass = anger", fillcolor="#e539d704"] ;
0 -> 1 [labeldistance=2.5, labelangle=45, headlabel="True"] ;
2 [label="gini = 0.85\nsamples = 1319\nvalue = [78, 52, 337, 263, 27, 225, 317, 407, 366]\nclass = anger", fillcolor="#e539d706"] ;
1 -> 2 ;
3 [label="gini = 0.843\nsamples = 239\nvalue = [34, 56, 17, 103, 20, 73, 41, 18, 26]\nclass = AMBIGUOUS", fillcolor="#39e58118"] ;
1 -> 3 ;
4 [label="bird <= 0.0\ngini = 0.811\nsamples = 918\nvalue = [325, 315, 59, 68, 382, 116, 101, 26, 36]\nclass = trust", fillcolor="#39d7e50d"] ;
0 -> 4 [labeldistance=2.5, labelangle=-45, headlabel="False"] ;
5 [label="gini = 0.809\nsamples = 781\nvalue = [242, 220, 54, 63, 372, 104, 99, 17, 25]\nclass = trust", fillcolor="#39d7e523"] ;
4 -> 5 ;
6 [label="gini = 0.695\nsamples = 137\nvalue = [83, 95, 5, 5, 10, 12, 2, 9, 11]\nclass = joy", fillcolor="#d7e53915"] ;
4 -> 6 ;
}