digraph Tree {
node [shape=box, style="filled, rounded", color="black", fontname=helvetica] ;
edge [fontname=helvetica] ;
0 [label="n_blue <= 1.02\ngini = 0.889\nsamples = 2477\nvalue = [429, 449, 455, 414, 420, 436, 426, 440, 419]\nclass = sadness", fillcolor="#64e53900"] ;
1 [label="background <= 0.955\ngini = 0.858\nsamples = 1388\nvalue = [66, 116, 368, 252, 43, 258, 331, 407, 344]\nclass = anger", fillcolor="#e539d705"] ;
0 -> 1 [labeldistance=2.5, labelangle=45, headlabel="True"] ;
2 [label="gini = 0.826\nsamples = 853\nvalue = [34, 115, 264, 250, 18, 52, 46, 226, 319]\nclass = surprise", fillcolor="#e539640d"] ;
1 -> 2 ;
3 [label="gini = 0.771\nsamples = 535\nvalue = [32, 1, 104, 2, 25, 206, 285, 181, 25]\nclass = anticipation", fillcolor="#8139e51f"] ;
1 -> 3 ;
4 [label="cow <= 0.0\ngini = 0.839\nsamples = 1089\nvalue = [363, 333, 87, 162, 377, 178, 95, 33, 75]\nclass = trust", fillcolor="#39d7e503"] ;
0 -> 4 [labeldistance=2.5, labelangle=-45, headlabel="False"] ;
5 [label="gini = 0.839\nsamples = 884\nvalue = [338, 310, 87, 103, 192, 173, 87, 31, 60]\nclass = disgust", fillcolor="#e5813907"] ;
4 -> 5 ;
6 [label="gini = 0.622\nsamples = 205\nvalue = [25, 23, 0, 59, 185, 5, 8, 2, 15]\nclass = trust", fillcolor="#39d7e57a"] ;
4 -> 6 ;
}