digraph Tree {
node [shape=box, style="filled, rounded", color="black", fontname=helvetica] ;
edge [fontname=helvetica] ;
0 [label="green <= 0.0\ngini = 0.888\nsamples = 2465\nvalue = [433, 413, 478, 446, 412, 430, 474, 373, 429]\nclass = sadness", fillcolor="#64e53900"] ;
1 [label="n_red <= 9.001\ngini = 0.796\nsamples = 621\nvalue = [49, 27, 241, 256, 24, 89, 261, 28, 28]\nclass = anticipation", fillcolor="#8139e502"] ;
0 -> 1 [labeldistance=2.5, labelangle=45, headlabel="True"] ;
2 [label="gini = 0.706\nsamples = 311\nvalue = [18, 9, 12, 221, 8, 51, 161, 28, 10]\nclass = AMBIGUOUS", fillcolor="#39e5812b"] ;
1 -> 2 ;
3 [label="gini = 0.715\nsamples = 310\nvalue = [31, 18, 229, 35, 16, 38, 100, 0, 18]\nclass = sadness", fillcolor="#64e53955"] ;
1 -> 3 ;
4 [label="cow <= 0.0\ngini = 0.882\nsamples = 1844\nvalue = [384, 386, 237, 190, 388, 341, 213, 345, 401]\nclass = surprise", fillcolor="#e5396401"] ;
0 -> 4 [labeldistance=2.5, labelangle=-45, headlabel="False"] ;
5 [label="gini = 0.879\nsamples = 1559\nvalue = [359, 359, 226, 140, 191, 319, 186, 312, 336]\nclass = disgust", fillcolor="#e5813900"] ;
4 -> 5 ;
6 [label="gini = 0.764\nsamples = 285\nvalue = [25, 27, 11, 50, 197, 22, 27, 33, 65]\nclass = trust", fillcolor="#39d7e556"] ;
4 -> 6 ;
}