digraph Tree {
node [shape=box, style="filled, rounded", color="black", fontname=helvetica] ;
edge [fontname=helvetica] ;
0 [label="n_magenta <= 4.005\ngini = 0.889\nsamples = 2454\nvalue = [435, 434, 395, 453, 443, 422, 455, 453, 398]\nclass = anticipation", fillcolor="#8139e500"] ;
1 [label="n_green <= 1.992\ngini = 0.827\nsamples = 779\nvalue = [28, 75, 150, 286, 21, 62, 261, 273, 79]\nclass = AMBIGUOUS", fillcolor="#39e58103"] ;
0 -> 1 [labeldistance=2.5, labelangle=45, headlabel="True"] ;
2 [label="gini = 0.793\nsamples = 553\nvalue = [24, 35, 142, 271, 7, 40, 233, 79, 48]\nclass = AMBIGUOUS", fillcolor="#39e5810f"] ;
1 -> 2 ;
3 [label="gini = 0.669\nsamples = 226\nvalue = [4, 40, 8, 15, 14, 22, 28, 194, 31]\nclass = anger", fillcolor="#e539d77c"] ;
1 -> 3 ;
4 [label="n_blue <= 1.015\ngini = 0.878\nsamples = 1675\nvalue = [407, 359, 245, 167, 422, 360, 194, 180, 319]\nclass = trust", fillcolor="#39d7e502"] ;
0 -> 4 [labeldistance=2.5, labelangle=-45, headlabel="False"] ;
5 [label="gini = 0.85\nsamples = 718\nvalue = [35, 85, 169, 62, 34, 203, 116, 172, 261]\nclass = surprise", fillcolor="#e5396410"] ;
4 -> 5 ;
6 [label="gini = 0.819\nsamples = 957\nvalue = [372, 274, 76, 105, 388, 157, 78, 8, 58]\nclass = trust", fillcolor="#39d7e504"] ;
4 -> 6 ;
}