digraph Tree {
node [shape=box, style="filled, rounded", color="black", fontname=helvetica] ;
edge [fontname=helvetica] ;
0 [label="n_red <= 9.004\ngini = 0.889\nsamples = 2423\nvalue = [438, 450, 419, 420, 450, 425, 427, 425, 434]\nclass = joy", fillcolor="#d7e53900"] ;
1 [label="blue <= 0.002\ngini = 0.843\nsamples = 1037\nvalue = [158, 88, 38, 341, 78, 217, 223, 419, 114]\nclass = anger", fillcolor="#e539d70f"] ;
0 -> 1 [labeldistance=2.5, labelangle=45, headlabel="True"] ;
2 [label="gini = 0.798\nsamples = 779\nvalue = [58, 8, 35, 294, 24, 154, 182, 407, 110]\nclass = anger", fillcolor="#e539d71d"] ;
1 -> 2 ;
3 [label="gini = 0.832\nsamples = 258\nvalue = [100, 80, 3, 47, 54, 63, 41, 12, 4]\nclass = disgust", fillcolor="#e5813910"] ;
1 -> 3 ;
4 [label="person <= 0.074\ngini = 0.86\nsamples = 1386\nvalue = [280, 362, 381, 79, 372, 208, 204, 6, 320]\nclass = sadness", fillcolor="#64e53901"] ;
0 -> 4 [labeldistance=2.5, labelangle=-45, headlabel="False"] ;
5 [label="gini = 0.825\nsamples = 827\nvalue = [254, 32, 252, 7, 303, 195, 201, 4, 70]\nclass = trust", fillcolor="#39d7e50c"] ;
4 -> 5 ;
6 [label="gini = 0.751\nsamples = 559\nvalue = [26, 330, 129, 72, 69, 13, 3, 2, 250]\nclass = joy", fillcolor="#d7e53920"] ;
4 -> 6 ;
}