digraph Tree {
node [shape=box, style="filled, rounded", color="black", fontname=helvetica] ;
edge [fontname=helvetica] ;
0 [label="cyan <= 0.009\ngini = 0.889\nsamples = 2486\nvalue = [414, 436, 452, 414, 424, 397, 436, 444, 471]\nclass = surprise", fillcolor="#e5396401"] ;
1 [label="dog <= 0.0\ngini = 0.868\nsamples = 1441\nvalue = [222, 336, 354, 354, 283, 157, 380, 83, 92]\nclass = anticipation", fillcolor="#8139e503"] ;
0 -> 1 [labeldistance=2.5, labelangle=45, headlabel="True"] ;
2 [label="gini = 0.858\nsamples = 1079\nvalue = [180, 292, 271, 168, 178, 139, 366, 55, 51]\nclass = anticipation", fillcolor="#8139e50d"] ;
1 -> 2 ;
3 [label="gini = 0.812\nsamples = 362\nvalue = [42, 44, 83, 186, 105, 18, 14, 28, 41]\nclass = AMBIGUOUS", fillcolor="#39e5812d"] ;
1 -> 3 ;
4 [label="n_blue <= 1.449\ngini = 0.843\nsamples = 1045\nvalue = [192, 100, 98, 60, 141, 240, 56, 361, 379]\nclass = surprise", fillcolor="#e5396404"] ;
0 -> 4 [labeldistance=2.5, labelangle=-45, headlabel="False"] ;
5 [label="gini = 0.765\nsamples = 676\nvalue = [37, 30, 73, 23, 12, 165, 45, 343, 321]\nclass = anger", fillcolor="#e539d708"] ;
4 -> 5 ;
6 [label="gini = 0.829\nsamples = 369\nvalue = [155, 70, 25, 37, 129, 75, 11, 18, 58]\nclass = disgust", fillcolor="#e581390f"] ;
4 -> 6 ;
}