digraph Tree {
node [shape=box, style="filled, rounded", color="black", fontname=helvetica] ;
edge [fontname=helvetica] ;
0 [label="n_red <= 9.001\ngini = 0.889\nsamples = 2429\nvalue = [430, 434, 431, 415, 443, 423, 428, 461, 423]\nclass = anger", fillcolor="#e539d701"] ;
1 [label="green <= 0.022\ngini = 0.834\nsamples = 1037\nvalue = [158, 91, 22, 329, 71, 198, 226, 457, 106]\nclass = anger", fillcolor="#e539d719"] ;
0 -> 1 [labeldistance=2.5, labelangle=45, headlabel="True"] ;
2 [label="gini = 0.811\nsamples = 595\nvalue = [119, 72, 10, 296, 41, 82, 207, 84, 27]\nclass = AMBIGUOUS", fillcolor="#39e5811f"] ;
1 -> 2 ;
3 [label="gini = 0.685\nsamples = 442\nvalue = [39, 19, 12, 33, 30, 116, 19, 373, 79]\nclass = anger", fillcolor="#e539d76d"] ;
1 -> 3 ;
4 [label="red <= 0.941\ngini = 0.86\nsamples = 1392\nvalue = [272, 343, 409, 86, 372, 225, 202, 4, 317]\nclass = sadness", fillcolor="#64e53905"] ;
0 -> 4 [labeldistance=2.5, labelangle=-45, headlabel="False"] ;
5 [label="gini = 0.845\nsamples = 980\nvalue = [219, 287, 148, 68, 351, 187, 58, 2, 279]\nclass = trust", fillcolor="#39d7e50c"] ;
4 -> 5 ;
6 [label="gini = 0.753\nsamples = 412\nvalue = [53, 56, 261, 18, 21, 38, 144, 2, 38]\nclass = sadness", fillcolor="#64e5393d"] ;
4 -> 6 ;
}