digraph Tree {
node [shape=box, style="filled, rounded", color="black", fontname=helvetica] ;
edge [fontname=helvetica] ;
0 [label="n_blue <= 1.015\ngini = 0.888\nsamples = 2466\nvalue = [451, 399, 432, 460, 442, 393, 416, 422, 473]\nclass = surprise", fillcolor="#e5396401"] ;
1 [label="yellow <= 0.032\ngini = 0.858\nsamples = 1408\nvalue = [82, 104, 349, 284, 39, 246, 326, 393, 379]\nclass = anger", fillcolor="#e539d702"] ;
0 -> 1 [labeldistance=2.5, labelangle=45, headlabel="True"] ;
2 [label="gini = 0.85\nsamples = 1042\nvalue = [55, 102, 343, 213, 38, 157, 315, 125, 291]\nclass = sadness", fillcolor="#64e53905"] ;
1 -> 2 ;
3 [label="gini = 0.705\nsamples = 366\nvalue = [27, 2, 6, 71, 1, 89, 11, 268, 88]\nclass = anger", fillcolor="#e539d760"] ;
1 -> 3 ;
4 [label="n_blue <= 3.005\ngini = 0.837\nsamples = 1058\nvalue = [369, 295, 83, 176, 403, 147, 90, 29, 94]\nclass = trust", fillcolor="#39d7e507"] ;
0 -> 4 [labeldistance=2.5, labelangle=-45, headlabel="False"] ;
5 [label="gini = 0.862\nsamples = 522\nvalue = [90, 132, 44, 138, 164, 103, 53, 22, 72]\nclass = trust", fillcolor="#39d7e50a"] ;
4 -> 5 ;
6 [label="gini = 0.777\nsamples = 536\nvalue = [279, 163, 39, 38, 239, 44, 37, 7, 22]\nclass = disgust", fillcolor="#e5813910"] ;
4 -> 6 ;
}