digraph Tree {
node [shape=box, style="filled, rounded", color="black", fontname=helvetica] ;
edge [fontname=helvetica] ;
0 [label="n_green <= 0.79\ngini = 0.889\nsamples = 2410\nvalue = [409, 409, 410, 437, 424, 447, 471, 452, 429]\nclass = anticipation", fillcolor="#8139e501"] ;
1 [label="n_magenta <= 0.063\ngini = 0.787\nsamples = 552\nvalue = [56, 10, 228, 238, 26, 67, 245, 19, 25]\nclass = anticipation", fillcolor="#8139e503"] ;
0 -> 1 [labeldistance=2.5, labelangle=45, headlabel="True"] ;
2 [label="gini = 0.603\nsamples = 131\nvalue = [0, 1, 11, 89, 0, 4, 102, 9, 0]\nclass = anticipation", fillcolor="#8139e51a"] ;
1 -> 2 ;
3 [label="gini = 0.798\nsamples = 421\nvalue = [56, 9, 217, 149, 26, 63, 143, 10, 25]\nclass = sadness", fillcolor="#64e53920"] ;
1 -> 3 ;
4 [label="n_red <= 9.001\ngini = 0.88\nsamples = 1858\nvalue = [353, 399, 182, 199, 398, 380, 226, 433, 404]\nclass = anger", fillcolor="#e539d703"] ;
0 -> 4 [labeldistance=2.5, labelangle=-45, headlabel="False"] ;
5 [label="gini = 0.811\nsamples = 754\nvalue = [120, 91, 21, 145, 44, 177, 89, 426, 93]\nclass = anger", fillcolor="#e539d73e"] ;
4 -> 5 ;
6 [label="gini = 0.853\nsamples = 1104\nvalue = [233, 308, 161, 54, 354, 203, 137, 7, 311]\nclass = trust", fillcolor="#39d7e508"] ;
4 -> 6 ;
}