digraph Tree {
node [shape=box, style="filled, rounded", color="black", fontname=helvetica] ;
edge [fontname=helvetica] ;
0 [label="person <= 0.007\ngini = 0.888\nsamples = 2466\nvalue = [424, 439, 415, 384, 434, 415, 458, 438, 481]\nclass = surprise", fillcolor="#e5396402"] ;
1 [label="magenta <= 0.066\ngini = 0.808\nsamples = 1045\nvalue = [279, 15, 66, 5, 196, 386, 432, 197, 30]\nclass = anticipation", fillcolor="#8139e50a"] ;
0 -> 1 [labeldistance=2.5, labelangle=45, headlabel="True"] ;
2 [label="gini = 0.752\nsamples = 679\nvalue = [84, 3, 54, 5, 27, 278, 388, 196, 22]\nclass = anticipation", fillcolor="#8139e524"] ;
1 -> 2 ;
3 [label="gini = 0.733\nsamples = 366\nvalue = [195, 12, 12, 0, 169, 108, 44, 1, 8]\nclass = disgust", fillcolor="#e5813911"] ;
1 -> 3 ;
4 [label="green <= 0.013\ngini = 0.849\nsamples = 1421\nvalue = [145, 424, 349, 379, 238, 29, 26, 241, 451]\nclass = surprise", fillcolor="#e5396404"] ;
0 -> 4 [labeldistance=2.5, labelangle=-45, headlabel="False"] ;
5 [label="gini = 0.824\nsamples = 885\nvalue = [108, 318, 277, 335, 172, 14, 20, 50, 111]\nclass = AMBIGUOUS", fillcolor="#39e58104"] ;
4 -> 5 ;
6 [label="gini = 0.771\nsamples = 536\nvalue = [37, 106, 72, 44, 66, 15, 6, 191, 340]\nclass = surprise", fillcolor="#e5396437"] ;
4 -> 6 ;
}