digraph Tree {
node [shape=box, style="filled, rounded", color="black", fontname=helvetica] ;
edge [fontname=helvetica] ;
0 [label="blue <= 0.001\ngini = 0.888\nsamples = 2474\nvalue = [391, 455, 436, 484, 413, 415, 412, 452, 430]\nclass = AMBIGUOUS", fillcolor="#39e58102"] ;
1 [label="n_red <= 9.001\ngini = 0.863\nsamples = 1591\nvalue = [113, 112, 381, 402, 66, 303, 323, 431, 394]\nclass = anger", fillcolor="#e539d703"] ;
0 -> 1 [labeldistance=2.5, labelangle=45, headlabel="True"] ;
2 [label="gini = 0.788\nsamples = 809\nvalue = [49, 7, 31, 330, 23, 156, 169, 418, 104]\nclass = anger", fillcolor="#e539d717"] ;
1 -> 2 ;
3 [label="gini = 0.821\nsamples = 782\nvalue = [64, 105, 350, 72, 43, 147, 154, 13, 290]\nclass = sadness", fillcolor="#64e53910"] ;
1 -> 3 ;
4 [label="train <= 0.0\ngini = 0.813\nsamples = 883\nvalue = [278, 343, 55, 82, 347, 112, 89, 21, 36]\nclass = trust", fillcolor="#39d7e501"] ;
0 -> 4 [labeldistance=2.5, labelangle=-45, headlabel="False"] ;
5 [label="gini = 0.812\nsamples = 844\nvalue = [235, 338, 55, 81, 347, 107, 88, 21, 34]\nclass = trust", fillcolor="#39d7e502"] ;
4 -> 5 ;
6 [label="gini = 0.414\nsamples = 39\nvalue = [43, 5, 0, 1, 0, 5, 1, 0, 2]\nclass = disgust", fillcolor="#e58139ba"] ;
4 -> 6 ;
}