digraph Tree {
node [shape=box, style="filled, rounded", color="black", fontname=helvetica] ;
edge [fontname=helvetica] ;
0 [label="n_blue <= 1.271\ngini = 0.889\nsamples = 2451\nvalue = [439, 443, 410, 407, 447, 423, 415, 425, 479]\nclass = surprise", fillcolor="#e5396402"] ;
1 [label="yellow <= 0.007\ngini = 0.859\nsamples = 1407\nvalue = [77, 112, 347, 269, 48, 264, 333, 399, 399]\nclass = anger", fillcolor="#e539d700"] ;
0 -> 1 [labeldistance=2.5, labelangle=45, headlabel="True"] ;
2 [label="gini = 0.847\nsamples = 942\nvalue = [51, 109, 325, 194, 35, 136, 311, 92, 256]\nclass = sadness", fillcolor="#64e53903"] ;
1 -> 2 ;
3 [label="gini = 0.746\nsamples = 465\nvalue = [26, 3, 22, 75, 13, 128, 22, 307, 143]\nclass = anger", fillcolor="#e539d746"] ;
1 -> 3 ;
4 [label="n_blue <= 3.042\ngini = 0.828\nsamples = 1044\nvalue = [362, 331, 63, 138, 399, 159, 82, 26, 80]\nclass = trust", fillcolor="#39d7e507"] ;
0 -> 4 [labeldistance=2.5, labelangle=-45, headlabel="False"] ;
5 [label="gini = 0.853\nsamples = 522\nvalue = [86, 171, 27, 100, 159, 123, 50, 25, 64]\nclass = joy", fillcolor="#d7e53905"] ;
4 -> 5 ;
6 [label="gini = 0.764\nsamples = 522\nvalue = [276, 160, 36, 38, 240, 36, 32, 1, 16]\nclass = disgust", fillcolor="#e581390f"] ;
4 -> 6 ;
}