digraph Tree {
node [shape=box, style="filled, rounded", color="black", fontname=helvetica] ;
edge [fontname=helvetica] ;
0 [label="background <= 0.907\ngini = 0.889\nsamples = 2445\nvalue = [416, 408, 442, 446, 421, 419, 430, 479, 427]\nclass = anger", fillcolor="#e539d702"] ;
1 [label="cyan <= 0.038\ngini = 0.844\nsamples = 1178\nvalue = [108, 377, 175, 414, 155, 74, 19, 217, 360]\nclass = AMBIGUOUS", fillcolor="#39e58106"] ;
0 -> 1 [labeldistance=2.5, labelangle=45, headlabel="True"] ;
2 [label="gini = 0.815\nsamples = 812\nvalue = [84, 297, 153, 395, 109, 45, 17, 93, 92]\nclass = AMBIGUOUS", fillcolor="#39e58119"] ;
1 -> 2 ;
3 [label="gini = 0.74\nsamples = 366\nvalue = [24, 80, 22, 19, 46, 29, 2, 124, 268]\nclass = surprise", fillcolor="#e539644b"] ;
1 -> 3 ;
4 [label="yellow <= 0.036\ngini = 0.848\nsamples = 1267\nvalue = [308, 31, 267, 32, 266, 345, 411, 262, 67]\nclass = anticipation", fillcolor="#8139e50a"] ;
0 -> 4 [labeldistance=2.5, labelangle=-45, headlabel="False"] ;
5 [label="gini = 0.829\nsamples = 1006\nvalue = [289, 29, 261, 24, 259, 189, 397, 72, 49]\nclass = anticipation", fillcolor="#8139e516"] ;
4 -> 5 ;
6 [label="gini = 0.652\nsamples = 261\nvalue = [19, 2, 6, 8, 7, 156, 14, 190, 18]\nclass = anger", fillcolor="#e539d721"] ;
4 -> 6 ;
}