digraph Tree {
node [shape=box, style="filled, rounded", color="black", fontname=helvetica] ;
edge [fontname=helvetica] ;
0 [label="person <= 0.008\ngini = 0.778\nsamples = 1423\nvalue = [482, 29, 104, 16, 128, 126, 145, 405, 815]\nclass = anticipation", fillcolor="#e5396430"] ;
1 [label="n_cyan <= 2.5\ngini = 0.778\nsamples = 756\nvalue = [356, 3, 79, 6, 74, 81, 91, 394, 123]\nclass = anger", fillcolor="#e539d70b"] ;
0 -> 1 [labeldistance=2.5, labelangle=45, headlabel="True"] ;
2 [label="gini = 0.641\nsamples = 371\nvalue = [342, 1, 50, 1, 40, 26, 49, 57, 32]\nclass = joy", fillcolor="#e5813986"] ;
1 -> 2 ;
3 [label="gini = 0.653\nsamples = 385\nvalue = [14, 2, 29, 5, 34, 55, 42, 337, 91]\nclass = anger", fillcolor="#e539d779"] ;
1 -> 3 ;
4 [label="red <= 1.0\ngini = 0.537\nsamples = 667\nvalue = [126, 26, 25, 10, 54, 45, 54, 11, 692]\nclass = anticipation", fillcolor="#e539649d"] ;
0 -> 4 [labeldistance=2.5, labelangle=-45, headlabel="False"] ;
5 [label="gini = 0.502\nsamples = 635\nvalue = [84, 26, 25, 9, 50, 45, 54, 11, 690]\nclass = anticipation", fillcolor="#e53964aa"] ;
4 -> 5 ;
6 [label="gini = 0.257\nsamples = 32\nvalue = [42, 0, 0, 1, 4, 0, 0, 0, 2]\nclass = joy", fillcolor="#e58139d7"] ;
4 -> 6 ;
}