digraph Tree {
node [shape=box, style="filled, rounded", color="black", fontname=helvetica] ;
edge [fontname=helvetica] ;
0 [label="n_cyan <= 4.5\nentropy = 2.021\nsamples = 478\nvalue = [153, 0, 0, 112, 263, 7, 212, 2, 1]\nclass = surprise", fillcolor="#39d7e518"] ;
1 [label="red <= 0.729\nentropy = 1.43\nsamples = 263\nvalue = [51, 0, 0, 83, 253, 7, 2, 0, 1]\nclass = surprise", fillcolor="#39d7e58a"] ;
0 -> 1 [labeldistance=2.5, labelangle=45, headlabel="True"] ;
2 [label="entropy = 1.417\nsamples = 81\nvalue = [29, 0, 0, 73, 16, 0, 2, 0, 0]\nclass = disgust", fillcolor="#39e5817b"] ;
1 -> 2 ;
3 [label="entropy = 0.819\nsamples = 182\nvalue = [22, 0, 0, 10, 237, 7, 0, 0, 1]\nclass = surprise", fillcolor="#39d7e5d7"] ;
1 -> 3 ;
4 [label="red <= 0.553\nentropy = 1.447\nsamples = 215\nvalue = [102, 0, 0, 29, 10, 0, 210, 2, 0]\nclass = trust", fillcolor="#8139e56e"] ;
0 -> 4 [labeldistance=2.5, labelangle=-45, headlabel="False"] ;
5 [label="entropy = 0.481\nsamples = 132\nvalue = [4, 0, 0, 14, 0, 0, 196, 0, 0]\nclass = trust", fillcolor="#8139e5e8"] ;
4 -> 5 ;
6 [label="entropy = 1.397\nsamples = 83\nvalue = [98, 0, 0, 15, 10, 0, 14, 2, 0]\nclass = joy", fillcolor="#e58139ab"] ;
4 -> 6 ;
}