digraph Tree {
node [shape=box, style="filled, rounded", color="black", fontname=helvetica] ;
edge [fontname=helvetica] ;
0 [label="person <= 0.012\ngini = 0.78\nsamples = 1430\nvalue = [459, 27, 102, 24, 145, 137, 137, 397, 822]\nclass = anticipation", fillcolor="#e5396434"] ;
1 [label="n_cyan <= 2.5\ngini = 0.787\nsamples = 769\nvalue = [354, 2, 75, 12, 84, 102, 86, 391, 134]\nclass = anger", fillcolor="#e539d70b"] ;
0 -> 1 [labeldistance=2.5, labelangle=45, headlabel="True"] ;
2 [label="gini = 0.655\nsamples = 365\nvalue = [335, 1, 40, 6, 57, 34, 45, 44, 36]\nclass = joy", fillcolor="#e5813983"] ;
1 -> 2 ;
3 [label="gini = 0.664\nsamples = 404\nvalue = [19, 1, 35, 6, 27, 68, 41, 347, 98]\nclass = anger", fillcolor="#e539d775"] ;
1 -> 3 ;
4 [label="red <= 1.0\ngini = 0.516\nsamples = 661\nvalue = [105, 25, 27, 12, 61, 35, 51, 6, 688]\nclass = anticipation", fillcolor="#e53964a4"] ;
0 -> 4 [labeldistance=2.5, labelangle=-45, headlabel="False"] ;
5 [label="gini = 0.477\nsamples = 628\nvalue = [61, 24, 27, 12, 60, 35, 51, 6, 687]\nclass = anticipation", fillcolor="#e53964b1"] ;
4 -> 5 ;
6 [label="gini = 0.122\nsamples = 33\nvalue = [44, 1, 0, 0, 1, 0, 0, 0, 1]\nclass = joy", fillcolor="#e58139ee"] ;
4 -> 6 ;
}