digraph Tree {
node [shape=box, style="filled, rounded", color="black", fontname=helvetica] ;
edge [fontname=helvetica] ;
0 [label="person <= 0.005\ngini = 0.778\nsamples = 1428\nvalue = [443, 28, 115, 30, 130, 109, 154, 406, 835]\nclass = anticipation", fillcolor="#e5396437"] ;
1 [label="n_cyan <= 2.5\ngini = 0.78\nsamples = 728\nvalue = [327, 5, 85, 10, 67, 73, 103, 398, 110]\nclass = anger", fillcolor="#e539d715"] ;
0 -> 1 [labeldistance=2.5, labelangle=45, headlabel="True"] ;
2 [label="gini = 0.665\nsamples = 361\nvalue = [315, 3, 45, 7, 38, 25, 48, 66, 28]\nclass = joy", fillcolor="#e581397d"] ;
1 -> 2 ;
3 [label="gini = 0.657\nsamples = 367\nvalue = [12, 2, 40, 3, 29, 48, 55, 332, 82]\nclass = anger", fillcolor="#e539d77a"] ;
1 -> 3 ;
4 [label="red <= 1.0\ngini = 0.522\nsamples = 700\nvalue = [116, 23, 30, 20, 63, 36, 51, 8, 725]\nclass = anticipation", fillcolor="#e53964a2"] ;
0 -> 4 [labeldistance=2.5, labelangle=-45, headlabel="False"] ;
5 [label="gini = 0.483\nsamples = 668\nvalue = [71, 23, 30, 18, 60, 36, 51, 8, 725]\nclass = anticipation", fillcolor="#e53964af"] ;
4 -> 5 ;
6 [label="gini = 0.185\nsamples = 32\nvalue = [45, 0, 0, 2, 3, 0, 0, 0, 0]\nclass = joy", fillcolor="#e58139e4"] ;
4 -> 6 ;
}