digraph Tree {
node [shape=box, style="filled, rounded", color="black", fontname=helvetica] ;
edge [fontname=helvetica] ;
0 [label="person <= 0.005\ngini = 0.777\nsamples = 1422\nvalue = [471, 38, 106, 19, 124, 139, 134, 387, 832]\nclass = anticipation", fillcolor="#e5396434"] ;
1 [label="n_cyan <= 2.5\ngini = 0.776\nsamples = 726\nvalue = [351, 2, 78, 5, 64, 88, 77, 372, 119]\nclass = anger", fillcolor="#e539d707"] ;
0 -> 1 [labeldistance=2.5, labelangle=45, headlabel="True"] ;
2 [label="gini = 0.619\nsamples = 355\nvalue = [336, 0, 36, 3, 32, 44, 39, 57, 20]\nclass = joy", fillcolor="#e581398b"] ;
1 -> 2 ;
3 [label="gini = 0.667\nsamples = 371\nvalue = [15, 2, 42, 2, 32, 44, 38, 315, 99]\nclass = anger", fillcolor="#e539d770"] ;
1 -> 3 ;
4 [label="magenta <= 0.0\ngini = 0.553\nsamples = 696\nvalue = [120, 36, 28, 14, 60, 51, 57, 15, 713]\nclass = anticipation", fillcolor="#e539649b"] ;
0 -> 4 [labeldistance=2.5, labelangle=-45, headlabel="False"] ;
5 [label="gini = 0.421\nsamples = 46\nvalue = [59, 2, 0, 3, 6, 0, 0, 0, 9]\nclass = joy", fillcolor="#e58139b6"] ;
4 -> 5 ;
6 [label="gini = 0.505\nsamples = 650\nvalue = [61, 34, 28, 11, 54, 51, 57, 15, 704]\nclass = anticipation", fillcolor="#e53964ac"] ;
4 -> 6 ;
}