digraph Tree {
node [shape=box, style="filled, rounded", color="black", fontname=helvetica] ;
edge [fontname=helvetica] ;
0 [label="red <= 0.657\nentropy = 2.009\nsamples = 481\nvalue = [148, 0, 1, 122, 281, 9, 189, 0, 0]\nclass = surprise", fillcolor="#39d7e52a"] ;
1 [label="green <= 0.106\nentropy = 1.427\nsamples = 207\nvalue = [39, 0, 0, 84, 5, 0, 185, 0, 0]\nclass = trust", fillcolor="#8139e570"] ;
0 -> 1 [labeldistance=2.5, labelangle=45, headlabel="True"] ;
2 [label="entropy = 1.605\nsamples = 110\nvalue = [32, 0, 0, 84, 5, 0, 39, 0, 0]\nclass = disgust", fillcolor="#39e5815f"] ;
1 -> 2 ;
3 [label="entropy = 0.268\nsamples = 97\nvalue = [7, 0, 0, 0, 0, 0, 146, 0, 0]\nclass = trust", fillcolor="#8139e5f3"] ;
1 -> 3 ;
4 [label="cyan <= 0.002\nentropy = 1.422\nsamples = 274\nvalue = [109, 0, 1, 38, 276, 9, 4, 0, 0]\nclass = surprise", fillcolor="#39d7e582"] ;
0 -> 4 [labeldistance=2.5, labelangle=-45, headlabel="False"] ;
5 [label="entropy = 0.93\nsamples = 171\nvalue = [14, 0, 1, 21, 221, 9, 0, 0, 0]\nclass = surprise", fillcolor="#39d7e5d0"] ;
4 -> 5 ;
6 [label="entropy = 1.455\nsamples = 103\nvalue = [95, 0, 0, 17, 55, 0, 4, 0, 0]\nclass = joy", fillcolor="#e5813958"] ;
4 -> 6 ;
}