digraph Tree {
node [shape=box, style="filled, rounded", color="black", fontname=helvetica] ;
edge [fontname=helvetica] ;
0 [label="person <= 0.012\ngini = 0.777\nsamples = 1415\nvalue = [420, 25, 106, 29, 151, 131, 134, 406, 848]\nclass = anticipation", fillcolor="#e539643c"] ;
1 [label="n_cyan <= 1.5\ngini = 0.784\nsamples = 747\nvalue = [336, 0, 80, 9, 92, 91, 72, 389, 125]\nclass = anger", fillcolor="#e539d710"] ;
0 -> 1 [labeldistance=2.5, labelangle=45, headlabel="True"] ;
2 [label="gini = 0.595\nsamples = 307\nvalue = [303, 0, 26, 4, 45, 30, 37, 34, 13]\nclass = joy", fillcolor="#e5813993"] ;
1 -> 2 ;
3 [label="gini = 0.696\nsamples = 440\nvalue = [33, 0, 54, 5, 47, 61, 35, 355, 112]\nclass = anger", fillcolor="#e539d769"] ;
1 -> 3 ;
4 [label="n_magenta <= 0.5\ngini = 0.515\nsamples = 668\nvalue = [84, 25, 26, 20, 59, 40, 62, 17, 723]\nclass = anticipation", fillcolor="#e53964a8"] ;
0 -> 4 [labeldistance=2.5, labelangle=-45, headlabel="False"] ;
5 [label="gini = 0.444\nsamples = 41\nvalue = [44, 2, 0, 3, 5, 0, 1, 0, 5]\nclass = joy", fillcolor="#e58139b5"] ;
4 -> 5 ;
6 [label="gini = 0.469\nsamples = 627\nvalue = [40, 23, 26, 17, 54, 40, 61, 17, 718]\nclass = anticipation", fillcolor="#e53964b3"] ;
4 -> 6 ;
}