digraph Tree {
node [shape=box, style="filled, rounded", color="black", fontname=helvetica] ;
edge [fontname=helvetica] ;
0 [label="red <= 0.696\nentropy = 2.02\nsamples = 463\nvalue = [154, 1, 2, 107, 265, 6, 214, 0, 1]\nclass = surprise", fillcolor="#39d7e518"] ;
1 [label="green <= 0.104\nentropy = 1.435\nsamples = 216\nvalue = [57, 0, 0, 85, 4, 0, 212, 0, 0]\nclass = trust", fillcolor="#8139e577"] ;
0 -> 1 [labeldistance=2.5, labelangle=45, headlabel="True"] ;
2 [label="entropy = 1.627\nsamples = 117\nvalue = [46, 0, 0, 85, 4, 0, 41, 0, 0]\nclass = disgust", fillcolor="#39e5814d"] ;
1 -> 2 ;
3 [label="entropy = 0.329\nsamples = 99\nvalue = [11, 0, 0, 0, 0, 0, 171, 0, 0]\nclass = trust", fillcolor="#8139e5ef"] ;
1 -> 3 ;
4 [label="cyan <= 0.001\nentropy = 1.336\nsamples = 247\nvalue = [97, 1, 2, 22, 261, 6, 2, 0, 1]\nclass = surprise", fillcolor="#39d7e58e"] ;
0 -> 4 [labeldistance=2.5, labelangle=-45, headlabel="False"] ;
5 [label="entropy = 0.812\nsamples = 158\nvalue = [10, 0, 2, 12, 206, 6, 0, 0, 1]\nclass = surprise", fillcolor="#39d7e5dc"] ;
4 -> 5 ;
6 [label="entropy = 1.381\nsamples = 89\nvalue = [87, 1, 0, 10, 55, 0, 2, 0, 0]\nclass = joy", fillcolor="#e5813952"] ;
4 -> 6 ;
}