digraph Tree {
node [shape=box, style="filled, rounded", color="black", fontname=helvetica] ;
edge [fontname=helvetica] ;
0 [label="person <= 0.012\ngini = 0.769\nsamples = 1433\nvalue = [471, 32, 107, 18, 123, 118, 132, 392, 857]\nclass = anticipation", fillcolor="#e5396437"] ;
1 [label="n_cyan <= 2.5\ngini = 0.781\nsamples = 754\nvalue = [347, 7, 76, 10, 63, 76, 80, 377, 144]\nclass = anger", fillcolor="#e539d709"] ;
0 -> 1 [labeldistance=2.5, labelangle=45, headlabel="True"] ;
2 [label="gini = 0.594\nsamples = 355\nvalue = [333, 2, 31, 7, 35, 28, 37, 41, 24]\nclass = joy", fillcolor="#e5813996"] ;
1 -> 2 ;
3 [label="gini = 0.674\nsamples = 399\nvalue = [14, 5, 45, 3, 28, 48, 43, 336, 120]\nclass = anger", fillcolor="#e539d76a"] ;
1 -> 3 ;
4 [label="magenta <= 0.0\ngini = 0.534\nsamples = 679\nvalue = [124, 25, 31, 8, 60, 42, 52, 15, 713]\nclass = anticipation", fillcolor="#e539649f"] ;
0 -> 4 [labeldistance=2.5, labelangle=-45, headlabel="False"] ;
5 [label="gini = 0.238\nsamples = 38\nvalue = [59, 1, 0, 0, 2, 0, 0, 0, 6]\nclass = joy", fillcolor="#e58139da"] ;
4 -> 5 ;
6 [label="gini = 0.488\nsamples = 641\nvalue = [65, 24, 31, 8, 58, 42, 52, 15, 707]\nclass = anticipation", fillcolor="#e53964af"] ;
4 -> 6 ;
}