digraph Tree {
node [shape=box, style="filled, rounded", color="black", fontname=helvetica] ;
edge [fontname=helvetica] ;
0 [label="person <= 0.004\ngini = 0.773\nsamples = 1439\nvalue = [484, 25, 94, 16, 120, 148, 155, 365, 843]\nclass = anticipation", fillcolor="#e5396434"] ;
1 [label="n_cyan <= 2.5\ngini = 0.782\nsamples = 728\nvalue = [335, 5, 69, 5, 66, 88, 88, 358, 116]\nclass = anger", fillcolor="#e539d707"] ;
0 -> 1 [labeldistance=2.5, labelangle=45, headlabel="True"] ;
2 [label="gini = 0.64\nsamples = 366\nvalue = [320, 0, 44, 2, 42, 32, 40, 54, 24]\nclass = joy", fillcolor="#e5813987"] ;
1 -> 2 ;
3 [label="gini = 0.671\nsamples = 362\nvalue = [15, 5, 25, 3, 24, 56, 48, 304, 92]\nclass = anger", fillcolor="#e539d771"] ;
1 -> 3 ;
4 [label="red <= 1.0\ngini = 0.551\nsamples = 711\nvalue = [149, 20, 25, 11, 54, 60, 67, 7, 727]\nclass = anticipation", fillcolor="#e5396498"] ;
0 -> 4 [labeldistance=2.5, labelangle=-45, headlabel="False"] ;
5 [label="gini = 0.511\nsamples = 673\nvalue = [90, 19, 25, 11, 53, 60, 67, 7, 727]\nclass = anticipation", fillcolor="#e53964a8"] ;
4 -> 5 ;
6 [label="gini = 0.064\nsamples = 38\nvalue = [59, 1, 0, 0, 1, 0, 0, 0, 0]\nclass = joy", fillcolor="#e58139f6"] ;
4 -> 6 ;
}