digraph Tree {
node [shape=box, style="filled, rounded", color="black", fontname=helvetica] ;
edge [fontname=helvetica] ;
0 [label="person <= 0.012\ngini = 0.765\nsamples = 1451\nvalue = [461, 28, 104, 18, 129, 124, 131, 376, 879]\nclass = anticipation", fillcolor="#e539643c"] ;
1 [label="n_cyan <= 2.5\ngini = 0.777\nsamples = 766\nvalue = [357, 2, 76, 6, 66, 82, 76, 363, 130]\nclass = anger", fillcolor="#e539d702"] ;
0 -> 1 [labeldistance=2.5, labelangle=45, headlabel="True"] ;
2 [label="gini = 0.59\nsamples = 365\nvalue = [341, 1, 32, 3, 30, 27, 39, 46, 30]\nclass = joy", fillcolor="#e5813996"] ;
1 -> 2 ;
3 [label="gini = 0.681\nsamples = 401\nvalue = [16, 1, 44, 3, 36, 55, 37, 317, 100]\nclass = anger", fillcolor="#e539d76d"] ;
1 -> 3 ;
4 [label="red <= 1.0\ngini = 0.512\nsamples = 685\nvalue = [104, 26, 28, 12, 63, 42, 55, 13, 749]\nclass = anticipation", fillcolor="#e53964a6"] ;
0 -> 4 [labeldistance=2.5, labelangle=-45, headlabel="False"] ;
5 [label="gini = 0.469\nsamples = 654\nvalue = [56, 25, 28, 12, 60, 42, 55, 13, 748]\nclass = anticipation", fillcolor="#e53964b3"] ;
4 -> 5 ;
6 [label="gini = 0.176\nsamples = 31\nvalue = [48, 1, 0, 0, 3, 0, 0, 0, 1]\nclass = joy", fillcolor="#e58139e6"] ;
4 -> 6 ;
}