digraph Tree {
node [shape=box, style="filled, rounded", color="black", fontname=helvetica] ;
edge [fontname=helvetica] ;
0 [label="person <= 0.005\ngini = 0.777\nsamples = 1407\nvalue = [481, 30, 101, 19, 132, 120, 147, 397, 823]\nclass = anticipation", fillcolor="#e5396431"] ;
1 [label="n_cyan <= 2.5\ngini = 0.766\nsamples = 730\nvalue = [357, 2, 69, 3, 60, 82, 80, 386, 114]\nclass = anger", fillcolor="#e539d709"] ;
0 -> 1 [labeldistance=2.5, labelangle=45, headlabel="True"] ;
2 [label="gini = 0.595\nsamples = 357\nvalue = [340, 1, 41, 2, 36, 36, 32, 38, 25]\nclass = joy", fillcolor="#e5813996"] ;
1 -> 2 ;
3 [label="gini = 0.627\nsamples = 373\nvalue = [17, 1, 28, 1, 24, 46, 48, 348, 89]\nclass = anger", fillcolor="#e539d781"] ;
1 -> 3 ;
4 [label="n_magenta <= 0.5\ngini = 0.558\nsamples = 677\nvalue = [124, 28, 32, 16, 72, 38, 67, 11, 709]\nclass = anticipation", fillcolor="#e5396499"] ;
0 -> 4 [labeldistance=2.5, labelangle=-45, headlabel="False"] ;
5 [label="gini = 0.337\nsamples = 43\nvalue = [55, 1, 0, 2, 4, 0, 2, 0, 4]\nclass = joy", fillcolor="#e58139cb"] ;
4 -> 5 ;
6 [label="gini = 0.514\nsamples = 634\nvalue = [69, 27, 32, 14, 68, 38, 65, 11, 705]\nclass = anticipation", fillcolor="#e53964a9"] ;
4 -> 6 ;
}