digraph Tree {
node [shape=box, style="filled, rounded", color="black", fontname=helvetica] ;
edge [fontname=helvetica] ;
0 [label="cyan <= 0.015\nentropy = 2.002\nsamples = 473\nvalue = [149, 0, 1, 107, 277, 6, 208, 1, 1]\nclass = surprise", fillcolor="#39d7e520"] ;
1 [label="red <= 0.71\nentropy = 1.468\nsamples = 268\nvalue = [66, 0, 1, 79, 267, 6, 3, 0, 1]\nclass = surprise", fillcolor="#39d7e58b"] ;
0 -> 1 [labeldistance=2.5, labelangle=45, headlabel="True"] ;
2 [label="entropy = 1.401\nsamples = 71\nvalue = [34, 0, 0, 60, 9, 0, 2, 0, 0]\nclass = disgust", fillcolor="#39e5815d"] ;
1 -> 2 ;
3 [label="entropy = 1.007\nsamples = 197\nvalue = [32, 0, 1, 19, 258, 6, 1, 0, 1]\nclass = surprise", fillcolor="#39d7e5ca"] ;
1 -> 3 ;
4 [label="red <= 0.558\nentropy = 1.407\nsamples = 205\nvalue = [83, 0, 0, 28, 10, 0, 205, 1, 0]\nclass = trust", fillcolor="#8139e580"] ;
0 -> 4 [labeldistance=2.5, labelangle=-45, headlabel="False"] ;
5 [label="entropy = 0.5\nsamples = 128\nvalue = [3, 0, 0, 16, 0, 0, 188, 0, 0]\nclass = trust", fillcolor="#8139e5e6"] ;
4 -> 5 ;
6 [label="entropy = 1.478\nsamples = 77\nvalue = [80, 0, 0, 12, 10, 0, 17, 1, 0]\nclass = joy", fillcolor="#e581399c"] ;
4 -> 6 ;
}