digraph Tree {
node [shape=box, style="filled, rounded", color="black", fontname=helvetica] ;
edge [fontname=helvetica] ;
0 [label="red <= 0.652\nentropy = 2.029\nsamples = 465\nvalue = [156, 0, 0, 129, 245, 6, 212, 0, 2]\nclass = surprise", fillcolor="#39d7e510"] ;
1 [label="cyan <= 0.017\nentropy = 1.424\nsamples = 214\nvalue = [41, 0, 0, 98, 5, 0, 201, 0, 0]\nclass = trust", fillcolor="#8139e56a"] ;
0 -> 1 [labeldistance=2.5, labelangle=45, headlabel="True"] ;
2 [label="entropy = 1.263\nsamples = 68\nvalue = [26, 0, 0, 77, 5, 0, 5, 0, 0]\nclass = disgust", fillcolor="#39e58195"] ;
1 -> 2 ;
3 [label="entropy = 0.775\nsamples = 146\nvalue = [15, 0, 0, 21, 0, 0, 196, 0, 0]\nclass = trust", fillcolor="#8139e5d3"] ;
1 -> 3 ;
4 [label="green <= 0.011\nentropy = 1.516\nsamples = 251\nvalue = [115, 0, 0, 31, 240, 6, 11, 0, 2]\nclass = surprise", fillcolor="#39d7e56e"] ;
0 -> 4 [labeldistance=2.5, labelangle=-45, headlabel="False"] ;
5 [label="entropy = 1.117\nsamples = 175\nvalue = [19, 0, 0, 31, 217, 6, 2, 0, 2]\nclass = surprise", fillcolor="#39d7e5c1"] ;
4 -> 5 ;
6 [label="entropy = 1.026\nsamples = 76\nvalue = [96, 0, 0, 0, 23, 0, 9, 0, 0]\nclass = joy", fillcolor="#e58139b1"] ;
4 -> 6 ;
}