digraph Tree {
node [shape=box, style="filled, rounded", color="black", fontname=helvetica] ;
edge [fontname=helvetica] ;
0 [label="red <= 0.709\nentropy = 2.026\nsamples = 475\nvalue = [152, 0, 2, 115, 260, 7, 213, 0, 1]\nclass = surprise", fillcolor="#39d7e516"] ;
1 [label="green <= 0.044\nentropy = 1.589\nsamples = 241\nvalue = [78, 0, 0, 95, 11, 0, 208, 0, 0]\nclass = trust", fillcolor="#8139e561"] ;
0 -> 1 [labeldistance=2.5, labelangle=45, headlabel="True"] ;
2 [label="entropy = 1.593\nsamples = 103\nvalue = [44, 0, 0, 93, 11, 0, 19, 0, 0]\nclass = disgust", fillcolor="#39e58166"] ;
1 -> 2 ;
3 [label="entropy = 0.684\nsamples = 138\nvalue = [34, 0, 0, 2, 0, 0, 189, 0, 0]\nclass = trust", fillcolor="#8139e5cf"] ;
1 -> 3 ;
4 [label="green <= 0.011\nentropy = 1.33\nsamples = 234\nvalue = [74, 0, 2, 20, 249, 7, 5, 0, 1]\nclass = surprise", fillcolor="#39d7e59d"] ;
0 -> 4 [labeldistance=2.5, labelangle=-45, headlabel="False"] ;
5 [label="entropy = 0.939\nsamples = 180\nvalue = [10, 0, 2, 20, 225, 7, 2, 0, 1]\nclass = surprise", fillcolor="#39d7e5d4"] ;
4 -> 5 ;
6 [label="entropy = 1.027\nsamples = 54\nvalue = [64, 0, 0, 0, 24, 0, 3, 0, 0]\nclass = joy", fillcolor="#e5813998"] ;
4 -> 6 ;
}