digraph Tree {
node [shape=box, style="filled, rounded", color="black", fontname=helvetica] ;
edge [fontname=helvetica] ;
0 [label="red <= 0.657\nentropy = 1.972\nsamples = 469\nvalue = [142, 0, 0, 129, 284, 5, 190, 0, 0]\nclass = surprise", fillcolor="#39d7e52b"] ;
1 [label="green <= 0.047\nentropy = 1.54\nsamples = 213\nvalue = [61, 0, 0, 92, 6, 0, 182, 0, 0]\nclass = trust", fillcolor="#8139e55c"] ;
0 -> 1 [labeldistance=2.5, labelangle=45, headlabel="True"] ;
2 [label="entropy = 1.513\nsamples = 100\nvalue = [36, 0, 0, 91, 6, 0, 21, 0, 0]\nclass = disgust", fillcolor="#39e58177"] ;
1 -> 2 ;
3 [label="entropy = 0.614\nsamples = 113\nvalue = [25, 0, 0, 1, 0, 0, 161, 0, 0]\nclass = trust", fillcolor="#8139e5d6"] ;
1 -> 3 ;
4 [label="green <= 0.009\nentropy = 1.344\nsamples = 256\nvalue = [81, 0, 0, 37, 278, 5, 8, 0, 0]\nclass = surprise", fillcolor="#39d7e599"] ;
0 -> 4 [labeldistance=2.5, labelangle=-45, headlabel="False"] ;
5 [label="entropy = 0.866\nsamples = 185\nvalue = [13, 0, 0, 33, 250, 5, 0, 0, 0]\nclass = surprise", fillcolor="#39d7e5ce"] ;
4 -> 5 ;
6 [label="entropy = 1.379\nsamples = 71\nvalue = [68, 0, 0, 4, 28, 0, 8, 0, 0]\nclass = joy", fillcolor="#e5813980"] ;
4 -> 6 ;
}