digraph Tree {
node [shape=box, style="filled, rounded", color="black", fontname=helvetica] ;
edge [fontname=helvetica] ;
0 [label="red <= 0.668\nentropy = 2.03\nsamples = 487\nvalue = [140, 3, 2, 116, 280, 4, 203, 1, 1]\nclass = surprise", fillcolor="#39d7e524"] ;
1 [label="cyan <= 0.012\nentropy = 1.474\nsamples = 228\nvalue = [48, 0, 0, 85, 8, 0, 201, 0, 0]\nclass = trust", fillcolor="#8139e573"] ;
0 -> 1 [labeldistance=2.5, labelangle=45, headlabel="True"] ;
2 [label="entropy = 1.247\nsamples = 55\nvalue = [23, 0, 0, 54, 8, 0, 0, 0, 0]\nclass = disgust", fillcolor="#39e5817f"] ;
1 -> 2 ;
3 [label="entropy = 0.972\nsamples = 173\nvalue = [25, 0, 0, 31, 0, 0, 201, 0, 0]\nclass = trust", fillcolor="#8139e5c0"] ;
1 -> 3 ;
4 [label="green <= 0.01\nentropy = 1.392\nsamples = 259\nvalue = [92, 3, 2, 31, 272, 4, 2, 1, 1]\nclass = surprise", fillcolor="#39d7e591"] ;
0 -> 4 [labeldistance=2.5, labelangle=-45, headlabel="False"] ;
5 [label="entropy = 1.025\nsamples = 185\nvalue = [17, 3, 2, 28, 242, 4, 0, 0, 1]\nclass = surprise", fillcolor="#39d7e5cb"] ;
4 -> 5 ;
6 [label="entropy = 1.199\nsamples = 74\nvalue = [75, 0, 0, 3, 30, 0, 2, 1, 0]\nclass = joy", fillcolor="#e581398e"] ;
4 -> 6 ;
}