digraph Tree {
node [shape=box, style="filled, rounded", color="black", fontname=helvetica] ;
edge [fontname=helvetica] ;
0 [label="red <= 0.664\nentropy = 2.035\nsamples = 479\nvalue = [135, 0, 3, 116, 292, 7, 193, 3, 1]\nclass = surprise", fillcolor="#39d7e52d"] ;
1 [label="green <= 0.026\nentropy = 1.413\nsamples = 202\nvalue = [40, 0, 0, 91, 3, 0, 184, 0, 0]\nclass = trust", fillcolor="#8139e568"] ;
0 -> 1 [labeldistance=2.5, labelangle=45, headlabel="True"] ;
2 [label="entropy = 1.219\nsamples = 76\nvalue = [23, 0, 0, 82, 3, 0, 8, 0, 0]\nclass = disgust", fillcolor="#39e581a2"] ;
1 -> 2 ;
3 [label="entropy = 0.674\nsamples = 126\nvalue = [17, 0, 0, 9, 0, 0, 176, 0, 0]\nclass = trust", fillcolor="#8139e5db"] ;
1 -> 3 ;
4 [label="green <= 0.011\nentropy = 1.439\nsamples = 277\nvalue = [95, 0, 3, 25, 289, 7, 9, 3, 1]\nclass = surprise", fillcolor="#39d7e593"] ;
0 -> 4 [labeldistance=2.5, labelangle=-45, headlabel="False"] ;
5 [label="entropy = 1.031\nsamples = 205\nvalue = [21, 0, 3, 22, 262, 7, 3, 0, 1]\nclass = surprise", fillcolor="#39d7e5ce"] ;
4 -> 5 ;
6 [label="entropy = 1.396\nsamples = 72\nvalue = [74, 0, 0, 3, 27, 0, 6, 3, 0]\nclass = joy", fillcolor="#e581398b"] ;
4 -> 6 ;
}