digraph Tree {
node [shape=box, style="filled, rounded", color="black", fontname=helvetica] ;
edge [fontname=helvetica] ;
0 [label="person <= 0.012\ngini = 0.771\nsamples = 1446\nvalue = [475, 28, 100, 12, 139, 130, 114, 416, 836]\nclass = anticipation", fillcolor="#e5396434"] ;
1 [label="cyan <= 0.002\ngini = 0.773\nsamples = 781\nvalue = [367, 3, 72, 6, 84, 86, 72, 404, 131]\nclass = anger", fillcolor="#e539d70b"] ;
0 -> 1 [labeldistance=2.5, labelangle=45, headlabel="True"] ;
2 [label="gini = 0.633\nsamples = 377\nvalue = [337, 1, 36, 4, 44, 36, 32, 57, 33]\nclass = joy", fillcolor="#e5813989"] ;
1 -> 2 ;
3 [label="gini = 0.668\nsamples = 404\nvalue = [30, 2, 36, 2, 40, 50, 40, 347, 98]\nclass = anger", fillcolor="#e539d774"] ;
1 -> 3 ;
4 [label="red <= 1.0\ngini = 0.508\nsamples = 665\nvalue = [108, 25, 28, 6, 55, 44, 42, 12, 705]\nclass = anticipation", fillcolor="#e53964a6"] ;
0 -> 4 [labeldistance=2.5, labelangle=-45, headlabel="False"] ;
5 [label="gini = 0.464\nsamples = 631\nvalue = [62, 24, 28, 6, 50, 44, 42, 12, 703]\nclass = anticipation", fillcolor="#e53964b4"] ;
4 -> 5 ;
6 [label="gini = 0.264\nsamples = 34\nvalue = [46, 1, 0, 0, 5, 0, 0, 0, 2]\nclass = joy", fillcolor="#e58139d5"] ;
4 -> 6 ;
}