digraph Tree {
node [shape=box, style="filled, rounded", color="black", fontname=helvetica] ;
edge [fontname=helvetica] ;
0 [label="red <= 0.719\nentropy = 1.991\nsamples = 482\nvalue = [161, 1, 0, 110, 290, 5, 181, 0, 2]\nclass = surprise", fillcolor="#39d7e531"] ;
1 [label="green <= 0.054\nentropy = 1.587\nsamples = 226\nvalue = [84, 0, 0, 91, 5, 0, 174, 0, 0]\nclass = trust", fillcolor="#8139e550"] ;
0 -> 1 [labeldistance=2.5, labelangle=45, headlabel="True"] ;
2 [label="entropy = 1.545\nsamples = 114\nvalue = [49, 0, 0, 90, 5, 0, 23, 0, 0]\nclass = disgust", fillcolor="#39e58159"] ;
1 -> 2 ;
3 [label="entropy = 0.742\nsamples = 112\nvalue = [35, 0, 0, 1, 0, 0, 151, 0, 0]\nclass = trust", fillcolor="#8139e5c3"] ;
1 -> 3 ;
4 [label="cyan <= 0.002\nentropy = 1.254\nsamples = 256\nvalue = [77, 1, 0, 19, 285, 5, 7, 0, 2]\nclass = surprise", fillcolor="#39d7e5a6"] ;
0 -> 4 [labeldistance=2.5, labelangle=-45, headlabel="False"] ;
5 [label="entropy = 0.613\nsamples = 171\nvalue = [8, 0, 0, 10, 245, 5, 0, 0, 2]\nclass = surprise", fillcolor="#39d7e5e6"] ;
4 -> 5 ;
6 [label="entropy = 1.56\nsamples = 85\nvalue = [69, 1, 0, 9, 40, 0, 7, 0, 0]\nclass = joy", fillcolor="#e5813956"] ;
4 -> 6 ;
}