digraph Tree {
node [shape=box, style="filled, rounded", color="black", fontname=helvetica] ;
edge [fontname=helvetica] ;
0 [label="red <= 0.667\nentropy = 1.983\nsamples = 484\nvalue = [147, 2, 0, 109, 286, 6, 200, 0, 0]\nclass = surprise", fillcolor="#39d7e528"] ;
1 [label="green <= 0.099\nentropy = 1.488\nsamples = 213\nvalue = [50, 0, 0, 83, 7, 0, 191, 0, 0]\nclass = trust", fillcolor="#8139e56f"] ;
0 -> 1 [labeldistance=2.5, labelangle=45, headlabel="True"] ;
2 [label="entropy = 1.686\nsamples = 112\nvalue = [43, 0, 0, 83, 7, 0, 41, 0, 0]\nclass = disgust", fillcolor="#39e5814e"] ;
1 -> 2 ;
3 [label="entropy = 0.263\nsamples = 101\nvalue = [7, 0, 0, 0, 0, 0, 150, 0, 0]\nclass = trust", fillcolor="#8139e5f3"] ;
1 -> 3 ;
4 [label="green <= 0.011\nentropy = 1.372\nsamples = 271\nvalue = [97, 2, 0, 26, 279, 6, 9, 0, 0]\nclass = surprise", fillcolor="#39d7e590"] ;
0 -> 4 [labeldistance=2.5, labelangle=-45, headlabel="False"] ;
5 [label="entropy = 0.883\nsamples = 192\nvalue = [13, 2, 0, 23, 248, 6, 1, 0, 0]\nclass = surprise", fillcolor="#39d7e5d5"] ;
4 -> 5 ;
6 [label="entropy = 1.269\nsamples = 79\nvalue = [84, 0, 0, 3, 31, 0, 8, 0, 0]\nclass = joy", fillcolor="#e581398e"] ;
4 -> 6 ;
}