digraph Tree {
node [shape=box, style="filled, rounded", color="black", fontname=helvetica] ;
edge [fontname=helvetica] ;
0 [label="person <= 0.02\ngini = 0.781\nsamples = 1389\nvalue = [515, 28, 97, 18, 139, 145, 144, 364, 800]\nclass = anticipation", fillcolor="#e539642a"] ;
1 [label="n_cyan <= 2.5\ngini = 0.78\nsamples = 770\nvalue = [415, 6, 73, 7, 80, 101, 83, 358, 132]\nclass = joy", fillcolor="#e5813910"] ;
0 -> 1 [labeldistance=2.5, labelangle=45, headlabel="True"] ;
2 [label="gini = 0.601\nsamples = 391\nvalue = [394, 2, 40, 5, 45, 43, 39, 47, 29]\nclass = joy", fillcolor="#e5813994"] ;
1 -> 2 ;
3 [label="gini = 0.691\nsamples = 379\nvalue = [21, 4, 33, 2, 35, 58, 44, 311, 103]\nclass = anger", fillcolor="#e539d768"] ;
1 -> 3 ;
4 [label="red <= 1.0\ngini = 0.529\nsamples = 619\nvalue = [100, 22, 24, 11, 59, 44, 61, 6, 668]\nclass = anticipation", fillcolor="#e53964a2"] ;
0 -> 4 [labeldistance=2.5, labelangle=-45, headlabel="False"] ;
5 [label="gini = 0.481\nsamples = 585\nvalue = [52, 21, 24, 10, 54, 44, 61, 6, 668]\nclass = anticipation", fillcolor="#e53964b0"] ;
4 -> 5 ;
6 [label="gini = 0.229\nsamples = 34\nvalue = [48, 1, 0, 1, 5, 0, 0, 0, 0]\nclass = joy", fillcolor="#e58139db"] ;
4 -> 6 ;
}