digraph Tree {
node [shape=box, style="filled, rounded", color="black", fontname=helvetica] ;
edge [fontname=helvetica] ;
0 [label="n_cyan <= 4.5\nentropy = 2.016\nsamples = 472\nvalue = [139, 2, 0, 130, 261, 2, 213, 1, 2]\nclass = surprise", fillcolor="#39d7e517"] ;
1 [label="red <= 0.697\nentropy = 1.523\nsamples = 261\nvalue = [63, 2, 0, 102, 251, 2, 4, 0, 2]\nclass = surprise", fillcolor="#39d7e575"] ;
0 -> 1 [labeldistance=2.5, labelangle=45, headlabel="True"] ;
2 [label="entropy = 1.282\nsamples = 75\nvalue = [29, 0, 0, 81, 7, 0, 4, 0, 0]\nclass = disgust", fillcolor="#39e58190"] ;
1 -> 2 ;
3 [label="entropy = 1.019\nsamples = 186\nvalue = [34, 2, 0, 21, 244, 2, 0, 0, 2]\nclass = surprise", fillcolor="#39d7e5c6"] ;
1 -> 3 ;
4 [label="red <= 0.553\nentropy = 1.385\nsamples = 211\nvalue = [76, 0, 0, 28, 10, 0, 209, 1, 0]\nclass = trust", fillcolor="#8139e589"] ;
0 -> 4 [labeldistance=2.5, labelangle=-45, headlabel="False"] ;
5 [label="entropy = 0.336\nsamples = 134\nvalue = [0, 0, 0, 13, 0, 0, 196, 0, 0]\nclass = trust", fillcolor="#8139e5ee"] ;
4 -> 5 ;
6 [label="entropy = 1.5\nsamples = 77\nvalue = [76, 0, 0, 15, 10, 0, 13, 1, 0]\nclass = joy", fillcolor="#e581399c"] ;
4 -> 6 ;
}