digraph Tree {
node [shape=box, style="filled, rounded", color="black", fontname=helvetica] ;
edge [fontname=helvetica] ;
0 [label="n_cyan <= 4.5\nentropy = 2.035\nsamples = 465\nvalue = [151, 0, 1, 109, 276, 9, 201, 2, 1]\nclass = surprise", fillcolor="#39d7e523"] ;
1 [label="red <= 0.75\nentropy = 1.527\nsamples = 264\nvalue = [68, 0, 1, 83, 266, 9, 4, 0, 1]\nclass = surprise", fillcolor="#39d7e586"] ;
0 -> 1 [labeldistance=2.5, labelangle=45, headlabel="True"] ;
2 [label="entropy = 1.571\nsamples = 82\nvalue = [32, 0, 0, 71, 23, 0, 4, 0, 0]\nclass = disgust", fillcolor="#39e58165"] ;
1 -> 2 ;
3 [label="entropy = 1.009\nsamples = 182\nvalue = [36, 0, 1, 12, 243, 9, 0, 0, 1]\nclass = surprise", fillcolor="#39d7e5c6"] ;
1 -> 3 ;
4 [label="red <= 0.532\nentropy = 1.432\nsamples = 201\nvalue = [83, 0, 0, 26, 10, 0, 197, 2, 0]\nclass = trust", fillcolor="#8139e57c"] ;
0 -> 4 [labeldistance=2.5, labelangle=-45, headlabel="False"] ;
5 [label="entropy = 0.44\nsamples = 125\nvalue = [1, 0, 0, 15, 0, 0, 177, 0, 0]\nclass = trust", fillcolor="#8139e5e8"] ;
4 -> 5 ;
6 [label="entropy = 1.518\nsamples = 76\nvalue = [82, 0, 0, 11, 10, 0, 20, 2, 0]\nclass = joy", fillcolor="#e5813997"] ;
4 -> 6 ;
}