digraph Tree {
node [shape=box, style="filled, rounded", color="black", fontname=helvetica] ;
edge [fontname=helvetica] ;
0 [label="red <= 0.679\nentropy = 2.02\nsamples = 464\nvalue = [135, 2, 0, 128, 276, 4, 202, 2, 1]\nclass = surprise", fillcolor="#39d7e522"] ;
1 [label="green <= 0.11\nentropy = 1.37\nsamples = 202\nvalue = [44, 0, 0, 88, 1, 0, 195, 0, 0]\nclass = trust", fillcolor="#8139e572"] ;
0 -> 1 [labeldistance=2.5, labelangle=45, headlabel="True"] ;
2 [label="entropy = 1.503\nsamples = 108\nvalue = [34, 0, 0, 88, 1, 0, 43, 0, 0]\nclass = disgust", fillcolor="#39e5815d"] ;
1 -> 2 ;
3 [label="entropy = 0.334\nsamples = 94\nvalue = [10, 0, 0, 0, 0, 0, 152, 0, 0]\nclass = trust", fillcolor="#8139e5ee"] ;
1 -> 3 ;
4 [label="green <= 0.011\nentropy = 1.458\nsamples = 262\nvalue = [91, 2, 0, 40, 275, 4, 7, 2, 1]\nclass = surprise", fillcolor="#39d7e58e"] ;
0 -> 4 [labeldistance=2.5, labelangle=-45, headlabel="False"] ;
5 [label="entropy = 1.014\nsamples = 195\nvalue = [18, 2, 0, 37, 249, 4, 0, 0, 1]\nclass = surprise", fillcolor="#39d7e5c5"] ;
4 -> 5 ;
6 [label="entropy = 1.385\nsamples = 67\nvalue = [73, 0, 0, 3, 26, 0, 7, 2, 0]\nclass = joy", fillcolor="#e581398d"] ;
4 -> 6 ;
}