digraph Tree {
node [shape=box, style="filled, rounded", color="black", fontname=helvetica] ;
edge [fontname=helvetica] ;
0 [label="person <= 0.009\ngini = 0.767\nsamples = 1423\nvalue = [459, 30, 105, 26, 135, 108, 139, 371, 877]\nclass = anticipation", fillcolor="#e539643c"] ;
1 [label="n_cyan <= 2.5\ngini = 0.78\nsamples = 719\nvalue = [340, 4, 80, 10, 67, 66, 80, 362, 130]\nclass = anger", fillcolor="#e539d707"] ;
0 -> 1 [labeldistance=2.5, labelangle=45, headlabel="True"] ;
2 [label="gini = 0.621\nsamples = 346\nvalue = [321, 1, 34, 6, 40, 18, 50, 45, 27]\nclass = joy", fillcolor="#e581398c"] ;
1 -> 2 ;
3 [label="gini = 0.67\nsamples = 373\nvalue = [19, 3, 46, 4, 27, 48, 30, 317, 103]\nclass = anger", fillcolor="#e539d76e"] ;
1 -> 3 ;
4 [label="red <= 1.0\ngini = 0.527\nsamples = 704\nvalue = [119, 26, 25, 16, 68, 42, 59, 9, 747]\nclass = anticipation", fillcolor="#e53964a1"] ;
0 -> 4 [labeldistance=2.5, labelangle=-45, headlabel="False"] ;
5 [label="gini = 0.468\nsamples = 662\nvalue = [59, 23, 25, 14, 58, 42, 59, 9, 745]\nclass = anticipation", fillcolor="#e53964b3"] ;
4 -> 5 ;
6 [label="gini = 0.373\nsamples = 42\nvalue = [60, 3, 0, 2, 10, 0, 0, 0, 2]\nclass = joy", fillcolor="#e58139be"] ;
4 -> 6 ;
}