digraph Tree {
node [shape=box, style="filled, rounded", color="black", fontname=helvetica] ;
edge [fontname=helvetica] ;
0 [label="red <= 0.678\nentropy = 1.977\nsamples = 462\nvalue = [135, 1, 0, 135, 292, 5, 182, 0, 0]\nclass = surprise", fillcolor="#39d7e531"] ;
1 [label="green <= 0.107\nentropy = 1.574\nsamples = 212\nvalue = [55, 0, 0, 96, 9, 0, 175, 0, 0]\nclass = trust", fillcolor="#8139e554"] ;
0 -> 1 [labeldistance=2.5, labelangle=45, headlabel="True"] ;
2 [label="entropy = 1.668\nsamples = 122\nvalue = [45, 0, 0, 96, 9, 0, 39, 0, 0]\nclass = disgust", fillcolor="#39e5815a"] ;
1 -> 2 ;
3 [label="entropy = 0.36\nsamples = 90\nvalue = [10, 0, 0, 0, 0, 0, 136, 0, 0]\nclass = trust", fillcolor="#8139e5ec"] ;
1 -> 3 ;
4 [label="green <= 0.01\nentropy = 1.352\nsamples = 250\nvalue = [80, 1, 0, 39, 283, 5, 7, 0, 0]\nclass = surprise", fillcolor="#39d7e59b"] ;
0 -> 4 [labeldistance=2.5, labelangle=-45, headlabel="False"] ;
5 [label="entropy = 0.958\nsamples = 182\nvalue = [14, 1, 0, 36, 250, 5, 1, 0, 0]\nclass = surprise", fillcolor="#39d7e5c9"] ;
4 -> 5 ;
6 [label="entropy = 1.332\nsamples = 68\nvalue = [66, 0, 0, 3, 33, 0, 6, 0, 0]\nclass = joy", fillcolor="#e5813970"] ;
4 -> 6 ;
}