digraph Tree {
node [shape=box, style="filled, rounded", color="black", fontname=helvetica] ;
edge [fontname=helvetica] ;
0 [label="person <= 0.008\ngini = 0.765\nsamples = 1394\nvalue = [456, 24, 89, 25, 125, 133, 135, 383, 880]\nclass = anticipation", fillcolor="#e539643c"] ;
1 [label="n_cyan <= 2.5\ngini = 0.784\nsamples = 723\nvalue = [337, 7, 63, 11, 65, 96, 90, 376, 126]\nclass = anger", fillcolor="#e539d70c"] ;
0 -> 1 [labeldistance=2.5, labelangle=45, headlabel="True"] ;
2 [label="gini = 0.645\nsamples = 351\nvalue = [319, 1, 28, 5, 39, 37, 50, 49, 32]\nclass = joy", fillcolor="#e5813986"] ;
1 -> 2 ;
3 [label="gini = 0.67\nsamples = 372\nvalue = [18, 6, 35, 6, 26, 59, 40, 327, 94]\nclass = anger", fillcolor="#e539d773"] ;
1 -> 3 ;
4 [label="red <= 1.0\ngini = 0.492\nsamples = 671\nvalue = [119, 17, 26, 14, 60, 37, 45, 7, 754]\nclass = anticipation", fillcolor="#e53964a9"] ;
0 -> 4 [labeldistance=2.5, labelangle=-45, headlabel="False"] ;
5 [label="gini = 0.451\nsamples = 641\nvalue = [74, 17, 26, 14, 55, 37, 45, 7, 754]\nclass = anticipation", fillcolor="#e53964b6"] ;
4 -> 5 ;
6 [label="gini = 0.18\nsamples = 30\nvalue = [45, 0, 0, 0, 5, 0, 0, 0, 0]\nclass = joy", fillcolor="#e58139e3"] ;
4 -> 6 ;
}