digraph Tree {
node [shape=box, style="filled, rounded", color="black", fontname=helvetica] ;
edge [fontname=helvetica] ;
0 [label="red <= 0.673\nentropy = 1.972\nsamples = 486\nvalue = [142, 2, 0, 117, 294, 3, 191, 1, 0]\nclass = surprise", fillcolor="#39d7e52f"] ;
1 [label="green <= 0.055\nentropy = 1.506\nsamples = 217\nvalue = [50, 0, 0, 89, 7, 0, 186, 0, 0]\nclass = trust", fillcolor="#8139e566"] ;
0 -> 1 [labeldistance=2.5, labelangle=45, headlabel="True"] ;
2 [label="entropy = 1.488\nsamples = 94\nvalue = [29, 0, 0, 88, 7, 0, 18, 0, 0]\nclass = disgust", fillcolor="#39e58185"] ;
1 -> 2 ;
3 [label="entropy = 0.548\nsamples = 123\nvalue = [21, 0, 0, 1, 0, 0, 168, 0, 0]\nclass = trust", fillcolor="#8139e5de"] ;
1 -> 3 ;
4 [label="cyan <= 0.0\nentropy = 1.3\nsamples = 269\nvalue = [92, 2, 0, 28, 287, 3, 5, 1, 0]\nclass = surprise", fillcolor="#39d7e599"] ;
0 -> 4 [labeldistance=2.5, labelangle=-45, headlabel="False"] ;
5 [label="entropy = 0.684\nsamples = 158\nvalue = [8, 0, 0, 19, 218, 3, 0, 0, 0]\nclass = surprise", fillcolor="#39d7e5de"] ;
4 -> 5 ;
6 [label="entropy = 1.524\nsamples = 111\nvalue = [84, 2, 0, 9, 69, 0, 5, 1, 0]\nclass = joy", fillcolor="#e5813926"] ;
4 -> 6 ;
}