digraph Tree {
node [shape=box, style="filled, rounded", color="black", fontname=helvetica] ;
edge [fontname=helvetica] ;
0 [label="person <= 0.01\ngini = 0.764\nsamples = 1402\nvalue = [469, 26, 96, 26, 124, 101, 142, 390, 876]\nclass = anticipation", fillcolor="#e539643a"] ;
1 [label="n_cyan <= 2.5\ngini = 0.776\nsamples = 737\nvalue = [362, 4, 74, 7, 68, 65, 83, 377, 149]\nclass = anger", fillcolor="#e539d705"] ;
0 -> 1 [labeldistance=2.5, labelangle=45, headlabel="True"] ;
2 [label="gini = 0.601\nsamples = 354\nvalue = [344, 2, 36, 2, 39, 22, 41, 44, 33]\nclass = joy", fillcolor="#e5813993"] ;
1 -> 2 ;
3 [label="gini = 0.667\nsamples = 383\nvalue = [18, 2, 38, 5, 29, 43, 42, 333, 116]\nclass = anger", fillcolor="#e539d76c"] ;
1 -> 3 ;
4 [label="n_magenta <= 0.5\ngini = 0.512\nsamples = 665\nvalue = [107, 22, 22, 19, 56, 36, 59, 13, 727]\nclass = anticipation", fillcolor="#e53964a6"] ;
0 -> 4 [labeldistance=2.5, labelangle=-45, headlabel="False"] ;
5 [label="gini = 0.264\nsamples = 37\nvalue = [46, 2, 0, 1, 0, 0, 0, 0, 5]\nclass = joy", fillcolor="#e58139d5"] ;
4 -> 5 ;
6 [label="gini = 0.473\nsamples = 628\nvalue = [61, 20, 22, 18, 56, 36, 59, 13, 722]\nclass = anticipation", fillcolor="#e53964b2"] ;
4 -> 6 ;
}