digraph Tree {
node [shape=box, style="filled, rounded", color="black", fontname=helvetica] ;
edge [fontname=helvetica] ;
0 [label="green <= 0.013\nentropy = 2.007\nsamples = 485\nvalue = [139, 1, 0, 114, 270, 8, 217, 1, 0]\nclass = surprise", fillcolor="#39d7e519"] ;
1 [label="red <= 0.697\nentropy = 1.418\nsamples = 254\nvalue = [32, 1, 0, 93, 250, 8, 5, 0, 0]\nclass = surprise", fillcolor="#39d7e587"] ;
0 -> 1 [labeldistance=2.5, labelangle=45, headlabel="True"] ;
2 [label="entropy = 1.233\nsamples = 66\nvalue = [12, 0, 0, 68, 9, 0, 4, 0, 0]\nclass = disgust", fillcolor="#39e581b0"] ;
1 -> 2 ;
3 [label="entropy = 1.002\nsamples = 188\nvalue = [20, 1, 0, 25, 241, 8, 1, 0, 0]\nclass = surprise", fillcolor="#39d7e5cb"] ;
1 -> 3 ;
4 [label="red <= 0.555\nentropy = 1.464\nsamples = 231\nvalue = [107, 0, 0, 21, 20, 0, 212, 1, 0]\nclass = trust", fillcolor="#8139e569"] ;
0 -> 4 [labeldistance=2.5, labelangle=-45, headlabel="False"] ;
5 [label="entropy = 0.563\nsamples = 133\nvalue = [11, 0, 0, 10, 0, 0, 192, 0, 0]\nclass = trust", fillcolor="#8139e5e4"] ;
4 -> 5 ;
6 [label="entropy = 1.513\nsamples = 98\nvalue = [96, 0, 0, 11, 20, 0, 20, 1, 0]\nclass = joy", fillcolor="#e5813997"] ;
4 -> 6 ;
}