digraph Tree {
node [shape=box, style="filled, rounded", color="black", fontname=helvetica] ;
edge [fontname=helvetica] ;
0 [label="red <= 0.673\nentropy = 2.022\nsamples = 468\nvalue = [159, 1, 0, 118, 246, 8, 218, 0, 0]\nclass = surprise", fillcolor="#39d7e50d"] ;
1 [label="green <= 0.104\nentropy = 1.503\nsamples = 229\nvalue = [66, 0, 0, 86, 7, 0, 211, 0, 0]\nclass = trust", fillcolor="#8139e570"] ;
0 -> 1 [labeldistance=2.5, labelangle=45, headlabel="True"] ;
2 [label="entropy = 1.695\nsamples = 121\nvalue = [56, 0, 0, 86, 7, 0, 43, 0, 0]\nclass = disgust", fillcolor="#39e58138"] ;
1 -> 2 ;
3 [label="entropy = 0.312\nsamples = 108\nvalue = [10, 0, 0, 0, 0, 0, 168, 0, 0]\nclass = trust", fillcolor="#8139e5f0"] ;
1 -> 3 ;
4 [label="green <= 0.009\nentropy = 1.464\nsamples = 239\nvalue = [93, 1, 0, 32, 239, 8, 7, 0, 0]\nclass = surprise", fillcolor="#39d7e582"] ;
0 -> 4 [labeldistance=2.5, labelangle=-45, headlabel="False"] ;
5 [label="entropy = 0.999\nsamples = 172\nvalue = [14, 1, 0, 29, 217, 8, 0, 0, 0]\nclass = surprise", fillcolor="#39d7e5c8"] ;
4 -> 5 ;
6 [label="entropy = 1.204\nsamples = 67\nvalue = [79, 0, 0, 3, 22, 0, 7, 0, 0]\nclass = joy", fillcolor="#e58139a3"] ;
4 -> 6 ;
}