digraph Tree {
node [shape=box, style="filled, rounded", color="black", fontname=helvetica] ;
edge [fontname=helvetica] ;
0 [label="person <= 0.022\ngini = 0.779\nsamples = 1427\nvalue = [463, 25, 108, 24, 129, 127, 141, 416, 817]\nclass = anticipation", fillcolor="#e5396433"] ;
1 [label="n_cyan <= 2.5\ngini = 0.785\nsamples = 803\nvalue = [364, 6, 85, 11, 79, 97, 85, 408, 140]\nclass = anger", fillcolor="#e539d70c"] ;
0 -> 1 [labeldistance=2.5, labelangle=45, headlabel="True"] ;
2 [label="gini = 0.64\nsamples = 391\nvalue = [347, 2, 43, 7, 49, 40, 39, 54, 23]\nclass = joy", fillcolor="#e5813988"] ;
1 -> 2 ;
3 [label="gini = 0.673\nsamples = 412\nvalue = [17, 4, 42, 4, 30, 57, 46, 354, 117]\nclass = anger", fillcolor="#e539d76d"] ;
1 -> 3 ;
4 [label="red <= 1.0\ngini = 0.499\nsamples = 624\nvalue = [99, 19, 23, 13, 50, 30, 56, 8, 677]\nclass = anticipation", fillcolor="#e53964a8"] ;
0 -> 4 [labeldistance=2.5, labelangle=-45, headlabel="False"] ;
5 [label="gini = 0.458\nsamples = 596\nvalue = [59, 18, 23, 12, 47, 30, 56, 8, 675]\nclass = anticipation", fillcolor="#e53964b5"] ;
4 -> 5 ;
6 [label="gini = 0.269\nsamples = 28\nvalue = [40, 1, 0, 1, 3, 0, 0, 0, 2]\nclass = joy", fillcolor="#e58139d6"] ;
4 -> 6 ;
}