digraph Tree {
node [shape=box, style="filled, rounded", color="black", fontname=helvetica] ;
edge [fontname=helvetica] ;
0 [label="red <= 0.673\nentropy = 2.072\nsamples = 481\nvalue = [141, 0, 1, 137, 264, 13, 192, 2, 0]\nclass = surprise", fillcolor="#39d7e521"] ;
1 [label="n_cyan <= 3.5\nentropy = 1.468\nsamples = 224\nvalue = [47, 0, 0, 99, 4, 0, 184, 0, 0]\nclass = trust", fillcolor="#8139e55c"] ;
0 -> 1 [labeldistance=2.5, labelangle=45, headlabel="True"] ;
2 [label="entropy = 0.872\nsamples = 64\nvalue = [12, 0, 0, 78, 4, 0, 1, 0, 0]\nclass = disgust", fillcolor="#39e581cb"] ;
1 -> 2 ;
3 [label="entropy = 1.009\nsamples = 160\nvalue = [35, 0, 0, 21, 0, 0, 183, 0, 0]\nclass = trust", fillcolor="#8139e5b9"] ;
1 -> 3 ;
4 [label="green <= 0.012\nentropy = 1.548\nsamples = 257\nvalue = [94, 0, 1, 38, 260, 13, 8, 2, 0]\nclass = surprise", fillcolor="#39d7e583"] ;
0 -> 4 [labeldistance=2.5, labelangle=-45, headlabel="False"] ;
5 [label="entropy = 1.119\nsamples = 191\nvalue = [19, 0, 1, 38, 242, 13, 0, 0, 0]\nclass = surprise", fillcolor="#39d7e5bd"] ;
4 -> 5 ;
6 [label="entropy = 1.17\nsamples = 66\nvalue = [75, 0, 0, 0, 18, 0, 8, 2, 0]\nclass = joy", fillcolor="#e58139ab"] ;
4 -> 6 ;
}