digraph Tree {
node [shape=box, style="filled, rounded", color="black", fontname=helvetica] ;
edge [fontname=helvetica] ;
0 [label="person <= 0.012\ngini = 0.767\nsamples = 1425\nvalue = [469, 23, 103, 31, 120, 131, 129, 372, 872]\nclass = anticipation", fillcolor="#e539643a"] ;
1 [label="n_cyan <= 2.5\ngini = 0.776\nsamples = 749\nvalue = [360, 3, 81, 8, 63, 84, 65, 364, 133]\nclass = anger", fillcolor="#e539d701"] ;
0 -> 1 [labeldistance=2.5, labelangle=45, headlabel="True"] ;
2 [label="gini = 0.602\nsamples = 358\nvalue = [343, 0, 40, 5, 36, 30, 35, 41, 31]\nclass = joy", fillcolor="#e5813994"] ;
1 -> 2 ;
3 [label="gini = 0.663\nsamples = 391\nvalue = [17, 3, 41, 3, 27, 54, 30, 323, 102]\nclass = anger", fillcolor="#e539d771"] ;
1 -> 3 ;
4 [label="red <= 1.0\ngini = 0.52\nsamples = 676\nvalue = [109, 20, 22, 23, 57, 47, 64, 8, 739]\nclass = anticipation", fillcolor="#e53964a4"] ;
0 -> 4 [labeldistance=2.5, labelangle=-45, headlabel="False"] ;
5 [label="gini = 0.476\nsamples = 639\nvalue = [59, 18, 22, 22, 55, 47, 64, 8, 738]\nclass = anticipation", fillcolor="#e53964b1"] ;
4 -> 5 ;
6 [label="gini = 0.2\nsamples = 37\nvalue = [50, 2, 0, 1, 2, 0, 0, 0, 1]\nclass = joy", fillcolor="#e58139e3"] ;
4 -> 6 ;
}