digraph Tree {
node [shape=box, style="filled, rounded", color="black", fontname=helvetica] ;
edge [fontname=helvetica] ;
0 [label="red <= 0.669\nentropy = 2.031\nsamples = 474\nvalue = [125, 2, 3, 127, 284, 5, 202, 0, 2]\nclass = surprise", fillcolor="#39d7e526"] ;
1 [label="green <= 0.042\nentropy = 1.494\nsamples = 215\nvalue = [47, 0, 0, 92, 8, 0, 194, 0, 0]\nclass = trust", fillcolor="#8139e568"] ;
0 -> 1 [labeldistance=2.5, labelangle=45, headlabel="True"] ;
2 [label="entropy = 1.515\nsamples = 93\nvalue = [28, 0, 0, 89, 8, 0, 20, 0, 0]\nclass = disgust", fillcolor="#39e58185"] ;
1 -> 2 ;
3 [label="entropy = 0.571\nsamples = 122\nvalue = [19, 0, 0, 3, 0, 0, 174, 0, 0]\nclass = trust", fillcolor="#8139e5df"] ;
1 -> 3 ;
4 [label="green <= 0.01\nentropy = 1.458\nsamples = 259\nvalue = [78, 2, 3, 35, 276, 5, 8, 0, 2]\nclass = surprise", fillcolor="#39d7e599"] ;
0 -> 4 [labeldistance=2.5, labelangle=-45, headlabel="False"] ;
5 [label="entropy = 1.038\nsamples = 195\nvalue = [13, 2, 3, 32, 259, 5, 1, 0, 2]\nclass = surprise", fillcolor="#39d7e5cb"] ;
4 -> 5 ;
6 [label="entropy = 1.248\nsamples = 64\nvalue = [65, 0, 0, 3, 17, 0, 7, 0, 0]\nclass = joy", fillcolor="#e58139a3"] ;
4 -> 6 ;
}