digraph Tree {
node [shape=box, style="filled, rounded", color="black", fontname=helvetica] ;
edge [fontname=helvetica] ;
0 [label="person <= 0.006\ngini = 0.769\nsamples = 1446\nvalue = [442, 24, 92, 19, 136, 127, 134, 418, 858]\nclass = anticipation", fillcolor="#e539643b"] ;
1 [label="n_cyan <= 2.5\ngini = 0.779\nsamples = 767\nvalue = [336, 2, 74, 5, 74, 91, 82, 404, 135]\nclass = anger", fillcolor="#e539d714"] ;
0 -> 1 [labeldistance=2.5, labelangle=45, headlabel="True"] ;
2 [label="gini = 0.65\nsamples = 374\nvalue = [321, 0, 44, 2, 47, 36, 42, 45, 32]\nclass = joy", fillcolor="#e5813986"] ;
1 -> 2 ;
3 [label="gini = 0.637\nsamples = 393\nvalue = [15, 2, 30, 3, 27, 55, 40, 359, 103]\nclass = anger", fillcolor="#e539d77b"] ;
1 -> 3 ;
4 [label="magenta <= 0.0\ngini = 0.505\nsamples = 679\nvalue = [106, 22, 18, 14, 62, 36, 52, 14, 723]\nclass = anticipation", fillcolor="#e53964a7"] ;
0 -> 4 [labeldistance=2.5, labelangle=-45, headlabel="False"] ;
5 [label="gini = 0.435\nsamples = 48\nvalue = [55, 0, 0, 1, 10, 0, 2, 0, 7]\nclass = joy", fillcolor="#e58139b1"] ;
4 -> 5 ;
6 [label="gini = 0.447\nsamples = 631\nvalue = [51, 22, 18, 13, 52, 36, 50, 14, 716]\nclass = anticipation", fillcolor="#e53964b8"] ;
4 -> 6 ;
}