digraph Tree {
node [shape=box, style="filled, rounded", color="black", fontname=helvetica] ;
edge [fontname=helvetica] ;
0 [label="person <= 0.012\ngini = 0.785\nsamples = 1431\nvalue = [478, 33, 112, 21, 137, 133, 140, 405, 791]\nclass = anticipation", fillcolor="#e539642d"] ;
1 [label="n_cyan <= 2.5\ngini = 0.775\nsamples = 778\nvalue = [379, 1, 77, 6, 86, 83, 87, 398, 120]\nclass = anger", fillcolor="#e539d706"] ;
0 -> 1 [labeldistance=2.5, labelangle=45, headlabel="True"] ;
2 [label="gini = 0.635\nsamples = 390\nvalue = [358, 0, 42, 5, 51, 30, 45, 59, 29]\nclass = joy", fillcolor="#e5813988"] ;
1 -> 2 ;
3 [label="gini = 0.658\nsamples = 388\nvalue = [21, 1, 35, 1, 35, 53, 42, 339, 91]\nclass = anger", fillcolor="#e539d778"] ;
1 -> 3 ;
4 [label="magenta <= 0.0\ngini = 0.542\nsamples = 653\nvalue = [99, 32, 35, 15, 51, 50, 53, 7, 671]\nclass = anticipation", fillcolor="#e53964a0"] ;
0 -> 4 [labeldistance=2.5, labelangle=-45, headlabel="False"] ;
5 [label="gini = 0.351\nsamples = 44\nvalue = [51, 0, 0, 1, 4, 0, 2, 0, 6]\nclass = joy", fillcolor="#e58139c6"] ;
4 -> 5 ;
6 [label="gini = 0.496\nsamples = 609\nvalue = [48, 32, 35, 14, 47, 50, 51, 7, 665]\nclass = anticipation", fillcolor="#e53964ae"] ;
4 -> 6 ;
}