digraph Tree {
node [shape=box, style="filled, rounded", color="black", fontname=helvetica] ;
edge [fontname=helvetica] ;
0 [label="red <= 0.668\nentropy = 1.975\nsamples = 466\nvalue = [151, 3, 0, 102, 299, 6, 189, 0, 0]\nclass = surprise", fillcolor="#39d7e532"] ;
1 [label="green <= 0.105\nentropy = 1.425\nsamples = 203\nvalue = [48, 0, 0, 81, 2, 0, 180, 0, 0]\nclass = trust", fillcolor="#8139e56e"] ;
0 -> 1 [labeldistance=2.5, labelangle=45, headlabel="True"] ;
2 [label="entropy = 1.526\nsamples = 106\nvalue = [41, 0, 0, 81, 2, 0, 28, 0, 0]\nclass = disgust", fillcolor="#39e5815c"] ;
1 -> 2 ;
3 [label="entropy = 0.26\nsamples = 97\nvalue = [7, 0, 0, 0, 0, 0, 152, 0, 0]\nclass = trust", fillcolor="#8139e5f3"] ;
1 -> 3 ;
4 [label="green <= 0.011\nentropy = 1.331\nsamples = 263\nvalue = [103, 3, 0, 21, 297, 6, 9, 0, 0]\nclass = surprise", fillcolor="#39d7e593"] ;
0 -> 4 [labeldistance=2.5, labelangle=-45, headlabel="False"] ;
5 [label="entropy = 0.935\nsamples = 190\nvalue = [26, 3, 0, 19, 263, 6, 0, 0, 0]\nclass = surprise", fillcolor="#39d7e5d0"] ;
4 -> 5 ;
6 [label="entropy = 1.307\nsamples = 73\nvalue = [77, 0, 0, 2, 34, 0, 9, 0, 0]\nclass = joy", fillcolor="#e581397d"] ;
4 -> 6 ;
}