digraph Tree {
node [shape=box, style="filled, rounded", color="black", fontname=helvetica] ;
edge [fontname=helvetica] ;
0 [label="red <= 0.693\nentropy = 2.042\nsamples = 474\nvalue = [149, 1, 1, 129, 244, 5, 219, 0, 2]\nclass = surprise", fillcolor="#39d7e50c"] ;
1 [label="green <= 0.057\nentropy = 1.54\nsamples = 242\nvalue = [63, 0, 0, 109, 9, 0, 213, 0, 0]\nclass = trust", fillcolor="#8139e55d"] ;
0 -> 1 [labeldistance=2.5, labelangle=45, headlabel="True"] ;
2 [label="entropy = 1.586\nsamples = 115\nvalue = [35, 0, 0, 108, 9, 0, 38, 0, 0]\nclass = disgust", fillcolor="#39e58175"] ;
1 -> 2 ;
3 [label="entropy = 0.621\nsamples = 127\nvalue = [28, 0, 0, 1, 0, 0, 175, 0, 0]\nclass = trust", fillcolor="#8139e5d5"] ;
1 -> 3 ;
4 [label="n_cyan <= 1.5\nentropy = 1.399\nsamples = 232\nvalue = [86, 1, 1, 20, 235, 5, 6, 0, 2]\nclass = surprise", fillcolor="#39d7e58d"] ;
0 -> 4 [labeldistance=2.5, labelangle=-45, headlabel="False"] ;
5 [label="entropy = 0.8\nsamples = 137\nvalue = [9, 1, 1, 7, 180, 5, 0, 0, 2]\nclass = surprise", fillcolor="#39d7e5de"] ;
4 -> 5 ;
6 [label="entropy = 1.516\nsamples = 95\nvalue = [77, 0, 0, 13, 55, 0, 6, 0, 0]\nclass = joy", fillcolor="#e581393a"] ;
4 -> 6 ;
}