digraph Tree {
node [shape=box, style="filled, rounded", color="black", fontname=helvetica] ;
edge [fontname=helvetica] ;
0 [label="red <= 0.698\nentropy = 2.058\nsamples = 470\nvalue = [157, 0, 1, 126, 260, 8, 195, 1, 2]\nclass = surprise", fillcolor="#39d7e51e"] ;
1 [label="n_cyan <= 4.5\nentropy = 1.632\nsamples = 232\nvalue = [82, 0, 0, 99, 11, 0, 189, 0, 0]\nclass = trust", fillcolor="#8139e551"] ;
0 -> 1 [labeldistance=2.5, labelangle=45, headlabel="True"] ;
2 [label="entropy = 1.357\nsamples = 79\nvalue = [39, 0, 0, 78, 11, 0, 2, 0, 0]\nclass = disgust", fillcolor="#39e5816d"] ;
1 -> 2 ;
3 [label="entropy = 1.052\nsamples = 153\nvalue = [43, 0, 0, 21, 0, 0, 187, 0, 0]\nclass = trust", fillcolor="#8139e5b1"] ;
1 -> 3 ;
4 [label="cyan <= 0.002\nentropy = 1.43\nsamples = 238\nvalue = [75, 0, 1, 27, 249, 8, 6, 1, 2]\nclass = surprise", fillcolor="#39d7e597"] ;
0 -> 4 [labeldistance=2.5, labelangle=-45, headlabel="False"] ;
5 [label="entropy = 0.911\nsamples = 156\nvalue = [5, 0, 1, 24, 204, 8, 0, 0, 2]\nclass = surprise", fillcolor="#39d7e5d1"] ;
4 -> 5 ;
6 [label="entropy = 1.394\nsamples = 82\nvalue = [70, 0, 0, 3, 45, 0, 6, 1, 0]\nclass = joy", fillcolor="#e5813950"] ;
4 -> 6 ;
}