digraph Tree {
node [shape=box, style="filled, rounded", color="black", fontname=helvetica] ;
edge [fontname=helvetica] ;
0 [label="n_blue <= 1.003\nentropy = 3.169\nsamples = 3094\nvalue = [546, 548, 547, 551, 543, 527, 587, 560, 496]\nclass = anticipation", fillcolor="#8139e502"] ;
1 [label="n_red <= 9.001\nentropy = 3.001\nsamples = 1738\nvalue = [132, 194, 409, 296, 73, 322, 391, 518, 424]\nclass = anger", fillcolor="#e539d70a"] ;
0 -> 1 [labeldistance=2.5, labelangle=45, headlabel="True"] ;
2 [label="entropy = 2.801\nsamples = 1030\nvalue = [77, 61, 98, 259, 31, 197, 216, 502, 208]\nclass = anger", fillcolor="#e539d72d"] ;
1 -> 2 ;
3 [label="entropy = 2.761\nsamples = 708\nvalue = [55, 133, 311, 37, 42, 125, 175, 16, 216]\nclass = sadness", fillcolor="#64e5391b"] ;
1 -> 3 ;
4 [label="cyan <= 0.123\nentropy = 2.901\nsamples = 1356\nvalue = [414, 354, 138, 255, 470, 205, 196, 42, 72]\nclass = trust", fillcolor="#39d7e508"] ;
0 -> 4 [labeldistance=2.5, labelangle=-45, headlabel="False"] ;
5 [label="entropy = 2.785\nsamples = 1163\nvalue = [383, 325, 70, 248, 427, 173, 156, 16, 47]\nclass = trust", fillcolor="#39d7e508"] ;
4 -> 5 ;
6 [label="entropy = 3.009\nsamples = 193\nvalue = [31, 29, 68, 7, 43, 32, 40, 26, 25]\nclass = sadness", fillcolor="#64e53919"] ;
4 -> 6 ;
}