digraph Tree {
node [shape=box, style="filled, rounded", color="black", fontname=helvetica] ;
edge [fontname=helvetica] ;
0 [label="dog <= 0.0\nentropy = 3.167\nsamples = 3102\nvalue = [544, 514, 557, 598, 492, 586, 518, 520, 576]\nclass = AMBIGUOUS", fillcolor="#39e58101"] ;
1 [label="magenta <= 0.011\nentropy = 3.131\nsamples = 2143\nvalue = [382, 359, 388, 272, 248, 536, 482, 436, 329]\nclass = fear", fillcolor="#3964e505"] ;
0 -> 1 [labeldistance=2.5, labelangle=45, headlabel="True"] ;
2 [label="entropy = 2.686\nsamples = 735\nvalue = [89, 54, 39, 123, 21, 211, 181, 390, 45]\nclass = anger", fillcolor="#e539d730"] ;
1 -> 2 ;
3 [label="entropy = 3.047\nsamples = 1408\nvalue = [293, 305, 349, 149, 227, 325, 301, 46, 284]\nclass = sadness", fillcolor="#64e53903"] ;
1 -> 3 ;
4 [label="n_red <= 9.168\nentropy = 2.926\nsamples = 959\nvalue = [162, 155, 169, 326, 244, 50, 36, 84, 247]\nclass = AMBIGUOUS", fillcolor="#39e58110"] ;
0 -> 4 [labeldistance=2.5, labelangle=-45, headlabel="False"] ;
5 [label="entropy = 2.51\nsamples = 359\nvalue = [28, 25, 77, 224, 5, 18, 13, 80, 92]\nclass = AMBIGUOUS", fillcolor="#39e58148"] ;
4 -> 5 ;
6 [label="entropy = 2.775\nsamples = 600\nvalue = [134, 130, 92, 102, 239, 32, 23, 4, 155]\nclass = trust", fillcolor="#39d7e51c"] ;
4 -> 6 ;
}