digraph Tree {
node [shape=box, style="filled, rounded", color="black", fontname=helvetica] ;
edge [fontname=helvetica] ;
0 [label="person <= 0.032\nentropy = 3.169\nsamples = 3072\nvalue = [544, 544, 555, 540, 537, 520, 569, 520, 576]\nclass = surprise", fillcolor="#e5396400"] ;
1 [label="blue <= 0.002\nentropy = 2.685\nsamples = 1417\nvalue = [406, 29, 202, 14, 189, 489, 550, 314, 52]\nclass = anticipation", fillcolor="#8139e509"] ;
0 -> 1 [labeldistance=2.5, labelangle=45, headlabel="True"] ;
2 [label="entropy = 2.531\nsamples = 882\nvalue = [123, 6, 145, 11, 57, 377, 365, 292, 33]\nclass = fear", fillcolor="#3964e503"] ;
1 -> 2 ;
3 [label="entropy = 2.518\nsamples = 535\nvalue = [283, 23, 57, 3, 132, 112, 185, 22, 19]\nclass = disgust", fillcolor="#e5813926"] ;
1 -> 3 ;
4 [label="blue <= 0.001\nentropy = 2.786\nsamples = 1655\nvalue = [138, 515, 353, 526, 348, 31, 19, 206, 524]\nclass = AMBIGUOUS", fillcolor="#39e58100"] ;
0 -> 4 [labeldistance=2.5, labelangle=-45, headlabel="False"] ;
5 [label="entropy = 2.617\nsamples = 1027\nvalue = [56, 192, 290, 354, 56, 12, 18, 191, 470]\nclass = surprise", fillcolor="#e5396417"] ;
4 -> 5 ;
6 [label="entropy = 2.445\nsamples = 628\nvalue = [82, 323, 63, 172, 292, 19, 1, 15, 54]\nclass = joy", fillcolor="#d7e5390b"] ;
4 -> 6 ;
}