digraph Tree {
node [shape=box, style="filled, rounded", color="black", fontname=helvetica] ;
edge [fontname=helvetica] ;
0 [label="person <= 0.032\nentropy = 3.168\nsamples = 3134\nvalue = [566, 584, 542, 503, 563, 535, 510, 560, 542]\nclass = joy", fillcolor="#d7e53901"] ;
1 [label="magenta <= 0.017\nentropy = 2.684\nsamples = 1422\nvalue = [422, 19, 203, 16, 170, 487, 494, 328, 57]\nclass = anticipation", fillcolor="#8139e501"] ;
0 -> 1 [labeldistance=2.5, labelangle=45, headlabel="True"] ;
2 [label="entropy = 2.365\nsamples = 640\nvalue = [92, 2, 59, 8, 11, 260, 242, 299, 27]\nclass = anger", fillcolor="#e539d70d"] ;
1 -> 2 ;
3 [label="entropy = 2.595\nsamples = 782\nvalue = [330, 17, 144, 8, 159, 227, 252, 29, 30]\nclass = disgust", fillcolor="#e5813915"] ;
1 -> 3 ;
4 [label="cow <= 0.0\nentropy = 2.816\nsamples = 1712\nvalue = [144, 565, 339, 487, 393, 48, 16, 232, 485]\nclass = joy", fillcolor="#d7e53909"] ;
0 -> 4 [labeldistance=2.5, labelangle=-45, headlabel="False"] ;
5 [label="entropy = 2.817\nsamples = 1378\nvalue = [121, 491, 338, 372, 206, 43, 16, 205, 389]\nclass = joy", fillcolor="#d7e5390f"] ;
4 -> 5 ;
6 [label="entropy = 2.351\nsamples = 334\nvalue = [23, 74, 1, 115, 187, 5, 0, 27, 96]\nclass = trust", fillcolor="#39d7e52c"] ;
4 -> 6 ;
}