digraph Tree {
node [shape=box, style="filled, rounded", color="black", fontname=helvetica] ;
edge [fontname=helvetica] ;
0 [label="n_magenta <= 4.006\nentropy = 3.169\nsamples = 3063\nvalue = [512, 541, 530, 532, 553, 539, 584, 544, 570]\nclass = anticipation", fillcolor="#8139e501"] ;
1 [label="n_yellow <= 2.5\nentropy = 2.817\nsamples = 947\nvalue = [78, 104, 103, 360, 38, 114, 216, 410, 98]\nclass = anger", fillcolor="#e539d70b"] ;
0 -> 1 [labeldistance=2.5, labelangle=45, headlabel="True"] ;
2 [label="entropy = 2.837\nsamples = 632\nvalue = [57, 93, 103, 273, 30, 47, 193, 172, 43]\nclass = AMBIGUOUS", fillcolor="#39e58119"] ;
1 -> 2 ;
3 [label="entropy = 2.284\nsamples = 315\nvalue = [21, 11, 0, 87, 8, 67, 23, 238, 55]\nclass = anger", fillcolor="#e539d75b"] ;
1 -> 3 ;
4 [label="yellow <= 0.029\nentropy = 3.075\nsamples = 2116\nvalue = [434, 437, 427, 172, 515, 425, 368, 134, 472]\nclass = trust", fillcolor="#39d7e504"] ;
0 -> 4 [labeldistance=2.5, labelangle=-45, headlabel="False"] ;
5 [label="entropy = 2.963\nsamples = 1674\nvalue = [391, 424, 385, 117, 499, 205, 338, 36, 274]\nclass = trust", fillcolor="#39d7e509"] ;
4 -> 5 ;
6 [label="entropy = 2.618\nsamples = 442\nvalue = [43, 13, 42, 55, 16, 220, 30, 98, 198]\nclass = fear", fillcolor="#3964e50b"] ;
4 -> 6 ;
}