digraph Tree {
node [shape=box, style="filled, rounded", color="black", fontname=helvetica] ;
edge [fontname=helvetica] ;
0 [label="n_magenta <= 4.006\nentropy = 3.169\nsamples = 3076\nvalue = [528, 530, 543, 534, 558, 590, 557, 532, 533]\nclass = fear", fillcolor="#3964e502"] ;
1 [label="person <= 0.032\nentropy = 2.809\nsamples = 961\nvalue = [65, 98, 114, 366, 37, 130, 202, 422, 107]\nclass = anger", fillcolor="#e539d70c"] ;
0 -> 1 [labeldistance=2.5, labelangle=45, headlabel="True"] ;
2 [label="entropy = 2.35\nsamples = 433\nvalue = [38, 0, 35, 9, 32, 113, 199, 257, 22]\nclass = anger", fillcolor="#e539d71d"] ;
1 -> 2 ;
3 [label="entropy = 2.353\nsamples = 528\nvalue = [27, 98, 79, 357, 5, 17, 3, 165, 85]\nclass = AMBIGUOUS", fillcolor="#39e58149"] ;
1 -> 3 ;
4 [label="n_red <= 8.061\nentropy = 3.059\nsamples = 2115\nvalue = [463, 432, 429, 168, 521, 460, 355, 110, 426]\nclass = trust", fillcolor="#39d7e505"] ;
0 -> 4 [labeldistance=2.5, labelangle=-45, headlabel="False"] ;
5 [label="entropy = 2.855\nsamples = 415\nvalue = [55, 16, 66, 53, 21, 182, 55, 90, 135]\nclass = fear", fillcolor="#3964e516"] ;
4 -> 5 ;
6 [label="entropy = 2.955\nsamples = 1700\nvalue = [408, 416, 363, 115, 500, 278, 300, 20, 291]\nclass = trust", fillcolor="#39d7e509"] ;
4 -> 6 ;
}