digraph Tree {
node [shape=box, style="filled, rounded", color="black", fontname=helvetica] ;
edge [fontname=helvetica] ;
0 [label="dog <= 0.0\nentropy = 3.169\nsamples = 3114\nvalue = [574, 509, 545, 579, 539, 534, 558, 546, 521]\nclass = AMBIGUOUS", fillcolor="#39e58100"] ;
1 [label="green <= 0.058\nentropy = 3.135\nsamples = 2188\nvalue = [378, 356, 412, 270, 276, 484, 519, 452, 309]\nclass = anticipation", fillcolor="#8139e503"] ;
0 -> 1 [labeldistance=2.5, labelangle=45, headlabel="True"] ;
2 [label="entropy = 3.097\nsamples = 1603\nvalue = [329, 324, 330, 268, 234, 309, 430, 178, 125]\nclass = anticipation", fillcolor="#8139e50c"] ;
1 -> 2 ;
3 [label="entropy = 2.681\nsamples = 585\nvalue = [49, 32, 82, 2, 42, 175, 89, 274, 184]\nclass = anger", fillcolor="#e539d71f"] ;
1 -> 3 ;
4 [label="person <= 0.116\nentropy = 2.941\nsamples = 926\nvalue = [196, 153, 133, 309, 263, 50, 39, 94, 212]\nclass = AMBIGUOUS", fillcolor="#39e5810a"] ;
0 -> 4 [labeldistance=2.5, labelangle=-45, headlabel="False"] ;
5 [label="entropy = 2.802\nsamples = 527\nvalue = [173, 19, 103, 56, 254, 45, 39, 75, 74]\nclass = trust", fillcolor="#39d7e51f"] ;
4 -> 5 ;
6 [label="entropy = 2.185\nsamples = 399\nvalue = [23, 134, 30, 253, 9, 5, 0, 19, 138]\nclass = AMBIGUOUS", fillcolor="#39e5813e"] ;
4 -> 6 ;
}