digraph Tree {
node [shape=box, style="filled, rounded", color="black", fontname=helvetica] ;
edge [fontname=helvetica] ;
0 [label="n_blue <= 1.527\nentropy = 3.169\nsamples = 3055\nvalue = [534, 542, 536, 551, 497, 551, 545, 580, 569]\nclass = anger", fillcolor="#e539d701"] ;
1 [label="n_cyan <= 0.57\nentropy = 2.995\nsamples = 1789\nvalue = [130, 223, 427, 306, 76, 322, 345, 535, 505]\nclass = anger", fillcolor="#e539d703"] ;
0 -> 1 [labeldistance=2.5, labelangle=45, headlabel="True"] ;
2 [label="entropy = 2.693\nsamples = 551\nvalue = [21, 34, 154, 277, 41, 42, 169, 89, 35]\nclass = AMBIGUOUS", fillcolor="#39e58128"] ;
1 -> 2 ;
3 [label="entropy = 2.808\nsamples = 1238\nvalue = [109, 189, 273, 29, 35, 280, 176, 446, 470]\nclass = surprise", fillcolor="#e5396404"] ;
1 -> 3 ;
4 [label="dog <= 0.0\nentropy = 2.908\nsamples = 1266\nvalue = [404, 319, 109, 245, 421, 229, 200, 45, 64]\nclass = trust", fillcolor="#39d7e503"] ;
0 -> 4 [labeldistance=2.5, labelangle=-45, headlabel="False"] ;
5 [label="entropy = 2.962\nsamples = 815\nvalue = [236, 221, 93, 97, 190, 204, 193, 41, 41]\nclass = disgust", fillcolor="#e5813903"] ;
4 -> 5 ;
6 [label="entropy = 2.433\nsamples = 451\nvalue = [168, 98, 16, 148, 231, 25, 7, 4, 23]\nclass = trust", fillcolor="#39d7e51d"] ;
4 -> 6 ;
}