digraph Tree {
node [shape=box, style="filled, rounded", color="black", fontname=helvetica] ;
edge [fontname=helvetica] ;
0 [label="dog <= 0.0\nentropy = 3.169\nsamples = 3102\nvalue = [532, 564, 565, 536, 544, 576, 543, 516, 529]\nclass = fear", fillcolor="#3964e501"] ;
1 [label="yellow <= 0.059\nentropy = 3.126\nsamples = 2137\nvalue = [331, 388, 433, 227, 271, 501, 498, 425, 309]\nclass = fear", fillcolor="#3964e500"] ;
0 -> 1 [labeldistance=2.5, labelangle=45, headlabel="True"] ;
2 [label="entropy = 3.087\nsamples = 1711\nvalue = [307, 376, 423, 176, 265, 298, 485, 185, 201]\nclass = anticipation", fillcolor="#8139e507"] ;
1 -> 2 ;
3 [label="entropy = 2.301\nsamples = 426\nvalue = [24, 12, 10, 51, 6, 203, 13, 240, 108]\nclass = anger", fillcolor="#e539d714"] ;
1 -> 3 ;
4 [label="person <= 0.114\nentropy = 2.974\nsamples = 965\nvalue = [201, 176, 132, 309, 273, 75, 45, 91, 220]\nclass = AMBIGUOUS", fillcolor="#39e58107"] ;
0 -> 4 [labeldistance=2.5, labelangle=-45, headlabel="False"] ;
5 [label="entropy = 2.845\nsamples = 550\nvalue = [180, 28, 96, 55, 256, 73, 42, 68, 69]\nclass = trust", fillcolor="#39d7e51c"] ;
4 -> 5 ;
6 [label="entropy = 2.26\nsamples = 415\nvalue = [21, 148, 36, 254, 17, 2, 3, 23, 151]\nclass = AMBIGUOUS", fillcolor="#39e58134"] ;
4 -> 6 ;
}