digraph Tree {
node [shape=box, style="filled, rounded", color="black", fontname=helvetica] ;
edge [fontname=helvetica] ;
0 [label="n_magenta <= 4.001\nentropy = 3.168\nsamples = 3086\nvalue = [586, 536, 513, 522, 533, 562, 547, 523, 583]\nclass = disgust", fillcolor="#e5813900"] ;
1 [label="cyan <= 0.0\nentropy = 2.786\nsamples = 975\nvalue = [73, 111, 116, 361, 26, 113, 214, 423, 88]\nclass = anger", fillcolor="#e539d70e"] ;
0 -> 1 [labeldistance=2.5, labelangle=45, headlabel="True"] ;
2 [label="entropy = 2.54\nsamples = 500\nvalue = [13, 38, 93, 292, 9, 32, 163, 100, 39]\nclass = AMBIGUOUS", fillcolor="#39e58135"] ;
1 -> 2 ;
3 [label="entropy = 2.611\nsamples = 475\nvalue = [60, 73, 23, 69, 17, 81, 51, 323, 49]\nclass = anger", fillcolor="#e539d75d"] ;
1 -> 3 ;
4 [label="green <= 0.041\nentropy = 3.044\nsamples = 2111\nvalue = [513, 425, 397, 161, 507, 449, 333, 100, 495]\nclass = disgust", fillcolor="#e5813901"] ;
0 -> 4 [labeldistance=2.5, labelangle=-45, headlabel="False"] ;
5 [label="entropy = 2.9\nsamples = 1425\nvalue = [438, 385, 305, 146, 436, 233, 228, 12, 110]\nclass = disgust", fillcolor="#e5813900"] ;
4 -> 5 ;
6 [label="entropy = 2.698\nsamples = 686\nvalue = [75, 40, 92, 15, 71, 216, 105, 88, 385]\nclass = surprise", fillcolor="#e5396431"] ;
4 -> 6 ;
}