digraph Tree {
node [shape=box, style="filled, rounded", color="black", fontname=helvetica] ;
edge [fontname=helvetica] ;
0 [label="background <= 0.847\nentropy = 3.169\nsamples = 3092\nvalue = [547, 548, 540, 522, 523, 547, 566, 537, 575]\nclass = surprise", fillcolor="#e5396401"] ;
1 [label="red <= 0.806\nentropy = 2.624\nsamples = 1259\nvalue = [122, 514, 163, 496, 51, 60, 9, 147, 429]\nclass = joy", fillcolor="#d7e53903"] ;
0 -> 1 [labeldistance=2.5, labelangle=45, headlabel="True"] ;
2 [label="entropy = 2.565\nsamples = 737\nvalue = [48, 259, 154, 213, 19, 24, 4, 102, 353]\nclass = surprise", fillcolor="#e539641a"] ;
1 -> 2 ;
3 [label="entropy = 2.418\nsamples = 522\nvalue = [74, 255, 9, 283, 32, 36, 5, 45, 76]\nclass = AMBIGUOUS", fillcolor="#39e5810d"] ;
1 -> 3 ;
4 [label="n_red <= 9.001\nentropy = 2.84\nsamples = 1833\nvalue = [425, 34, 377, 26, 472, 487, 557, 390, 146]\nclass = anticipation", fillcolor="#8139e507"] ;
0 -> 4 [labeldistance=2.5, labelangle=-45, headlabel="False"] ;
5 [label="entropy = 2.618\nsamples = 806\nvalue = [110, 6, 86, 26, 61, 322, 245, 378, 76]\nclass = anger", fillcolor="#e539d70e"] ;
4 -> 5 ;
6 [label="entropy = 2.56\nsamples = 1027\nvalue = [315, 28, 291, 0, 411, 165, 312, 12, 70]\nclass = trust", fillcolor="#39d7e513"] ;
4 -> 6 ;
}