digraph Tree {
node [shape=box, style="filled, rounded", color="black", fontname=helvetica] ;
edge [fontname=helvetica] ;
0 [label="n_yellow <= 4.958\nentropy = 3.167\nsamples = 3136\nvalue = [603, 553, 568, 506, 530, 578, 500, 528, 539]\nclass = disgust", fillcolor="#e5813901"] ;
1 [label="green <= 0.038\nentropy = 3.141\nsamples = 2622\nvalue = [565, 504, 556, 438, 506, 351, 476, 286, 401]\nclass = disgust", fillcolor="#e5813901"] ;
0 -> 1 [labeldistance=2.5, labelangle=45, headlabel="True"] ;
2 [label="entropy = 3.053\nsamples = 2013\nvalue = [493, 426, 464, 426, 444, 228, 365, 145, 139]\nclass = disgust", fillcolor="#e5813903"] ;
1 -> 2 ;
3 [label="entropy = 2.901\nsamples = 609\nvalue = [72, 78, 92, 12, 62, 123, 111, 141, 262]\nclass = surprise", fillcolor="#e5396426"] ;
1 -> 3 ;
4 [label="blue <= 0.0\nentropy = 2.596\nsamples = 514\nvalue = [38, 49, 12, 68, 24, 227, 24, 242, 138]\nclass = anger", fillcolor="#e539d706"] ;
0 -> 4 [labeldistance=2.5, labelangle=-45, headlabel="False"] ;
5 [label="entropy = 2.358\nsamples = 344\nvalue = [19, 23, 11, 31, 8, 130, 10, 224, 107]\nclass = anger", fillcolor="#e539d737"] ;
4 -> 5 ;
6 [label="entropy = 2.682\nsamples = 170\nvalue = [19, 26, 1, 37, 16, 97, 14, 18, 31]\nclass = fear", fillcolor="#3964e545"] ;
4 -> 6 ;
}