digraph Tree {
node [shape=box, style="filled, rounded", color="black", fontname=helvetica] ;
edge [fontname=helvetica] ;
0 [label="blue <= 0.001\nentropy = 3.169\nsamples = 3117\nvalue = [526, 576, 553, 546, 560, 527, 534, 521, 562]\nclass = joy", fillcolor="#d7e53901"] ;
1 [label="person <= 0.107\nentropy = 3.051\nsamples = 1843\nvalue = [168, 207, 403, 354, 119, 344, 308, 479, 494]\nclass = surprise", fillcolor="#e5396402"] ;
0 -> 1 [labeldistance=2.5, labelangle=45, headlabel="True"] ;
2 [label="entropy = 2.794\nsamples = 1138\nvalue = [152, 8, 325, 35, 110, 337, 303, 357, 131]\nclass = anger", fillcolor="#e539d704"] ;
1 -> 2 ;
3 [label="entropy = 2.328\nsamples = 705\nvalue = [16, 199, 78, 319, 9, 7, 5, 122, 363]\nclass = surprise", fillcolor="#e539640e"] ;
1 -> 3 ;
4 [label="n_magenta <= 4.036\nentropy = 2.913\nsamples = 1274\nvalue = [358, 369, 150, 192, 441, 183, 226, 42, 68]\nclass = trust", fillcolor="#39d7e50b"] ;
0 -> 4 [labeldistance=2.5, labelangle=-45, headlabel="False"] ;
5 [label="entropy = 2.869\nsamples = 203\nvalue = [12, 79, 19, 69, 22, 50, 32, 37, 8]\nclass = joy", fillcolor="#d7e5390a"] ;
4 -> 5 ;
6 [label="entropy = 2.799\nsamples = 1071\nvalue = [346, 290, 131, 123, 419, 133, 194, 5, 60]\nclass = trust", fillcolor="#39d7e50e"] ;
4 -> 6 ;
}