digraph Tree {
node [shape=box, style="filled, rounded", color="black", fontname=helvetica] ;
edge [fontname=helvetica] ;
0 [label="person <= 0.032\nentropy = 3.169\nsamples = 3103\nvalue = [534, 512, 517, 546, 570, 576, 521, 567, 562]\nclass = fear", fillcolor="#3964e500"] ;
1 [label="green <= 0.154\nentropy = 2.682\nsamples = 1420\nvalue = [380, 22, 212, 14, 202, 538, 513, 328, 52]\nclass = fear", fillcolor="#3964e504"] ;
0 -> 1 [labeldistance=2.5, labelangle=45, headlabel="True"] ;
2 [label="entropy = 2.643\nsamples = 1228\nvalue = [372, 17, 212, 14, 173, 444, 485, 186, 34]\nclass = anticipation", fillcolor="#8139e507"] ;
1 -> 2 ;
3 [label="entropy = 2.113\nsamples = 192\nvalue = [8, 5, 0, 0, 29, 94, 28, 142, 18]\nclass = anger", fillcolor="#e539d735"] ;
1 -> 3 ;
4 [label="blue <= 0.001\nentropy = 2.795\nsamples = 1683\nvalue = [154, 490, 305, 532, 368, 38, 8, 239, 510]\nclass = AMBIGUOUS", fillcolor="#39e58103"] ;
0 -> 4 [labeldistance=2.5, labelangle=-45, headlabel="False"] ;
5 [label="entropy = 2.632\nsamples = 1023\nvalue = [56, 176, 256, 362, 67, 20, 8, 230, 456]\nclass = surprise", fillcolor="#e5396413"] ;
4 -> 5 ;
6 [label="entropy = 2.403\nsamples = 660\nvalue = [98, 314, 49, 170, 301, 18, 0, 9, 54]\nclass = joy", fillcolor="#d7e53905"] ;
4 -> 6 ;
}