digraph Tree {
node [shape=box, style="filled, rounded", color="black", fontname=helvetica] ;
edge [fontname=helvetica] ;
0 [label="n_magenta <= 4.28\nentropy = 3.169\nsamples = 3084\nvalue = [510, 549, 543, 575, 544, 558, 552, 561, 513]\nclass = AMBIGUOUS", fillcolor="#39e58101"] ;
1 [label="background <= 0.851\nentropy = 2.794\nsamples = 1013\nvalue = [73, 121, 147, 397, 38, 119, 206, 454, 84]\nclass = anger", fillcolor="#e539d70c"] ;
0 -> 1 [labeldistance=2.5, labelangle=45, headlabel="True"] ;
2 [label="entropy = 2.241\nsamples = 498\nvalue = [38, 118, 36, 379, 4, 9, 9, 154, 59]\nclass = AMBIGUOUS", fillcolor="#39e58158"] ;
1 -> 2 ;
3 [label="entropy = 2.477\nsamples = 515\nvalue = [35, 3, 111, 18, 34, 110, 197, 300, 25]\nclass = anger", fillcolor="#e539d729"] ;
1 -> 3 ;
4 [label="magenta <= 0.01\nentropy = 3.066\nsamples = 2071\nvalue = [437, 428, 396, 178, 506, 439, 346, 107, 429]\nclass = trust", fillcolor="#39d7e506"] ;
0 -> 4 [labeldistance=2.5, labelangle=-45, headlabel="False"] ;
5 [label="entropy = 2.716\nsamples = 283\nvalue = [53, 39, 11, 20, 13, 145, 40, 100, 27]\nclass = fear", fillcolor="#3964e521"] ;
4 -> 5 ;
6 [label="entropy = 2.962\nsamples = 1788\nvalue = [384, 389, 385, 158, 493, 294, 306, 7, 402]\nclass = trust", fillcolor="#39d7e50a"] ;
4 -> 6 ;
}