digraph Tree {
node [shape=box, style="filled, rounded", color="black", fontname=helvetica] ;
edge [fontname=helvetica] ;
0 [label="background <= 0.847\nentropy = 3.169\nsamples = 3082\nvalue = [561, 506, 546, 564, 527, 535, 564, 535, 567]\nclass = surprise", fillcolor="#e5396400"] ;
1 [label="red <= 0.824\nentropy = 2.644\nsamples = 1233\nvalue = [129, 473, 187, 531, 60, 38, 14, 156, 400]\nclass = AMBIGUOUS", fillcolor="#39e5810a"] ;
0 -> 1 [labeldistance=2.5, labelangle=45, headlabel="True"] ;
2 [label="entropy = 2.598\nsamples = 757\nvalue = [54, 250, 177, 224, 32, 14, 3, 113, 339]\nclass = surprise", fillcolor="#e5396418"] ;
1 -> 2 ;
3 [label="entropy = 2.381\nsamples = 476\nvalue = [75, 223, 10, 307, 28, 24, 11, 43, 61]\nclass = AMBIGUOUS", fillcolor="#39e58126"] ;
1 -> 3 ;
4 [label="cyan <= 0.0\nentropy = 2.857\nsamples = 1849\nvalue = [432, 33, 359, 33, 467, 497, 550, 379, 167]\nclass = anticipation", fillcolor="#8139e506"] ;
0 -> 4 [labeldistance=2.5, labelangle=-45, headlabel="False"] ;
5 [label="entropy = 2.625\nsamples = 610\nvalue = [112, 9, 189, 14, 207, 75, 266, 72, 14]\nclass = anticipation", fillcolor="#8139e514"] ;
4 -> 5 ;
6 [label="entropy = 2.85\nsamples = 1239\nvalue = [320, 24, 170, 19, 260, 422, 284, 307, 153]\nclass = fear", fillcolor="#3964e510"] ;
4 -> 6 ;
}