digraph Tree {
node [shape=box, style="filled, rounded", color="black", fontname=helvetica] ;
edge [fontname=helvetica] ;
0 [label="n_blue <= 1.004\nentropy = 3.169\nsamples = 3132\nvalue = [562, 558, 524, 559, 540, 555, 536, 546, 525]\nclass = disgust", fillcolor="#e5813900"] ;
1 [label="person <= 0.104\nentropy = 3.006\nsamples = 1763\nvalue = [131, 208, 409, 313, 73, 335, 345, 496, 467]\nclass = anger", fillcolor="#e539d703"] ;
0 -> 1 [labeldistance=2.5, labelangle=45, headlabel="True"] ;
2 [label="entropy = 2.706\nsamples = 1080\nvalue = [122, 7, 319, 23, 62, 316, 340, 363, 132]\nclass = anger", fillcolor="#e539d704"] ;
1 -> 2 ;
3 [label="entropy = 2.407\nsamples = 683\nvalue = [9, 201, 90, 290, 11, 19, 5, 133, 335]\nclass = surprise", fillcolor="#e539640e"] ;
1 -> 3 ;
4 [label="background <= 0.847\nentropy = 2.882\nsamples = 1369\nvalue = [431, 350, 115, 246, 467, 220, 191, 50, 58]\nclass = trust", fillcolor="#39d7e505"] ;
0 -> 4 [labeldistance=2.5, labelangle=-45, headlabel="False"] ;
5 [label="entropy = 2.174\nsamples = 478\nvalue = [93, 324, 25, 220, 40, 13, 1, 15, 21]\nclass = joy", fillcolor="#d7e53932"] ;
4 -> 5 ;
6 [label="entropy = 2.576\nsamples = 891\nvalue = [338, 26, 90, 26, 427, 207, 190, 35, 37]\nclass = trust", fillcolor="#39d7e516"] ;
4 -> 6 ;
}