digraph Tree {
node [shape=box, style="filled, rounded", color="black", fontname=helvetica] ;
edge [fontname=helvetica] ;
0 [label="background <= 0.852\nentropy = 3.169\nsamples = 3114\nvalue = [568, 535, 560, 540, 557, 513, 547, 572, 513]\nclass = anger", fillcolor="#e539d700"] ;
1 [label="cow <= 0.0\nentropy = 2.689\nsamples = 1286\nvalue = [137, 509, 197, 505, 65, 50, 13, 189, 378]\nclass = joy", fillcolor="#d7e53901"] ;
0 -> 1 [labeldistance=2.5, labelangle=45, headlabel="True"] ;
2 [label="entropy = 2.674\nsamples = 1069\nvalue = [122, 447, 197, 378, 22, 44, 12, 177, 280]\nclass = joy", fillcolor="#d7e5390e"] ;
1 -> 2 ;
3 [label="entropy = 2.312\nsamples = 217\nvalue = [15, 62, 0, 127, 43, 6, 1, 12, 98]\nclass = AMBIGUOUS", fillcolor="#39e5811c"] ;
1 -> 3 ;
4 [label="n_cyan <= 5.965\nentropy = 2.838\nsamples = 1828\nvalue = [431, 26, 363, 35, 492, 463, 534, 383, 135]\nclass = anticipation", fillcolor="#8139e505"] ;
0 -> 4 [labeldistance=2.5, labelangle=-45, headlabel="False"] ;
5 [label="entropy = 2.746\nsamples = 1282\nvalue = [396, 18, 276, 30, 443, 242, 358, 194, 41]\nclass = trust", fillcolor="#39d7e507"] ;
4 -> 5 ;
6 [label="entropy = 2.66\nsamples = 546\nvalue = [35, 8, 87, 5, 49, 221, 176, 189, 94]\nclass = fear", fillcolor="#3964e50c"] ;
4 -> 6 ;
}