digraph Tree {
node [shape=box, style="filled, rounded", color="black", fontname=helvetica] ;
edge [fontname=helvetica] ;
0 [label="n_red <= 9.001\nentropy = 3.168\nsamples = 3144\nvalue = [556, 590, 574, 530, 550, 517, 533, 508, 547]\nclass = joy", fillcolor="#d7e53901"] ;
1 [label="yellow <= 0.014\nentropy = 2.954\nsamples = 1415\nvalue = [186, 96, 143, 374, 60, 307, 234, 488, 271]\nclass = anger", fillcolor="#e539d710"] ;
0 -> 1 [labeldistance=2.5, labelangle=45, headlabel="True"] ;
2 [label="entropy = 2.933\nsamples = 721\nvalue = [114, 88, 103, 259, 50, 68, 208, 164, 37]\nclass = AMBIGUOUS", fillcolor="#39e5810f"] ;
1 -> 2 ;
3 [label="entropy = 2.518\nsamples = 694\nvalue = [72, 8, 40, 115, 10, 239, 26, 324, 234]\nclass = anger", fillcolor="#e539d71a"] ;
1 -> 3 ;
4 [label="background <= 0.847\nentropy = 2.95\nsamples = 1729\nvalue = [370, 494, 431, 156, 490, 210, 299, 20, 276]\nclass = joy", fillcolor="#d7e53900"] ;
0 -> 4 [labeldistance=2.5, labelangle=-45, headlabel="False"] ;
5 [label="entropy = 2.377\nsamples = 679\nvalue = [57, 466, 132, 154, 35, 37, 7, 7, 193]\nclass = joy", fillcolor="#d7e5394e"] ;
4 -> 5 ;
6 [label="entropy = 2.575\nsamples = 1050\nvalue = [313, 28, 299, 2, 455, 173, 292, 13, 83]\nclass = trust", fillcolor="#39d7e51b"] ;
4 -> 6 ;
}