digraph Tree {
node [shape=box, style="filled, rounded", color="black", fontname=helvetica] ;
edge [fontname=helvetica] ;
0 [label="cyan <= 0.041\nentropy = 3.169\nsamples = 3081\nvalue = [546, 544, 548, 513, 562, 537, 545, 560, 550]\nclass = trust", fillcolor="#39d7e500"] ;
1 [label="n_yellow <= 3.729\nentropy = 3.1\nsamples = 2037\nvalue = [456, 464, 295, 497, 432, 323, 368, 261, 150]\nclass = AMBIGUOUS", fillcolor="#39e58103"] ;
0 -> 1 [labeldistance=2.5, labelangle=45, headlabel="True"] ;
2 [label="entropy = 3.046\nsamples = 1663\nvalue = [409, 401, 295, 398, 387, 173, 330, 132, 115]\nclass = disgust", fillcolor="#e5813901"] ;
1 -> 2 ;
3 [label="entropy = 2.793\nsamples = 374\nvalue = [47, 63, 0, 99, 45, 150, 38, 129, 35]\nclass = fear", fillcolor="#3964e50b"] ;
1 -> 3 ;
4 [label="n_red <= 9.004\nentropy = 2.871\nsamples = 1044\nvalue = [90, 80, 253, 16, 130, 214, 177, 299, 400]\nclass = surprise", fillcolor="#e5396413"] ;
0 -> 4 [labeldistance=2.5, labelangle=-45, headlabel="False"] ;
5 [label="entropy = 2.562\nsamples = 570\nvalue = [28, 18, 93, 11, 24, 170, 68, 283, 221]\nclass = anger", fillcolor="#e539d717"] ;
4 -> 5 ;
6 [label="entropy = 2.786\nsamples = 474\nvalue = [62, 62, 160, 5, 106, 44, 109, 16, 179]\nclass = surprise", fillcolor="#e5396408"] ;
4 -> 6 ;
}