digraph Tree {
node [shape=box, style="filled, rounded", color="black", fontname=helvetica] ;
edge [fontname=helvetica] ;
0 [label="dog <= 0.0\nentropy = 3.169\nsamples = 3104\nvalue = [513, 540, 547, 572, 560, 552, 552, 543, 526]\nclass = AMBIGUOUS", fillcolor="#39e58101"] ;
1 [label="n_cyan <= 5.955\nentropy = 3.123\nsamples = 2189\nvalue = [337, 375, 419, 218, 289, 494, 517, 441, 294]\nclass = anticipation", fillcolor="#8139e502"] ;
0 -> 1 [labeldistance=2.5, labelangle=45, headlabel="True"] ;
2 [label="entropy = 3.066\nsamples = 1489\nvalue = [307, 324, 293, 201, 271, 262, 372, 195, 59]\nclass = anticipation", fillcolor="#8139e506"] ;
1 -> 2 ;
3 [label="entropy = 2.713\nsamples = 700\nvalue = [30, 51, 126, 17, 18, 232, 145, 246, 235]\nclass = anger", fillcolor="#e539d703"] ;
1 -> 3 ;
4 [label="person <= 0.113\nentropy = 2.921\nsamples = 915\nvalue = [176, 165, 128, 354, 271, 58, 35, 102, 232]\nclass = AMBIGUOUS", fillcolor="#39e58111"] ;
0 -> 4 [labeldistance=2.5, labelangle=-45, headlabel="False"] ;
5 [label="entropy = 2.819\nsamples = 523\nvalue = [161, 23, 101, 43, 255, 54, 34, 89, 84]\nclass = trust", fillcolor="#39d7e523"] ;
4 -> 5 ;
6 [label="entropy = 2.07\nsamples = 392\nvalue = [15, 142, 27, 311, 16, 4, 1, 13, 148]\nclass = AMBIGUOUS", fillcolor="#39e5814f"] ;
4 -> 6 ;
}