digraph Tree {
node [shape=box, style="filled, rounded", color="black", fontname=helvetica] ;
edge [fontname=helvetica] ;
0 [label="person <= 0.032\nentropy = 3.169\nsamples = 3114\nvalue = [577, 542, 552, 521, 559, 583, 543, 512, 516]\nclass = fear", fillcolor="#3964e500"] ;
1 [label="person <= 0.001\nentropy = 2.664\nsamples = 1442\nvalue = [412, 22, 210, 15, 214, 544, 533, 314, 41]\nclass = fear", fillcolor="#3964e502"] ;
0 -> 1 [labeldistance=2.5, labelangle=45, headlabel="True"] ;
2 [label="entropy = 2.461\nsamples = 1044\nvalue = [278, 11, 104, 3, 87, 460, 475, 254, 16]\nclass = anticipation", fillcolor="#8139e503"] ;
1 -> 2 ;
3 [label="entropy = 2.825\nsamples = 398\nvalue = [134, 11, 106, 12, 127, 84, 58, 60, 25]\nclass = disgust", fillcolor="#e5813904"] ;
1 -> 3 ;
4 [label="cyan <= 0.038\nentropy = 2.801\nsamples = 1672\nvalue = [165, 520, 342, 506, 345, 39, 10, 198, 475]\nclass = joy", fillcolor="#d7e53902"] ;
0 -> 4 [labeldistance=2.5, labelangle=-45, headlabel="False"] ;
5 [label="entropy = 2.666\nsamples = 1124\nvalue = [149, 434, 166, 483, 269, 26, 6, 107, 108]\nclass = AMBIGUOUS", fillcolor="#39e5810a"] ;
4 -> 5 ;
6 [label="entropy = 2.36\nsamples = 548\nvalue = [16, 86, 176, 23, 76, 13, 4, 91, 367]\nclass = surprise", fillcolor="#e5396448"] ;
4 -> 6 ;
}