digraph Tree {
node [shape=box, style="filled, rounded", color="black", fontname=helvetica] ;
edge [fontname=helvetica] ;
0 [label="n_blue <= 1.004\nentropy = 3.169\nsamples = 3090\nvalue = [572, 545, 533, 525, 549, 555, 522, 546, 558]\nclass = disgust", fillcolor="#e5813901"] ;
1 [label="magenta <= 0.01\nentropy = 3.009\nsamples = 1715\nvalue = [129, 220, 397, 306, 74, 331, 330, 495, 468]\nclass = anger", fillcolor="#e539d703"] ;
0 -> 1 [labeldistance=2.5, labelangle=45, headlabel="True"] ;
2 [label="entropy = 2.741\nsamples = 791\nvalue = [98, 60, 75, 200, 10, 157, 148, 429, 84]\nclass = anger", fillcolor="#e539d737"] ;
1 -> 2 ;
3 [label="entropy = 2.842\nsamples = 924\nvalue = [31, 160, 322, 106, 64, 174, 182, 66, 384]\nclass = surprise", fillcolor="#e539640e"] ;
1 -> 3 ;
4 [label="dog <= 0.0\nentropy = 2.918\nsamples = 1375\nvalue = [443, 325, 136, 219, 475, 224, 192, 51, 90]\nclass = trust", fillcolor="#39d7e505"] ;
0 -> 4 [labeldistance=2.5, labelangle=-45, headlabel="False"] ;
5 [label="entropy = 2.968\nsamples = 884\nvalue = [261, 200, 112, 91, 230, 206, 186, 46, 44]\nclass = disgust", fillcolor="#e5813907"] ;
4 -> 5 ;
6 [label="entropy = 2.489\nsamples = 491\nvalue = [182, 125, 24, 128, 245, 18, 6, 5, 46]\nclass = trust", fillcolor="#39d7e51b"] ;
4 -> 6 ;
}