digraph Tree {
node [shape=box, style="filled, rounded", color="black", fontname=helvetica] ;
edge [fontname=helvetica] ;
0 [label="n_cyan <= 5.685\nentropy = 3.169\nsamples = 3118\nvalue = [543, 542, 528, 569, 526, 553, 558, 557, 529]\nclass = AMBIGUOUS", fillcolor="#39e58101"] ;
1 [label="n_magenta <= 4.001\nentropy = 3.099\nsamples = 2193\nvalue = [503, 463, 386, 536, 468, 304, 386, 305, 147]\nclass = AMBIGUOUS", fillcolor="#39e58103"] ;
0 -> 1 [labeldistance=2.5, labelangle=45, headlabel="True"] ;
2 [label="entropy = 2.787\nsamples = 841\nvalue = [56, 114, 107, 380, 28, 72, 193, 303, 86]\nclass = AMBIGUOUS", fillcolor="#39e58113"] ;
1 -> 2 ;
3 [label="entropy = 2.83\nsamples = 1352\nvalue = [447, 349, 279, 156, 440, 232, 193, 2, 61]\nclass = disgust", fillcolor="#e5813901"] ;
1 -> 3 ;
4 [label="blue <= 0.0\nentropy = 2.798\nsamples = 925\nvalue = [40, 79, 142, 33, 58, 249, 172, 252, 382]\nclass = surprise", fillcolor="#e539641d"] ;
0 -> 4 [labeldistance=2.5, labelangle=-45, headlabel="False"] ;
5 [label="entropy = 2.526\nsamples = 631\nvalue = [24, 21, 87, 12, 15, 153, 90, 226, 310]\nclass = surprise", fillcolor="#e539641e"] ;
4 -> 5 ;
6 [label="entropy = 2.973\nsamples = 294\nvalue = [16, 58, 55, 21, 43, 96, 82, 26, 72]\nclass = fear", fillcolor="#3964e509"] ;
4 -> 6 ;
}