digraph Tree {
node [shape=box, style="filled, rounded", color="black", fontname=helvetica] ;
edge [fontname=helvetica] ;
0 [label="n_magenta <= 4.001\nentropy = 3.169\nsamples = 3058\nvalue = [498, 562, 560, 551, 509, 561, 560, 563, 541]\nclass = anger", fillcolor="#e539d700"] ;
1 [label="person <= 0.056\nentropy = 2.772\nsamples = 968\nvalue = [66, 98, 127, 391, 31, 128, 196, 437, 91]\nclass = anger", fillcolor="#e539d70a"] ;
0 -> 1 [labeldistance=2.5, labelangle=45, headlabel="True"] ;
2 [label="entropy = 2.426\nsamples = 472\nvalue = [39, 1, 63, 18, 29, 122, 189, 282, 20]\nclass = anger", fillcolor="#e539d729"] ;
1 -> 2 ;
3 [label="entropy = 2.24\nsamples = 496\nvalue = [27, 97, 64, 373, 2, 6, 7, 155, 71]\nclass = AMBIGUOUS", fillcolor="#39e58156"] ;
1 -> 3 ;
4 [label="magenta <= 0.046\nentropy = 3.069\nsamples = 2090\nvalue = [432, 464, 433, 160, 478, 433, 364, 126, 450]\nclass = trust", fillcolor="#39d7e501"] ;
0 -> 4 [labeldistance=2.5, labelangle=-45, headlabel="False"] ;
5 [label="entropy = 2.978\nsamples = 870\nvalue = [180, 142, 167, 38, 47, 293, 168, 126, 226]\nclass = fear", fillcolor="#3964e50f"] ;
4 -> 5 ;
6 [label="entropy = 2.896\nsamples = 1220\nvalue = [252, 322, 266, 122, 431, 140, 196, 0, 224]\nclass = trust", fillcolor="#39d7e511"] ;
4 -> 6 ;
}