digraph Tree {
node [shape=box, style="filled, rounded", color="black", fontname=helvetica] ;
edge [fontname=helvetica] ;
0 [label="background <= 0.847\nentropy = 3.169\nsamples = 3095\nvalue = [564, 556, 545, 512, 530, 526, 546, 565, 561]\nclass = anger", fillcolor="#e539d700"] ;
1 [label="n_cyan <= 3.964\nentropy = 2.647\nsamples = 1263\nvalue = [119, 522, 183, 481, 55, 45, 18, 151, 396]\nclass = joy", fillcolor="#d7e53907"] ;
0 -> 1 [labeldistance=2.5, labelangle=45, headlabel="True"] ;
2 [label="entropy = 2.242\nsamples = 717\nvalue = [100, 367, 17, 441, 33, 27, 5, 57, 68]\nclass = AMBIGUOUS", fillcolor="#39e58119"] ;
1 -> 2 ;
3 [label="entropy = 2.46\nsamples = 546\nvalue = [19, 155, 166, 40, 22, 18, 13, 94, 328]\nclass = surprise", fillcolor="#e539643c"] ;
1 -> 3 ;
4 [label="n_yellow <= 5.359\nentropy = 2.859\nsamples = 1832\nvalue = [445, 34, 362, 31, 475, 481, 528, 414, 165]\nclass = anticipation", fillcolor="#8139e505"] ;
0 -> 4 [labeldistance=2.5, labelangle=-45, headlabel="False"] ;
5 [label="entropy = 2.807\nsamples = 1588\nvalue = [442, 32, 359, 12, 467, 316, 514, 259, 136]\nclass = anticipation", fillcolor="#8139e506"] ;
4 -> 5 ;
6 [label="entropy = 1.969\nsamples = 244\nvalue = [3, 2, 3, 19, 8, 165, 14, 155, 29]\nclass = fear", fillcolor="#3964e50a"] ;
4 -> 6 ;
}