digraph Tree {
node [shape=box, style="filled, rounded", color="black", fontname=helvetica] ;
edge [fontname=helvetica] ;
0 [label="cow <= 0.0\nentropy = 3.167\nsamples = 3100\nvalue = [542, 541, 559, 548, 562, 485, 618, 537, 513]\nclass = anticipation", fillcolor="#8139e503"] ;
1 [label="person <= 0.032\nentropy = 3.148\nsamples = 2546\nvalue = [457, 462, 555, 414, 290, 441, 553, 451, 385]\nclass = sadness", fillcolor="#64e53900"] ;
0 -> 1 [labeldistance=2.5, labelangle=45, headlabel="True"] ;
2 [label="entropy = 2.619\nsamples = 1246\nvalue = [350, 16, 214, 10, 121, 421, 538, 280, 38]\nclass = anticipation", fillcolor="#8139e513"] ;
1 -> 2 ;
3 [label="entropy = 2.759\nsamples = 1300\nvalue = [107, 446, 341, 404, 169, 20, 15, 171, 347]\nclass = joy", fillcolor="#d7e53907"] ;
1 -> 3 ;
4 [label="n_magenta <= 4.765\nentropy = 2.81\nsamples = 554\nvalue = [85, 79, 4, 134, 272, 44, 65, 86, 128]\nclass = trust", fillcolor="#39d7e52e"] ;
0 -> 4 [labeldistance=2.5, labelangle=-45, headlabel="False"] ;
5 [label="entropy = 2.297\nsamples = 141\nvalue = [0, 5, 0, 84, 33, 6, 20, 67, 19]\nclass = AMBIGUOUS", fillcolor="#39e5811a"] ;
4 -> 5 ;
6 [label="entropy = 2.664\nsamples = 413\nvalue = [85, 74, 4, 50, 239, 38, 45, 19, 109]\nclass = trust", fillcolor="#39d7e53c"] ;
4 -> 6 ;
}