digraph Tree {
node [shape=box, style="filled, rounded", color="black", fontname=helvetica] ;
edge [fontname=helvetica] ;
0 [label="red <= 0.348\nentropy = 3.169\nsamples = 3100\nvalue = [524, 531, 540, 552, 557, 549, 576, 527, 549]\nclass = anticipation", fillcolor="#8139e501"] ;
1 [label="green <= 0.088\nentropy = 2.787\nsamples = 556\nvalue = [30, 46, 58, 97, 32, 146, 57, 286, 148]\nclass = anger", fillcolor="#e539d72f"] ;
0 -> 1 [labeldistance=2.5, labelangle=45, headlabel="True"] ;
2 [label="entropy = 2.953\nsamples = 254\nvalue = [26, 35, 56, 95, 14, 60, 26, 80, 30]\nclass = AMBIGUOUS", fillcolor="#39e5810b"] ;
1 -> 2 ;
3 [label="entropy = 2.15\nsamples = 302\nvalue = [4, 11, 2, 2, 18, 86, 31, 206, 118]\nclass = anger", fillcolor="#e539d73e"] ;
1 -> 3 ;
4 [label="n_red <= 9.004\nentropy = 3.141\nsamples = 2544\nvalue = [494, 485, 482, 455, 525, 403, 519, 241, 401]\nclass = trust", fillcolor="#39d7e500"] ;
0 -> 4 [labeldistance=2.5, labelangle=-45, headlabel="False"] ;
5 [label="entropy = 3.006\nsamples = 960\nvalue = [163, 102, 91, 321, 50, 187, 220, 229, 134]\nclass = AMBIGUOUS", fillcolor="#39e58113"] ;
4 -> 5 ;
6 [label="entropy = 2.949\nsamples = 1584\nvalue = [331, 383, 391, 134, 475, 216, 299, 12, 267]\nclass = trust", fillcolor="#39d7e50a"] ;
4 -> 6 ;
}