digraph Tree {
node [shape=box, style="filled, rounded", color="black", fontname=helvetica] ;
edge [fontname=helvetica] ;
0 [label="n_red <= 9.001\nentropy = 3.169\nsamples = 3123\nvalue = [552, 544, 556, 559, 529, 520, 571, 530, 544]\nclass = anticipation", fillcolor="#8139e501"] ;
1 [label="cyan <= 0.015\nentropy = 2.964\nsamples = 1406\nvalue = [175, 117, 139, 395, 73, 307, 253, 509, 259]\nclass = anger", fillcolor="#e539d710"] ;
0 -> 1 [labeldistance=2.5, labelangle=45, headlabel="True"] ;
2 [label="entropy = 2.801\nsamples = 766\nvalue = [127, 104, 51, 370, 43, 116, 185, 197, 24]\nclass = AMBIGUOUS", fillcolor="#39e5812b"] ;
1 -> 2 ;
3 [label="entropy = 2.609\nsamples = 640\nvalue = [48, 13, 88, 25, 30, 191, 68, 312, 235]\nclass = anger", fillcolor="#e539d719"] ;
1 -> 3 ;
4 [label="n_magenta <= 4.813\nentropy = 2.974\nsamples = 1717\nvalue = [377, 427, 417, 164, 456, 213, 318, 21, 285]\nclass = trust", fillcolor="#39d7e503"] ;
0 -> 4 [labeldistance=2.5, labelangle=-45, headlabel="False"] ;
5 [label="entropy = 2.726\nsamples = 286\nvalue = [20, 56, 149, 78, 9, 34, 62, 10, 34]\nclass = sadness", fillcolor="#64e53930"] ;
4 -> 5 ;
6 [label="entropy = 2.913\nsamples = 1431\nvalue = [357, 371, 268, 86, 447, 179, 256, 11, 251]\nclass = trust", fillcolor="#39d7e50a"] ;
4 -> 6 ;
}