digraph Tree {
node [shape=box, style="filled, rounded", color="black", fontname=helvetica] ;
edge [fontname=helvetica] ;
0 [label="background <= 0.847\nentropy = 3.168\nsamples = 3114\nvalue = [496, 585, 546, 571, 547, 527, 513, 534, 586]\nclass = surprise", fillcolor="#e5396400"] ;
1 [label="n_magenta <= 4.553\nentropy = 2.619\nsamples = 1291\nvalue = [127, 533, 190, 541, 49, 45, 19, 144, 419]\nclass = AMBIGUOUS", fillcolor="#39e58101"] ;
0 -> 1 [labeldistance=2.5, labelangle=45, headlabel="True"] ;
2 [label="entropy = 2.286\nsamples = 510\nvalue = [42, 136, 39, 395, 4, 10, 10, 119, 89]\nclass = AMBIGUOUS", fillcolor="#39e5815d"] ;
1 -> 2 ;
3 [label="entropy = 2.532\nsamples = 781\nvalue = [85, 397, 151, 146, 45, 35, 9, 25, 330]\nclass = joy", fillcolor="#d7e53913"] ;
1 -> 3 ;
4 [label="n_red <= 9.001\nentropy = 2.881\nsamples = 1823\nvalue = [369, 52, 356, 30, 498, 482, 494, 390, 167]\nclass = trust", fillcolor="#39d7e500"] ;
0 -> 4 [labeldistance=2.5, labelangle=-45, headlabel="False"] ;
5 [label="entropy = 2.655\nsamples = 825\nvalue = [108, 5, 90, 29, 67, 293, 230, 376, 84]\nclass = anger", fillcolor="#e539d715"] ;
4 -> 5 ;
6 [label="entropy = 2.63\nsamples = 998\nvalue = [261, 47, 266, 1, 431, 189, 264, 14, 83]\nclass = trust", fillcolor="#39d7e521"] ;
4 -> 6 ;
}