digraph Tree {
node [shape=box, style="filled, rounded", color="black", fontname=helvetica] ;
edge [fontname=helvetica] ;
0 [label="n_red <= 9.001\nentropy = 3.168\nsamples = 3076\nvalue = [550, 581, 588, 514, 564, 502, 558, 534, 514]\nclass = sadness", fillcolor="#64e53900"] ;
1 [label="person <= 0.053\nentropy = 2.97\nsamples = 1387\nvalue = [186, 142, 138, 357, 58, 316, 262, 510, 237]\nclass = anger", fillcolor="#e539d715"] ;
0 -> 1 [labeldistance=2.5, labelangle=45, headlabel="True"] ;
2 [label="entropy = 2.487\nsamples = 733\nvalue = [128, 4, 40, 16, 48, 311, 258, 327, 41]\nclass = anger", fillcolor="#e539d705"] ;
1 -> 2 ;
3 [label="entropy = 2.502\nsamples = 654\nvalue = [58, 138, 98, 341, 10, 5, 4, 183, 196]\nclass = AMBIGUOUS", fillcolor="#39e5812c"] ;
1 -> 3 ;
4 [label="person <= 0.115\nentropy = 2.952\nsamples = 1689\nvalue = [364, 439, 450, 157, 506, 186, 296, 24, 277]\nclass = trust", fillcolor="#39d7e506"] ;
0 -> 4 [labeldistance=2.5, labelangle=-45, headlabel="False"] ;
5 [label="entropy = 2.633\nsamples = 1155\nvalue = [343, 27, 383, 33, 485, 174, 296, 16, 85]\nclass = trust", fillcolor="#39d7e512"] ;
4 -> 5 ;
6 [label="entropy = 2.094\nsamples = 534\nvalue = [21, 412, 67, 124, 21, 12, 0, 8, 192]\nclass = joy", fillcolor="#d7e53954"] ;
4 -> 6 ;
}