digraph Tree {
node [shape=box, style="filled, rounded", color="black", fontname=helvetica] ;
edge [fontname=helvetica] ;
0 [label="yellow <= 0.06\nentropy = 3.168\nsamples = 3079\nvalue = [551, 574, 485, 533, 546, 545, 570, 546, 555]\nclass = joy", fillcolor="#d7e53900"] ;
1 [label="n_yellow <= 0.001\nentropy = 3.124\nsamples = 2498\nvalue = [517, 563, 450, 398, 529, 312, 554, 242, 376]\nclass = joy", fillcolor="#d7e53901"] ;
0 -> 1 [labeldistance=2.5, labelangle=45, headlabel="True"] ;
2 [label="entropy = 3.062\nsamples = 937\nvalue = [127, 227, 123, 233, 140, 86, 283, 96, 156]\nclass = anticipation", fillcolor="#8139e50a"] ;
1 -> 2 ;
3 [label="entropy = 3.096\nsamples = 1561\nvalue = [390, 336, 327, 165, 389, 226, 271, 146, 220]\nclass = disgust", fillcolor="#e5813900"] ;
1 -> 3 ;
4 [label="n_blue <= 1.427\nentropy = 2.487\nsamples = 581\nvalue = [34, 11, 35, 135, 17, 233, 16, 304, 179]\nclass = anger", fillcolor="#e539d719"] ;
0 -> 4 [labeldistance=2.5, labelangle=-45, headlabel="False"] ;
5 [label="entropy = 2.317\nsamples = 449\nvalue = [33, 6, 35, 49, 1, 152, 11, 282, 161]\nclass = anger", fillcolor="#e539d736"] ;
4 -> 5 ;
6 [label="entropy = 2.201\nsamples = 132\nvalue = [1, 5, 0, 86, 16, 81, 5, 22, 18]\nclass = AMBIGUOUS", fillcolor="#39e58108"] ;
4 -> 6 ;
}