digraph Tree {
node [shape=box, style="filled, rounded", color="black", fontname=helvetica] ;
edge [fontname=helvetica] ;
0 [label="n_red <= 9.001\nentropy = 3.169\nsamples = 3135\nvalue = [528, 557, 537, 498, 584, 570, 546, 549, 536]\nclass = trust", fillcolor="#39d7e501"] ;
1 [label="person <= 0.036\nentropy = 2.949\nsamples = 1434\nvalue = [188, 122, 122, 348, 60, 332, 271, 527, 253]\nclass = anger", fillcolor="#e539d718"] ;
0 -> 1 [labeldistance=2.5, labelangle=45, headlabel="True"] ;
2 [label="entropy = 2.384\nsamples = 723\nvalue = [112, 5, 31, 11, 42, 318, 261, 337, 25]\nclass = anger", fillcolor="#e539d706"] ;
1 -> 2 ;
3 [label="entropy = 2.598\nsamples = 711\nvalue = [76, 117, 91, 337, 18, 14, 10, 190, 228]\nclass = AMBIGUOUS", fillcolor="#39e58121"] ;
1 -> 3 ;
4 [label="person <= 0.121\nentropy = 2.959\nsamples = 1701\nvalue = [340, 435, 415, 150, 524, 238, 275, 22, 283]\nclass = trust", fillcolor="#39d7e50a"] ;
0 -> 4 [labeldistance=2.5, labelangle=-45, headlabel="False"] ;
5 [label="entropy = 2.652\nsamples = 1152\nvalue = [320, 37, 355, 31, 494, 220, 272, 15, 75]\nclass = trust", fillcolor="#39d7e518"] ;
4 -> 5 ;
6 [label="entropy = 2.167\nsamples = 549\nvalue = [20, 398, 60, 119, 30, 18, 3, 7, 208]\nclass = joy", fillcolor="#d7e5394a"] ;
4 -> 6 ;
}