digraph Tree {
node [shape=box, style="filled, rounded", color="black", fontname=helvetica] ;
edge [fontname=helvetica] ;
0 [label="n_red <= 9.001\nentropy = 3.169\nsamples = 3103\nvalue = [515, 537, 588, 524, 555, 540, 541, 538, 567]\nclass = sadness", fillcolor="#64e53901"] ;
1 [label="background <= 0.848\nentropy = 2.96\nsamples = 1411\nvalue = [189, 121, 155, 386, 58, 318, 250, 517, 253]\nclass = anger", fillcolor="#e539d712"] ;
0 -> 1 [labeldistance=2.5, labelangle=45, headlabel="True"] ;
2 [label="entropy = 2.476\nsamples = 592\nvalue = [72, 115, 47, 364, 9, 13, 10, 143, 179]\nclass = AMBIGUOUS", fillcolor="#39e5813d"] ;
1 -> 2 ;
3 [label="entropy = 2.622\nsamples = 819\nvalue = [117, 6, 108, 22, 49, 305, 240, 374, 74]\nclass = anger", fillcolor="#e539d712"] ;
1 -> 3 ;
4 [label="dog <= 0.0\nentropy = 2.958\nsamples = 1692\nvalue = [326, 416, 433, 138, 497, 222, 291, 21, 314]\nclass = trust", fillcolor="#39d7e507"] ;
0 -> 4 [labeldistance=2.5, labelangle=-45, headlabel="False"] ;
5 [label="entropy = 2.887\nsamples = 1074\nvalue = [171, 279, 358, 46, 241, 185, 261, 11, 135]\nclass = sadness", fillcolor="#64e5390e"] ;
4 -> 5 ;
6 [label="entropy = 2.788\nsamples = 618\nvalue = [155, 137, 75, 92, 256, 37, 30, 10, 179]\nclass = trust", fillcolor="#39d7e519"] ;
4 -> 6 ;
}