digraph Tree {
node [shape=box, style="filled, rounded", color="black", fontname=helvetica] ;
edge [fontname=helvetica] ;
0 [label="magenta <= 0.01\nentropy = 3.169\nsamples = 3103\nvalue = [546, 539, 553, 556, 542, 501, 564, 532, 572]\nclass = surprise", fillcolor="#e5396400"] ;
1 [label="n_green <= 1.017\nentropy = 2.802\nsamples = 959\nvalue = [132, 71, 101, 250, 14, 206, 177, 460, 98]\nclass = anger", fillcolor="#e539d72b"] ;
0 -> 1 [labeldistance=2.5, labelangle=45, headlabel="True"] ;
2 [label="entropy = 2.784\nsamples = 541\nvalue = [52, 33, 83, 231, 4, 99, 157, 152, 51]\nclass = AMBIGUOUS", fillcolor="#39e5811b"] ;
1 -> 2 ;
3 [label="entropy = 2.368\nsamples = 418\nvalue = [80, 38, 18, 19, 10, 107, 20, 308, 47]\nclass = anger", fillcolor="#e539d75f"] ;
1 -> 3 ;
4 [label="background <= 0.847\nentropy = 3.059\nsamples = 2144\nvalue = [414, 468, 452, 306, 528, 295, 387, 72, 474]\nclass = trust", fillcolor="#39d7e505"] ;
0 -> 4 [labeldistance=2.5, labelangle=-45, headlabel="False"] ;
5 [label="entropy = 2.504\nsamples = 886\nvalue = [88, 438, 173, 288, 46, 33, 7, 19, 332]\nclass = joy", fillcolor="#d7e53919"] ;
4 -> 5 ;
6 [label="entropy = 2.737\nsamples = 1258\nvalue = [326, 30, 279, 18, 482, 262, 380, 53, 142]\nclass = trust", fillcolor="#39d7e510"] ;
4 -> 6 ;
}