digraph Tree {
node [shape=box, style="filled, rounded", color="black", fontname=helvetica] ;
edge [fontname=helvetica] ;
0 [label="person <= 0.105\nentropy = 3.168\nsamples = 3113\nvalue = [532, 533, 592, 543, 542, 558, 509, 519, 577]\nclass = sadness", fillcolor="#64e53901"] ;
1 [label="n_blue <= 1.046\nentropy = 2.912\nsamples = 2000\nvalue = [463, 55, 470, 61, 478, 538, 503, 405, 175]\nclass = fear", fillcolor="#3964e503"] ;
0 -> 1 [labeldistance=2.5, labelangle=45, headlabel="True"] ;
2 [label="entropy = 2.705\nsamples = 1086\nvalue = [99, 7, 344, 28, 69, 317, 327, 369, 135]\nclass = anger", fillcolor="#e539d705"] ;
1 -> 2 ;
3 [label="entropy = 2.665\nsamples = 914\nvalue = [364, 48, 126, 33, 409, 221, 176, 36, 40]\nclass = trust", fillcolor="#39d7e50b"] ;
1 -> 3 ;
4 [label="n_green <= 0.989\nentropy = 2.492\nsamples = 1113\nvalue = [69, 478, 122, 482, 64, 20, 6, 114, 402]\nclass = AMBIGUOUS", fillcolor="#39e58101"] ;
0 -> 4 [labeldistance=2.5, labelangle=-45, headlabel="False"] ;
5 [label="entropy = 1.609\nsamples = 268\nvalue = [27, 19, 8, 297, 14, 3, 1, 9, 43]\nclass = AMBIGUOUS", fillcolor="#39e581ab"] ;
4 -> 5 ;
6 [label="entropy = 2.47\nsamples = 845\nvalue = [42, 459, 114, 185, 50, 17, 5, 105, 359]\nclass = joy", fillcolor="#d7e5391a"] ;
4 -> 6 ;
}