digraph Tree {
node [shape=box, style="filled, rounded", color="black", fontname=helvetica] ;
edge [fontname=helvetica] ;
0 [label="n_cyan <= 5.402\nentropy = 3.169\nsamples = 3120\nvalue = [538, 553, 555, 559, 504, 579, 531, 550, 536]\nclass = fear", fillcolor="#3964e501"] ;
1 [label="person <= 0.116\nentropy = 3.091\nsamples = 2180\nvalue = [492, 475, 394, 529, 440, 313, 376, 288, 129]\nclass = AMBIGUOUS", fillcolor="#39e58103"] ;
0 -> 1 [labeldistance=2.5, labelangle=45, headlabel="True"] ;
2 [label="entropy = 2.843\nsamples = 1423\nvalue = [437, 42, 315, 56, 400, 294, 370, 243, 47]\nclass = disgust", fillcolor="#e5813905"] ;
1 -> 2 ;
3 [label="entropy = 2.24\nsamples = 757\nvalue = [55, 433, 79, 473, 40, 19, 6, 45, 82]\nclass = AMBIGUOUS", fillcolor="#39e5810d"] ;
1 -> 3 ;
4 [label="n_blue <= 1.091\nentropy = 2.788\nsamples = 940\nvalue = [46, 78, 161, 30, 64, 266, 155, 262, 407]\nclass = surprise", fillcolor="#e539641e"] ;
0 -> 4 [labeldistance=2.5, labelangle=-45, headlabel="False"] ;
5 [label="entropy = 2.487\nsamples = 707\nvalue = [30, 25, 140, 3, 10, 195, 108, 230, 375]\nclass = surprise", fillcolor="#e539642a"] ;
4 -> 5 ;
6 [label="entropy = 3.034\nsamples = 233\nvalue = [16, 53, 21, 27, 54, 71, 47, 32, 32]\nclass = fear", fillcolor="#3964e50e"] ;
4 -> 6 ;
}