digraph Tree {
node [shape=box, style="filled, rounded", color="black", fontname=helvetica] ;
edge [fontname=helvetica] ;
0 [label="person <= 0.103\ngini = 0.889\nsamples = 3147\nvalue = [576, 513, 528, 512, 533, 554, 520, 567, 575]\nclass = disgust", fillcolor="#e5813900"] ;
1 [label="n_blue <= 1.001\ngini = 0.859\nsamples = 2066\nvalue = [477, 43, 481, 127, 502, 533, 516, 438, 136]\nclass = fear", fillcolor="#3964e502"] ;
0 -> 1 [labeldistance=2.5, labelangle=45, headlabel="True"] ;
2 [label="gini = 0.826\nsamples = 1146\nvalue = [143, 11, 406, 59, 52, 351, 349, 387, 94]\nclass = sadness", fillcolor="#64e53903"] ;
1 -> 2 ;
3 [label="gini = 0.801\nsamples = 920\nvalue = [334, 32, 75, 68, 450, 182, 167, 51, 42]\nclass = trust", fillcolor="#39d7e51c"] ;
1 -> 3 ;
4 [label="dog <= 0.0\ngini = 0.776\nsamples = 1081\nvalue = [99, 470, 47, 385, 31, 21, 4, 129, 439]\nclass = joy", fillcolor="#d7e53907"] ;
0 -> 4 [labeldistance=2.5, labelangle=-45, headlabel="False"] ;
5 [label="gini = 0.752\nsamples = 679\nvalue = [63, 398, 31, 160, 28, 15, 4, 69, 254]\nclass = joy", fillcolor="#d7e53930"] ;
4 -> 5 ;
6 [label="gini = 0.738\nsamples = 402\nvalue = [36, 72, 16, 225, 3, 6, 0, 60, 185]\nclass = AMBIGUOUS", fillcolor="#39e58118"] ;
4 -> 6 ;
}