digraph Tree {
node [shape=box, style="filled, rounded", color="black", fontname=helvetica] ;
edge [fontname=helvetica] ;
0 [label="background <= 0.867\ngini = 0.889\nsamples = 3086\nvalue = [545, 570, 528, 574, 530, 526, 525, 538, 542]\nclass = AMBIGUOUS", fillcolor="#39e58100"] ;
1 [label="n_green <= 1.733\ngini = 0.791\nsamples = 1288\nvalue = [182, 549, 34, 536, 37, 46, 12, 184, 454]\nclass = joy", fillcolor="#d7e53902"] ;
0 -> 1 [labeldistance=2.5, labelangle=45, headlabel="True"] ;
2 [label="gini = 0.714\nsamples = 610\nvalue = [106, 228, 7, 442, 13, 21, 9, 51, 96]\nclass = AMBIGUOUS", fillcolor="#39e58149"] ;
1 -> 2 ;
3 [label="gini = 0.764\nsamples = 678\nvalue = [76, 321, 27, 94, 24, 25, 3, 133, 358]\nclass = surprise", fillcolor="#e539640d"] ;
1 -> 3 ;
4 [label="magenta <= 0.071\ngini = 0.846\nsamples = 1798\nvalue = [363, 21, 494, 38, 493, 480, 513, 354, 88]\nclass = anticipation", fillcolor="#8139e502"] ;
0 -> 4 [labeldistance=2.5, labelangle=-45, headlabel="False"] ;
5 [label="gini = 0.825\nsamples = 1294\nvalue = [262, 5, 461, 36, 77, 393, 409, 353, 60]\nclass = sadness", fillcolor="#64e53908"] ;
4 -> 5 ;
6 [label="gini = 0.672\nsamples = 504\nvalue = [101, 16, 33, 2, 416, 87, 104, 1, 28]\nclass = trust", fillcolor="#39d7e574"] ;
4 -> 6 ;
}