digraph Tree {
node [shape=box, style="filled, rounded", color="black", fontname=helvetica] ;
edge [fontname=helvetica] ;
0 [label="background <= 0.875\ngini = 0.889\nsamples = 3077\nvalue = [556, 534, 528, 577, 553, 527, 526, 531, 546]\nclass = AMBIGUOUS", fillcolor="#39e58101"] ;
1 [label="yellow <= 0.018\ngini = 0.798\nsamples = 1293\nvalue = [210, 517, 35, 538, 57, 55, 9, 171, 468]\nclass = AMBIGUOUS", fillcolor="#39e58103"] ;
0 -> 1 [labeldistance=2.5, labelangle=45, headlabel="True"] ;
2 [label="gini = 0.787\nsamples = 957\nvalue = [161, 490, 29, 378, 56, 47, 7, 88, 279]\nclass = joy", fillcolor="#d7e53919"] ;
1 -> 2 ;
3 [label="gini = 0.741\nsamples = 336\nvalue = [49, 27, 6, 160, 1, 8, 2, 83, 189]\nclass = surprise", fillcolor="#e5396414"] ;
1 -> 3 ;
4 [label="dog <= 0.0\ngini = 0.844\nsamples = 1784\nvalue = [346, 17, 493, 39, 496, 472, 517, 360, 78]\nclass = anticipation", fillcolor="#8139e502"] ;
0 -> 4 [labeldistance=2.5, labelangle=-45, headlabel="False"] ;
5 [label="gini = 0.839\nsamples = 1477\nvalue = [267, 17, 412, 32, 294, 443, 493, 328, 53]\nclass = anticipation", fillcolor="#8139e507"] ;
4 -> 5 ;
6 [label="gini = 0.753\nsamples = 307\nvalue = [79, 0, 81, 7, 202, 29, 24, 32, 25]\nclass = trust", fillcolor="#39d7e54e"] ;
4 -> 6 ;
}