digraph Tree {
node [shape=box, style="filled, rounded", color="black", fontname=helvetica] ;
edge [fontname=helvetica] ;
0 [label="n_cyan <= 5.041\ngini = 0.889\nsamples = 3107\nvalue = [544, 509, 563, 551, 551, 542, 525, 545, 548]\nclass = sadness", fillcolor="#64e53901"] ;
1 [label="person <= 0.104\ngini = 0.874\nsamples = 2148\nvalue = [504, 441, 376, 530, 516, 223, 426, 216, 150]\nclass = AMBIGUOUS", fillcolor="#39e58101"] ;
0 -> 1 [labeldistance=2.5, labelangle=45, headlabel="True"] ;
2 [label="gini = 0.839\nsamples = 1408\nvalue = [414, 29, 343, 131, 492, 204, 422, 160, 24]\nclass = trust", fillcolor="#39d7e50a"] ;
1 -> 2 ;
3 [label="gini = 0.735\nsamples = 740\nvalue = [90, 412, 33, 399, 24, 19, 4, 56, 126]\nclass = joy", fillcolor="#d7e53904"] ;
1 -> 3 ;
4 [label="horse <= 0.0\ngini = 0.812\nsamples = 959\nvalue = [40, 68, 187, 21, 35, 319, 99, 329, 398]\nclass = surprise", fillcolor="#e539640f"] ;
0 -> 4 [labeldistance=2.5, labelangle=-45, headlabel="False"] ;
5 [label="gini = 0.793\nsamples = 671\nvalue = [28, 38, 78, 8, 21, 292, 78, 246, 256]\nclass = fear", fillcolor="#3964e50c"] ;
4 -> 5 ;
6 [label="gini = 0.796\nsamples = 288\nvalue = [12, 30, 109, 13, 14, 27, 21, 83, 142]\nclass = surprise", fillcolor="#e5396419"] ;
4 -> 6 ;
}