digraph Tree {
node [shape=box, style="filled, rounded", color="black", fontname=helvetica] ;
edge [fontname=helvetica] ;
0 [label="background <= 0.872\ngini = 0.889\nsamples = 3047\nvalue = [555, 521, 542, 528, 522, 546, 555, 547, 562]\nclass = surprise", fillcolor="#e5396400"] ;
1 [label="green <= 0.017\ngini = 0.803\nsamples = 1249\nvalue = [186, 503, 44, 486, 41, 69, 16, 182, 472]\nclass = joy", fillcolor="#d7e53903"] ;
0 -> 1 [labeldistance=2.5, labelangle=45, headlabel="True"] ;
2 [label="gini = 0.751\nsamples = 776\nvalue = [160, 396, 19, 435, 25, 40, 12, 53, 111]\nclass = AMBIGUOUS", fillcolor="#39e5810c"] ;
1 -> 2 ;
3 [label="gini = 0.708\nsamples = 473\nvalue = [26, 107, 25, 51, 16, 29, 4, 129, 361]\nclass = surprise", fillcolor="#e5396460"] ;
1 -> 3 ;
4 [label="blue <= 0.001\ngini = 0.846\nsamples = 1798\nvalue = [369, 18, 498, 42, 481, 477, 539, 365, 90]\nclass = anticipation", fillcolor="#8139e504"] ;
0 -> 4 [labeldistance=2.5, labelangle=-45, headlabel="False"] ;
5 [label="gini = 0.825\nsamples = 1193\nvalue = [208, 3, 440, 29, 82, 379, 359, 334, 65]\nclass = sadness", fillcolor="#64e5390a"] ;
4 -> 5 ;
6 [label="gini = 0.758\nsamples = 605\nvalue = [161, 15, 58, 13, 399, 98, 180, 31, 25]\nclass = trust", fillcolor="#39d7e546"] ;
4 -> 6 ;
}