digraph Tree {
node [shape=box, style="filled, rounded", color="black", fontname=helvetica] ;
edge [fontname=helvetica] ;
0 [label="person <= 0.113\ngini = 0.889\nsamples = 3104\nvalue = [545, 548, 527, 547, 566, 566, 543, 527, 509]\nclass = trust", fillcolor="#39d7e500"] ;
1 [label="n_red <= 6.605\ngini = 0.859\nsamples = 2106\nvalue = [471, 53, 487, 125, 544, 544, 538, 415, 138]\nclass = trust", fillcolor="#39d7e500"] ;
0 -> 1 [labeldistance=2.5, labelangle=45, headlabel="True"] ;
2 [label="gini = 0.719\nsamples = 400\nvalue = [18, 0, 56, 38, 26, 116, 66, 301, 17]\nclass = anger", fillcolor="#e539d75a"] ;
1 -> 2 ;
3 [label="gini = 0.846\nsamples = 1706\nvalue = [453, 53, 431, 87, 518, 428, 472, 114, 121]\nclass = trust", fillcolor="#39d7e505"] ;
1 -> 3 ;
4 [label="n_green <= 0.947\ngini = 0.762\nsamples = 998\nvalue = [74, 495, 40, 422, 22, 22, 5, 112, 371]\nclass = joy", fillcolor="#d7e53910"] ;
0 -> 4 [labeldistance=2.5, labelangle=-45, headlabel="False"] ;
5 [label="gini = 0.539\nsamples = 250\nvalue = [21, 40, 4, 264, 9, 9, 3, 8, 42]\nclass = AMBIGUOUS", fillcolor="#39e5819e"] ;
4 -> 5 ;
6 [label="gini = 0.737\nsamples = 748\nvalue = [53, 455, 36, 158, 13, 13, 2, 104, 329]\nclass = joy", fillcolor="#d7e53927"] ;
4 -> 6 ;
}