digraph Tree {
node [shape=box, style="filled, rounded", color="black", fontname=helvetica] ;
edge [fontname=helvetica] ;
0 [label="background <= 0.871\ngini = 0.888\nsamples = 3041\nvalue = [575, 532, 571, 471, 547, 538, 512, 548, 584]\nclass = surprise", fillcolor="#e5396401"] ;
1 [label="n_cyan <= 5.642\ngini = 0.802\nsamples = 1207\nvalue = [189, 509, 30, 435, 60, 54, 9, 193, 487]\nclass = joy", fillcolor="#d7e53904"] ;
0 -> 1 [labeldistance=2.5, labelangle=45, headlabel="True"] ;
2 [label="gini = 0.774\nsamples = 882\nvalue = [184, 451, 22, 430, 49, 35, 8, 116, 123]\nclass = joy", fillcolor="#d7e53905"] ;
1 -> 2 ;
3 [label="gini = 0.526\nsamples = 325\nvalue = [5, 58, 8, 5, 11, 19, 1, 77, 364]\nclass = surprise", fillcolor="#e539649b"] ;
1 -> 3 ;
4 [label="background <= 0.975\ngini = 0.846\nsamples = 1834\nvalue = [386, 23, 541, 36, 487, 484, 503, 355, 97]\nclass = sadness", fillcolor="#64e53904"] ;
0 -> 4 [labeldistance=2.5, labelangle=-45, headlabel="False"] ;
5 [label="gini = 0.805\nsamples = 892\nvalue = [223, 20, 457, 30, 331, 122, 106, 94, 66]\nclass = sadness", fillcolor="#64e5391d"] ;
4 -> 5 ;
6 [label="gini = 0.806\nsamples = 942\nvalue = [163, 3, 84, 6, 156, 362, 397, 261, 31]\nclass = anticipation", fillcolor="#8139e508"] ;
4 -> 6 ;
}