digraph Tree {
node [shape=box, style="filled, rounded", color="black", fontname=helvetica] ;
edge [fontname=helvetica] ;
0 [label="n_cyan <= 5.018\ngini = 0.889\nsamples = 3081\nvalue = [554, 524, 534, 568, 532, 527, 544, 571, 524]\nclass = anger", fillcolor="#e539d700"] ;
1 [label="red <= 0.983\ngini = 0.873\nsamples = 2134\nvalue = [518, 473, 327, 533, 493, 217, 438, 239, 127]\nclass = AMBIGUOUS", fillcolor="#39e58101"] ;
0 -> 1 [labeldistance=2.5, labelangle=45, headlabel="True"] ;
2 [label="gini = 0.86\nsamples = 1603\nvalue = [429, 424, 119, 393, 487, 183, 232, 168, 96]\nclass = trust", fillcolor="#39d7e507"] ;
1 -> 2 ;
3 [label="gini = 0.823\nsamples = 531\nvalue = [89, 49, 208, 140, 6, 34, 206, 71, 31]\nclass = sadness", fillcolor="#64e53901"] ;
1 -> 3 ;
4 [label="dog <= 0.0\ngini = 0.814\nsamples = 947\nvalue = [36, 51, 207, 35, 39, 310, 106, 332, 397]\nclass = surprise", fillcolor="#e539640e"] ;
0 -> 4 [labeldistance=2.5, labelangle=-45, headlabel="False"] ;
5 [label="gini = 0.816\nsamples = 748\nvalue = [35, 42, 174, 21, 18, 295, 98, 283, 214]\nclass = fear", fillcolor="#3964e503"] ;
4 -> 5 ;
6 [label="gini = 0.657\nsamples = 199\nvalue = [1, 9, 33, 14, 21, 15, 8, 49, 183]\nclass = surprise", fillcolor="#e5396478"] ;
4 -> 6 ;
}