digraph Tree {
node [shape=box, style="filled, rounded", color="black", fontname=helvetica] ;
edge [fontname=helvetica] ;
0 [label="n_blue <= 1.083\ngini = 0.889\nsamples = 3114\nvalue = [557, 557, 561, 506, 596, 523, 544, 512, 522]\nclass = trust", fillcolor="#39d7e502"] ;
1 [label="person <= 0.116\ngini = 0.869\nsamples = 1818\nvalue = [173, 177, 467, 288, 88, 360, 363, 466, 464]\nclass = sadness", fillcolor="#64e53900"] ;
0 -> 1 [labeldistance=2.5, labelangle=45, headlabel="True"] ;
2 [label="gini = 0.828\nsamples = 1220\nvalue = [156, 6, 446, 42, 75, 346, 360, 346, 106]\nclass = sadness", fillcolor="#64e5390e"] ;
1 -> 2 ;
3 [label="gini = 0.748\nsamples = 598\nvalue = [17, 171, 21, 246, 13, 14, 3, 120, 358]\nclass = surprise", fillcolor="#e5396428"] ;
1 -> 3 ;
4 [label="sofa <= 0.0\ngini = 0.837\nsamples = 1296\nvalue = [384, 380, 94, 218, 508, 163, 181, 46, 58]\nclass = trust", fillcolor="#39d7e513"] ;
0 -> 4 [labeldistance=2.5, labelangle=-45, headlabel="False"] ;
5 [label="gini = 0.837\nsamples = 1140\nvalue = [266, 344, 89, 174, 485, 162, 178, 44, 51]\nclass = trust", fillcolor="#39d7e519"] ;
4 -> 5 ;
6 [label="gini = 0.689\nsamples = 156\nvalue = [118, 36, 5, 44, 23, 1, 3, 2, 7]\nclass = disgust", fillcolor="#e5813961"] ;
4 -> 6 ;
}