digraph Tree {
node [shape=box, style="filled, rounded", color="black", fontname=helvetica] ;
edge [fontname=helvetica] ;
0 [label="n_magenta <= 4.022\ngini = 0.889\nsamples = 3056\nvalue = [572, 522, 535, 500, 537, 557, 559, 546, 550]\nclass = disgust", fillcolor="#e5813901"] ;
1 [label="cyan <= 0.019\ngini = 0.839\nsamples = 1036\nvalue = [88, 87, 222, 338, 33, 101, 251, 409, 110]\nclass = anger", fillcolor="#e539d70e"] ;
0 -> 1 [labeldistance=2.5, labelangle=45, headlabel="True"] ;
2 [label="gini = 0.835\nsamples = 787\nvalue = [85, 87, 210, 323, 15, 66, 241, 142, 62]\nclass = AMBIGUOUS", fillcolor="#39e58115"] ;
1 -> 2 ;
3 [label="gini = 0.546\nsamples = 249\nvalue = [3, 0, 12, 15, 18, 35, 10, 267, 48]\nclass = anger", fillcolor="#e539d79b"] ;
1 -> 3 ;
4 [label="background <= 0.875\ngini = 0.874\nsamples = 2020\nvalue = [484, 435, 313, 162, 504, 456, 308, 137, 440]\nclass = trust", fillcolor="#39d7e502"] ;
0 -> 4 [labeldistance=2.5, labelangle=-45, headlabel="False"] ;
5 [label="gini = 0.769\nsamples = 795\nvalue = [150, 415, 21, 154, 54, 60, 6, 25, 374]\nclass = joy", fillcolor="#d7e5390c"] ;
4 -> 5 ;
6 [label="gini = 0.83\nsamples = 1225\nvalue = [334, 20, 292, 8, 450, 396, 302, 112, 66]\nclass = trust", fillcolor="#39d7e509"] ;
4 -> 6 ;
}