digraph Tree {
node [shape=box, style="filled, rounded", color="black", fontname=helvetica] ;
edge [fontname=helvetica] ;
0 [label="background <= 0.867\ngini = 0.889\nsamples = 3089\nvalue = [553, 521, 566, 502, 544, 581, 520, 528, 563]\nclass = fear", fillcolor="#3964e501"] ;
1 [label="n_red <= 9.954\ngini = 0.798\nsamples = 1248\nvalue = [197, 501, 36, 463, 43, 61, 11, 152, 464]\nclass = joy", fillcolor="#d7e53906"] ;
0 -> 1 [labeldistance=2.5, labelangle=45, headlabel="True"] ;
2 [label="gini = 0.801\nsamples = 759\nvalue = [158, 158, 28, 361, 22, 22, 10, 146, 248]\nclass = AMBIGUOUS", fillcolor="#39e58120"] ;
1 -> 2 ;
3 [label="gini = 0.703\nsamples = 489\nvalue = [39, 343, 8, 102, 21, 39, 1, 6, 216]\nclass = joy", fillcolor="#d7e5393a"] ;
1 -> 3 ;
4 [label="yellow <= 0.041\ngini = 0.846\nsamples = 1841\nvalue = [356, 20, 530, 39, 501, 520, 509, 376, 99]\nclass = sadness", fillcolor="#64e53901"] ;
0 -> 4 [labeldistance=2.5, labelangle=-45, headlabel="False"] ;
5 [label="gini = 0.823\nsamples = 1417\nvalue = [305, 18, 490, 20, 486, 281, 488, 111, 59]\nclass = sadness", fillcolor="#64e53900"] ;
4 -> 5 ;
6 [label="gini = 0.72\nsamples = 424\nvalue = [51, 2, 40, 19, 15, 239, 21, 265, 40]\nclass = anger", fillcolor="#e539d70f"] ;
4 -> 6 ;
}