digraph Tree {
node [shape=box, style="filled, rounded", color="black", fontname=helvetica] ;
edge [fontname=helvetica] ;
0 [label="n_red <= 5.535\ngini = 0.889\nsamples = 3117\nvalue = [549, 536, 535, 530, 528, 578, 541, 550, 531]\nclass = fear", fillcolor="#3964e502"] ;
1 [label="person <= 0.036\ngini = 0.769\nsamples = 479\nvalue = [30, 21, 51, 148, 19, 78, 67, 312, 40]\nclass = anger", fillcolor="#e539d744"] ;
0 -> 1 [labeldistance=2.5, labelangle=45, headlabel="True"] ;
2 [label="gini = 0.63\nsamples = 275\nvalue = [18, 0, 4, 8, 9, 78, 63, 236, 7]\nclass = anger", fillcolor="#e539d775"] ;
1 -> 2 ;
3 [label="gini = 0.75\nsamples = 204\nvalue = [12, 21, 47, 140, 10, 0, 4, 76, 33]\nclass = AMBIGUOUS", fillcolor="#39e5813d"] ;
1 -> 3 ;
4 [label="background <= 0.867\ngini = 0.885\nsamples = 2638\nvalue = [519, 515, 484, 382, 509, 500, 474, 238, 491]\nclass = disgust", fillcolor="#e5813900"] ;
0 -> 4 [labeldistance=2.5, labelangle=-45, headlabel="False"] ;
5 [label="gini = 0.792\nsamples = 1062\nvalue = [172, 495, 39, 369, 37, 61, 11, 97, 405]\nclass = joy", fillcolor="#d7e53912"] ;
4 -> 5 ;
6 [label="gini = 0.834\nsamples = 1576\nvalue = [347, 20, 445, 13, 472, 439, 463, 141, 86]\nclass = trust", fillcolor="#39d7e501"] ;
4 -> 6 ;
}