digraph Tree {
node [shape=box, style="filled, rounded", color="black", fontname=helvetica] ;
edge [fontname=helvetica] ;
0 [label="background <= 0.884\ngini = 0.889\nsamples = 3077\nvalue = [535, 534, 510, 549, 543, 564, 540, 557, 546]\nclass = fear", fillcolor="#3964e500"] ;
1 [label="green <= 0.017\ngini = 0.807\nsamples = 1321\nvalue = [195, 522, 45, 518, 59, 69, 15, 214, 460]\nclass = joy", fillcolor="#d7e53901"] ;
0 -> 1 [labeldistance=2.5, labelangle=45, headlabel="True"] ;
2 [label="gini = 0.752\nsamples = 822\nvalue = [160, 413, 24, 463, 32, 43, 8, 59, 116]\nclass = AMBIGUOUS", fillcolor="#39e5810e"] ;
1 -> 2 ;
3 [label="gini = 0.736\nsamples = 499\nvalue = [35, 109, 21, 55, 27, 26, 7, 155, 344]\nclass = surprise", fillcolor="#e539644d"] ;
1 -> 3 ;
4 [label="magenta <= 0.071\ngini = 0.843\nsamples = 1756\nvalue = [340, 12, 465, 31, 484, 495, 525, 343, 86]\nclass = anticipation", fillcolor="#8139e503"] ;
0 -> 4 [labeldistance=2.5, labelangle=-45, headlabel="False"] ;
5 [label="gini = 0.822\nsamples = 1245\nvalue = [252, 6, 419, 30, 53, 390, 412, 341, 58]\nclass = sadness", fillcolor="#64e53901"] ;
4 -> 5 ;
6 [label="gini = 0.672\nsamples = 511\nvalue = [88, 6, 46, 1, 431, 105, 113, 2, 28]\nclass = trust", fillcolor="#39d7e573"] ;
4 -> 6 ;
}