digraph Tree {
node [shape=box, style="filled, rounded", color="black", fontname=helvetica] ;
edge [fontname=helvetica] ;
0 [label="n_cyan <= 5.041\ngini = 0.889\nsamples = 3101\nvalue = [548, 524, 567, 555, 510, 575, 546, 506, 547]\nclass = fear", fillcolor="#3964e500"] ;
1 [label="background <= 0.867\ngini = 0.873\nsamples = 2136\nvalue = [511, 464, 359, 531, 461, 228, 451, 201, 133]\nclass = AMBIGUOUS", fillcolor="#39e58102"] ;
0 -> 1 [labeldistance=2.5, labelangle=45, headlabel="True"] ;
2 [label="gini = 0.753\nsamples = 909\nvalue = [184, 450, 31, 487, 39, 23, 10, 88, 103]\nclass = AMBIGUOUS", fillcolor="#39e5810a"] ;
1 -> 2 ;
3 [label="gini = 0.826\nsamples = 1227\nvalue = [327, 14, 328, 44, 422, 205, 441, 113, 30]\nclass = anticipation", fillcolor="#8139e503"] ;
1 -> 3 ;
4 [label="dog <= 0.001\ngini = 0.812\nsamples = 965\nvalue = [37, 60, 208, 24, 49, 347, 95, 305, 414]\nclass = surprise", fillcolor="#e539640e"] ;
0 -> 4 [labeldistance=2.5, labelangle=-45, headlabel="False"] ;
5 [label="gini = 0.813\nsamples = 806\nvalue = [37, 45, 188, 18, 27, 335, 91, 281, 272]\nclass = fear", fillcolor="#3964e50e"] ;
4 -> 5 ;
6 [label="gini = 0.633\nsamples = 159\nvalue = [0, 15, 20, 6, 22, 12, 4, 24, 142]\nclass = surprise", fillcolor="#e5396488"] ;
4 -> 6 ;
}