digraph Tree {
node [shape=box, style="filled, rounded", color="black", fontname=helvetica] ;
edge [fontname=helvetica] ;
0 [label="person <= 0.116\ngini = 0.889\nsamples = 3086\nvalue = [529, 560, 534, 561, 572, 549, 560, 490, 523]\nclass = trust", fillcolor="#39d7e501"] ;
1 [label="magenta <= 0.072\ngini = 0.86\nsamples = 2086\nvalue = [438, 54, 503, 156, 548, 530, 554, 384, 139]\nclass = anticipation", fillcolor="#8139e501"] ;
0 -> 1 [labeldistance=2.5, labelangle=45, headlabel="True"] ;
2 [label="gini = 0.842\nsamples = 1451\nvalue = [304, 34, 471, 97, 91, 394, 431, 380, 87]\nclass = sadness", fillcolor="#64e53905"] ;
1 -> 2 ;
3 [label="gini = 0.741\nsamples = 635\nvalue = [134, 20, 32, 59, 457, 136, 123, 4, 52]\nclass = trust", fillcolor="#39d7e55d"] ;
1 -> 3 ;
4 [label="n_magenta <= 4.721\ngini = 0.762\nsamples = 1000\nvalue = [91, 506, 31, 405, 24, 19, 6, 106, 384]\nclass = joy", fillcolor="#d7e53916"] ;
0 -> 4 [labeldistance=2.5, labelangle=-45, headlabel="False"] ;
5 [label="gini = 0.713\nsamples = 421\nvalue = [39, 130, 16, 312, 4, 4, 3, 92, 72]\nclass = AMBIGUOUS", fillcolor="#39e58156"] ;
4 -> 5 ;
6 [label="gini = 0.69\nsamples = 579\nvalue = [52, 376, 15, 93, 20, 15, 3, 14, 312]\nclass = joy", fillcolor="#d7e5391c"] ;
4 -> 6 ;
}