digraph Tree {
node [shape=box, style="filled, rounded", color="black", fontname=helvetica] ;
edge [fontname=helvetica] ;
0 [label="person <= 0.108\ngini = 0.889\nsamples = 3044\nvalue = [523, 526, 535, 572, 531, 563, 505, 559, 564]\nclass = AMBIGUOUS", fillcolor="#39e58100"] ;
1 [label="magenta <= 0.075\ngini = 0.86\nsamples = 1999\nvalue = [442, 38, 496, 147, 505, 533, 498, 434, 129]\nclass = fear", fillcolor="#3964e503"] ;
0 -> 1 [labeldistance=2.5, labelangle=45, headlabel="True"] ;
2 [label="gini = 0.839\nsamples = 1400\nvalue = [306, 22, 455, 94, 69, 408, 370, 429, 89]\nclass = sadness", fillcolor="#64e53904"] ;
1 -> 2 ;
3 [label="gini = 0.743\nsamples = 599\nvalue = [136, 16, 41, 53, 436, 125, 128, 5, 40]\nclass = trust", fillcolor="#39d7e55b"] ;
1 -> 3 ;
4 [label="green <= 0.025\ngini = 0.769\nsamples = 1045\nvalue = [81, 488, 39, 425, 26, 30, 7, 125, 435]\nclass = joy", fillcolor="#d7e5390b"] ;
0 -> 4 [labeldistance=2.5, labelangle=-45, headlabel="False"] ;
5 [label="gini = 0.704\nsamples = 688\nvalue = [73, 415, 24, 393, 18, 22, 6, 23, 107]\nclass = joy", fillcolor="#d7e53908"] ;
4 -> 5 ;
6 [label="gini = 0.623\nsamples = 357\nvalue = [8, 73, 15, 32, 8, 8, 1, 102, 328]\nclass = surprise", fillcolor="#e539647a"] ;
4 -> 6 ;
}