digraph Tree {
node [shape=box, style="filled, rounded", color="black", fontname=helvetica] ;
edge [fontname=helvetica] ;
0 [label="green <= 0.074\ngini = 0.889\nsamples = 3074\nvalue = [536, 577, 532, 553, 525, 536, 535, 576, 508]\nclass = joy", fillcolor="#d7e53900"] ;
1 [label="background <= 0.881\ngini = 0.88\nsamples = 2383\nvalue = [469, 540, 457, 521, 503, 333, 509, 184, 267]\nclass = joy", fillcolor="#d7e53901"] ;
0 -> 1 [labeldistance=2.5, labelangle=45, headlabel="True"] ;
2 [label="gini = 0.774\nsamples = 1039\nvalue = [184, 531, 41, 505, 52, 49, 19, 70, 225]\nclass = joy", fillcolor="#d7e53906"] ;
1 -> 2 ;
3 [label="gini = 0.821\nsamples = 1344\nvalue = [285, 9, 416, 16, 451, 284, 490, 114, 42]\nclass = anticipation", fillcolor="#8139e506"] ;
1 -> 3 ;
4 [label="n_magenta <= 4.782\ngini = 0.778\nsamples = 691\nvalue = [67, 37, 75, 32, 22, 203, 26, 392, 241]\nclass = anger", fillcolor="#e539d72d"] ;
0 -> 4 [labeldistance=2.5, labelangle=-45, headlabel="False"] ;
5 [label="gini = 0.465\nsamples = 236\nvalue = [16, 8, 0, 21, 1, 26, 7, 264, 23]\nclass = anger", fillcolor="#e539d7b2"] ;
4 -> 5 ;
6 [label="gini = 0.802\nsamples = 455\nvalue = [51, 29, 75, 11, 21, 177, 19, 128, 218]\nclass = surprise", fillcolor="#e5396413"] ;
4 -> 6 ;
}