digraph Tree {
node [shape=box, style="filled, rounded", color="black", fontname=helvetica] ;
edge [fontname=helvetica] ;
0 [label="background <= 0.881\ngini = 0.889\nsamples = 3093\nvalue = [538, 569, 562, 529, 531, 531, 588, 507, 523]\nclass = anticipation", fillcolor="#8139e501"] ;
1 [label="n_yellow <= 5.434\ngini = 0.799\nsamples = 1315\nvalue = [214, 559, 35, 493, 49, 55, 17, 174, 447]\nclass = joy", fillcolor="#d7e5390b"] ;
0 -> 1 [labeldistance=2.5, labelangle=45, headlabel="True"] ;
2 [label="gini = 0.794\nsamples = 1146\nvalue = [209, 546, 35, 395, 49, 51, 17, 108, 365]\nclass = joy", fillcolor="#d7e5391c"] ;
1 -> 2 ;
3 [label="gini = 0.709\nsamples = 169\nvalue = [5, 13, 0, 98, 0, 4, 0, 66, 82]\nclass = AMBIGUOUS", fillcolor="#39e58116"] ;
1 -> 3 ;
4 [label="n_cyan <= 5.028\ngini = 0.84\nsamples = 1778\nvalue = [324, 10, 527, 36, 482, 476, 571, 333, 76]\nclass = anticipation", fillcolor="#8139e505"] ;
0 -> 4 [labeldistance=2.5, labelangle=-45, headlabel="False"] ;
5 [label="gini = 0.815\nsamples = 1210\nvalue = [290, 7, 353, 28, 459, 180, 469, 108, 33]\nclass = anticipation", fillcolor="#8139e502"] ;
4 -> 5 ;
6 [label="gini = 0.779\nsamples = 568\nvalue = [34, 3, 174, 8, 23, 296, 102, 225, 43]\nclass = fear", fillcolor="#3964e51b"] ;
4 -> 6 ;
}