digraph Tree {
node [shape=box, style="filled, rounded", color="black", fontname=helvetica] ;
edge [fontname=helvetica] ;
0 [label="yellow <= 0.046\ngini = 0.889\nsamples = 3063\nvalue = [550, 556, 475, 555, 556, 512, 574, 574, 526]\nclass = anticipation", fillcolor="#8139e500"] ;
1 [label="yellow <= 0.006\ngini = 0.882\nsamples = 2393\nvalue = [480, 533, 451, 391, 548, 303, 546, 226, 343]\nclass = trust", fillcolor="#39d7e500"] ;
0 -> 1 [labeldistance=2.5, labelangle=45, headlabel="True"] ;
2 [label="gini = 0.878\nsamples = 2076\nvalue = [357, 495, 409, 360, 526, 247, 480, 162, 266]\nclass = trust", fillcolor="#39d7e503"] ;
1 -> 2 ;
3 [label="gini = 0.862\nsamples = 317\nvalue = [123, 38, 42, 31, 22, 56, 66, 64, 77]\nclass = disgust", fillcolor="#e581391b"] ;
1 -> 3 ;
4 [label="n_red <= 5.031\ngini = 0.792\nsamples = 670\nvalue = [70, 23, 24, 164, 8, 209, 28, 348, 183]\nclass = anger", fillcolor="#e539d72a"] ;
0 -> 4 [labeldistance=2.5, labelangle=-45, headlabel="False"] ;
5 [label="gini = 0.579\nsamples = 264\nvalue = [5, 3, 3, 50, 2, 54, 8, 253, 31]\nclass = anger", fillcolor="#e539d78f"] ;
4 -> 5 ;
6 [label="gini = 0.822\nsamples = 406\nvalue = [65, 20, 21, 114, 6, 155, 20, 95, 152]\nclass = fear", fillcolor="#3964e502"] ;
4 -> 6 ;
}