digraph Tree {
node [shape=box, style="filled, rounded", color="black", fontname=helvetica] ;
edge [fontname=helvetica] ;
0 [label="n_magenta <= 4.01\ngini = 0.889\nsamples = 3118\nvalue = [574, 522, 571, 574, 526, 533, 536, 507, 535]\nclass = disgust", fillcolor="#e5813900"] ;
1 [label="n_green <= 1.296\ngini = 0.838\nsamples = 1053\nvalue = [95, 119, 216, 385, 32, 89, 233, 377, 82]\nclass = AMBIGUOUS", fillcolor="#39e58102"] ;
0 -> 1 [labeldistance=2.5, labelangle=45, headlabel="True"] ;
2 [label="gini = 0.807\nsamples = 698\nvalue = [59, 79, 197, 357, 8, 52, 197, 97, 43]\nclass = AMBIGUOUS", fillcolor="#39e5812e"] ;
1 -> 2 ;
3 [label="gini = 0.7\nsamples = 355\nvalue = [36, 40, 19, 28, 24, 37, 36, 280, 39]\nclass = anger", fillcolor="#e539d77b"] ;
1 -> 3 ;
4 [label="person <= 0.104\ngini = 0.876\nsamples = 2065\nvalue = [479, 403, 355, 189, 494, 444, 303, 130, 453]\nclass = trust", fillcolor="#39d7e501"] ;
0 -> 4 [labeldistance=2.5, labelangle=-45, headlabel="False"] ;
5 [label="gini = 0.841\nsamples = 1437\nvalue = [420, 27, 327, 64, 471, 428, 302, 115, 104]\nclass = trust", fillcolor="#39d7e506"] ;
4 -> 5 ;
6 [label="gini = 0.711\nsamples = 628\nvalue = [59, 376, 28, 125, 23, 16, 1, 15, 349]\nclass = joy", fillcolor="#d7e5390b"] ;
4 -> 6 ;
}