digraph Tree {
node [shape=box, style="filled, rounded", color="black", fontname=helvetica] ;
edge [fontname=helvetica] ;
0 [label="cyan <= 0.03\ngini = 0.889\nsamples = 3044\nvalue = [562, 571, 537, 537, 543, 566, 511, 539, 512]\nclass = joy", fillcolor="#d7e53900"] ;
1 [label="background <= 0.871\ngini = 0.872\nsamples = 1953\nvalue = [468, 450, 315, 511, 463, 222, 428, 179, 113]\nclass = AMBIGUOUS", fillcolor="#39e58104"] ;
0 -> 1 [labeldistance=2.5, labelangle=45, headlabel="True"] ;
2 [label="gini = 0.741\nsamples = 840\nvalue = [182, 439, 9, 483, 32, 38, 9, 87, 76]\nclass = AMBIGUOUS", fillcolor="#39e5810c"] ;
1 -> 2 ;
3 [label="gini = 0.819\nsamples = 1113\nvalue = [286, 11, 306, 28, 431, 184, 419, 92, 37]\nclass = trust", fillcolor="#39d7e502"] ;
1 -> 3 ;
4 [label="person <= 0.083\ngini = 0.835\nsamples = 1091\nvalue = [94, 121, 222, 26, 80, 344, 83, 360, 399]\nclass = surprise", fillcolor="#e5396407"] ;
0 -> 4 [labeldistance=2.5, labelangle=-45, headlabel="False"] ;
5 [label="gini = 0.803\nsamples = 698\nvalue = [90, 9, 185, 5, 78, 341, 82, 269, 61]\nclass = fear", fillcolor="#3964e516"] ;
4 -> 5 ;
6 [label="gini = 0.631\nsamples = 393\nvalue = [4, 112, 37, 21, 2, 3, 1, 91, 338]\nclass = surprise", fillcolor="#e5396474"] ;
4 -> 6 ;
}