digraph Tree {
node [shape=box, style="filled, rounded", color="black", fontname=helvetica] ;
edge [fontname=helvetica] ;
0 [label="magenta <= 0.072\ngini = 0.889\nsamples = 3094\nvalue = [507, 520, 521, 527, 585, 556, 566, 526, 570]\nclass = trust", fillcolor="#39d7e501"] ;
1 [label="magenta <= 0.002\ngini = 0.876\nsamples = 2061\nvalue = [350, 272, 476, 312, 85, 407, 446, 515, 406]\nclass = anger", fillcolor="#e539d704"] ;
0 -> 1 [labeldistance=2.5, labelangle=45, headlabel="True"] ;
2 [label="gini = 0.812\nsamples = 561\nvalue = [39, 16, 175, 143, 12, 40, 181, 265, 51]\nclass = anger", fillcolor="#e539d71d"] ;
1 -> 2 ;
3 [label="gini = 0.877\nsamples = 1500\nvalue = [311, 256, 301, 169, 73, 367, 265, 250, 355]\nclass = fear", fillcolor="#3964e502"] ;
1 -> 3 ;
4 [label="person <= 0.112\ngini = 0.827\nsamples = 1033\nvalue = [157, 248, 45, 215, 500, 149, 120, 11, 164]\nclass = trust", fillcolor="#39d7e52f"] ;
0 -> 4 [labeldistance=2.5, labelangle=-45, headlabel="False"] ;
5 [label="gini = 0.729\nsamples = 655\nvalue = [133, 24, 37, 50, 487, 138, 119, 3, 54]\nclass = trust", fillcolor="#39d7e562"] ;
4 -> 5 ;
6 [label="gini = 0.716\nsamples = 378\nvalue = [24, 224, 8, 165, 13, 11, 1, 8, 110]\nclass = joy", fillcolor="#d7e53926"] ;
4 -> 6 ;
}