digraph Tree {
node [shape=box, style="filled, rounded", color="black", fontname=helvetica] ;
edge [fontname=helvetica] ;
0 [label="n_cyan <= 5.871\ngini = 0.889\nsamples = 3139\nvalue = [537, 524, 523, 523, 572, 560, 528, 575, 536]\nclass = anger", fillcolor="#e539d700"] ;
1 [label="n_magenta <= 4.427\ngini = 0.876\nsamples = 2230\nvalue = [508, 460, 359, 512, 529, 243, 446, 260, 138]\nclass = trust", fillcolor="#39d7e501"] ;
0 -> 1 [labeldistance=2.5, labelangle=45, headlabel="True"] ;
2 [label="gini = 0.841\nsamples = 928\nvalue = [74, 111, 216, 361, 34, 71, 231, 251, 79]\nclass = AMBIGUOUS", fillcolor="#39e58118"] ;
1 -> 2 ;
3 [label="gini = 0.835\nsamples = 1302\nvalue = [434, 349, 143, 151, 495, 172, 215, 9, 59]\nclass = trust", fillcolor="#39d7e50a"] ;
1 -> 3 ;
4 [label="n_magenta <= 4.767\ngini = 0.803\nsamples = 909\nvalue = [29, 64, 164, 11, 43, 317, 82, 315, 398]\nclass = surprise", fillcolor="#e5396413"] ;
0 -> 4 [labeldistance=2.5, labelangle=-45, headlabel="False"] ;
5 [label="gini = 0.486\nsamples = 183\nvalue = [5, 2, 7, 7, 11, 20, 5, 207, 30]\nclass = anger", fillcolor="#e539d7ab"] ;
4 -> 5 ;
6 [label="gini = 0.787\nsamples = 726\nvalue = [24, 62, 157, 4, 32, 297, 77, 108, 368]\nclass = surprise", fillcolor="#e5396416"] ;
4 -> 6 ;
}