digraph Tree {
node [shape=box, style="filled, rounded", color="black", fontname=helvetica] ;
edge [fontname=helvetica] ;
0 [label="chair <= 0.0\ngini = 0.889\nsamples = 3136\nvalue = [536, 539, 577, 505, 552, 550, 527, 539, 553]\nclass = sadness", fillcolor="#64e53901"] ;
1 [label="background <= 0.876\ngini = 0.888\nsamples = 2678\nvalue = [418, 465, 415, 409, 476, 522, 507, 500, 464]\nclass = fear", fillcolor="#3964e501"] ;
0 -> 1 [labeldistance=2.5, labelangle=45, headlabel="True"] ;
2 [label="gini = 0.811\nsamples = 1104\nvalue = [155, 452, 45, 386, 58, 61, 12, 177, 383]\nclass = joy", fillcolor="#d7e5390d"] ;
1 -> 2 ;
3 [label="gini = 0.841\nsamples = 1574\nvalue = [263, 13, 370, 23, 418, 461, 495, 323, 81]\nclass = anticipation", fillcolor="#8139e504"] ;
1 -> 3 ;
4 [label="n_yellow <= 0.007\ngini = 0.855\nsamples = 458\nvalue = [118, 74, 162, 96, 76, 28, 20, 39, 89]\nclass = sadness", fillcolor="#64e53913"] ;
0 -> 4 [labeldistance=2.5, labelangle=-45, headlabel="False"] ;
5 [label="gini = 0.747\nsamples = 182\nvalue = [8, 29, 129, 27, 33, 8, 10, 17, 22]\nclass = sadness", fillcolor="#64e53962"] ;
4 -> 5 ;
6 [label="gini = 0.845\nsamples = 276\nvalue = [110, 45, 33, 69, 43, 20, 10, 22, 67]\nclass = disgust", fillcolor="#e581391e"] ;
4 -> 6 ;
}