digraph Tree {
node [shape=box, style="filled, rounded", color="black", fontname=helvetica] ;
edge [fontname=helvetica] ;
0 [label="person <= 0.106\ngini = 0.889\nsamples = 3065\nvalue = [546, 522, 499, 550, 568, 535, 517, 566, 575]\nclass = surprise", fillcolor="#e5396400"] ;
1 [label="blue <= 0.001\ngini = 0.859\nsamples = 2030\nvalue = [456, 44, 459, 139, 542, 511, 513, 423, 122]\nclass = trust", fillcolor="#39d7e503"] ;
0 -> 1 [labeldistance=2.5, labelangle=45, headlabel="True"] ;
2 [label="gini = 0.841\nsamples = 1317\nvalue = [278, 17, 407, 68, 88, 391, 345, 389, 98]\nclass = sadness", fillcolor="#64e53902"] ;
1 -> 2 ;
3 [label="gini = 0.772\nsamples = 713\nvalue = [178, 27, 52, 71, 454, 120, 168, 34, 24]\nclass = trust", fillcolor="#39d7e54a"] ;
1 -> 3 ;
4 [label="n_cyan <= 5.642\ngini = 0.772\nsamples = 1035\nvalue = [90, 478, 40, 411, 26, 24, 4, 143, 453]\nclass = joy", fillcolor="#d7e53905"] ;
0 -> 4 [labeldistance=2.5, labelangle=-45, headlabel="False"] ;
5 [label="gini = 0.731\nsamples = 732\nvalue = [80, 432, 31, 402, 25, 18, 3, 73, 118]\nclass = joy", fillcolor="#d7e5390a"] ;
4 -> 5 ;
6 [label="gini = 0.496\nsamples = 303\nvalue = [10, 46, 9, 9, 1, 6, 1, 70, 335]\nclass = surprise", fillcolor="#e53964a2"] ;
4 -> 6 ;
}