digraph Tree {
node [shape=box, style="filled, rounded", color="black", fontname=helvetica] ;
edge [fontname=helvetica] ;
0 [label="person <= 0.104\ngini = 0.889\nsamples = 3070\nvalue = [558, 527, 567, 493, 513, 570, 538, 530, 582]\nclass = surprise", fillcolor="#e5396401"] ;
1 [label="blue <= 0.0\ngini = 0.858\nsamples = 2051\nvalue = [467, 37, 522, 111, 489, 548, 533, 417, 153]\nclass = fear", fillcolor="#3964e501"] ;
0 -> 1 [labeldistance=2.5, labelangle=45, headlabel="True"] ;
2 [label="gini = 0.829\nsamples = 1157\nvalue = [190, 1, 429, 41, 57, 318, 300, 359, 113]\nclass = sadness", fillcolor="#64e5390c"] ;
1 -> 2 ;
3 [label="gini = 0.819\nsamples = 894\nvalue = [277, 36, 93, 70, 432, 230, 233, 58, 40]\nclass = trust", fillcolor="#39d7e521"] ;
1 -> 3 ;
4 [label="blue <= 0.001\ngini = 0.768\nsamples = 1019\nvalue = [91, 490, 45, 382, 24, 22, 5, 113, 429]\nclass = joy", fillcolor="#d7e5390d"] ;
0 -> 4 [labeldistance=2.5, labelangle=-45, headlabel="False"] ;
5 [label="gini = 0.738\nsamples = 623\nvalue = [27, 139, 28, 273, 8, 20, 5, 107, 393]\nclass = surprise", fillcolor="#e539642a"] ;
4 -> 5 ;
6 [label="gini = 0.609\nsamples = 396\nvalue = [64, 351, 17, 109, 16, 2, 0, 6, 36]\nclass = joy", fillcolor="#d7e5397d"] ;
4 -> 6 ;
}