digraph Tree {
node [shape=box, style="filled, rounded", color="black", fontname=helvetica] ;
edge [fontname=helvetica] ;
0 [label="red <= 0.458\ngini = 0.889\nsamples = 3063\nvalue = [550, 539, 560, 569, 528, 513, 550, 550, 519]\nclass = AMBIGUOUS", fillcolor="#39e58101"] ;
1 [label="magenta <= 0.037\ngini = 0.837\nsamples = 759\nvalue = [67, 108, 69, 124, 74, 194, 35, 348, 185]\nclass = anger", fillcolor="#e539d727"] ;
0 -> 1 [labeldistance=2.5, labelangle=45, headlabel="True"] ;
2 [label="gini = 0.7\nsamples = 427\nvalue = [20, 4, 43, 47, 12, 128, 10, 332, 82]\nclass = anger", fillcolor="#e539d75f"] ;
1 -> 2 ;
3 [label="gini = 0.858\nsamples = 332\nvalue = [47, 104, 26, 77, 62, 66, 25, 16, 103]\nclass = joy", fillcolor="#d7e53901"] ;
1 -> 3 ;
4 [label="n_blue <= 1.001\ngini = 0.883\nsamples = 2304\nvalue = [483, 431, 491, 445, 454, 319, 515, 202, 334]\nclass = anticipation", fillcolor="#8139e502"] ;
0 -> 4 [labeldistance=2.5, labelangle=-45, headlabel="False"] ;
5 [label="gini = 0.869\nsamples = 1268\nvalue = [142, 163, 402, 234, 71, 225, 338, 195, 269]\nclass = sadness", fillcolor="#64e5390a"] ;
4 -> 5 ;
6 [label="gini = 0.839\nsamples = 1036\nvalue = [341, 268, 89, 211, 383, 94, 177, 7, 65]\nclass = trust", fillcolor="#39d7e508"] ;
4 -> 6 ;
}