digraph Tree {
node [shape=box, style="filled, rounded", color="black", fontname=helvetica] ;
edge [fontname=helvetica] ;
0 [label="n_cyan <= 5.028\ngini = 0.889\nsamples = 3075\nvalue = [536, 534, 551, 526, 540, 524, 561, 545, 561]\nclass = anticipation", fillcolor="#8139e500"] ;
1 [label="n_red <= 9.002\ngini = 0.874\nsamples = 2109\nvalue = [495, 479, 334, 501, 497, 208, 465, 242, 133]\nclass = AMBIGUOUS", fillcolor="#39e58100"] ;
0 -> 1 [labeldistance=2.5, labelangle=45, headlabel="True"] ;
2 [label="gini = 0.853\nsamples = 923\nvalue = [180, 118, 127, 341, 83, 88, 260, 227, 39]\nclass = AMBIGUOUS", fillcolor="#39e58111"] ;
1 -> 2 ;
3 [label="gini = 0.85\nsamples = 1186\nvalue = [315, 361, 207, 160, 414, 120, 205, 15, 94]\nclass = trust", fillcolor="#39d7e509"] ;
1 -> 3 ;
4 [label="green <= 0.116\ngini = 0.811\nsamples = 966\nvalue = [41, 55, 217, 25, 43, 316, 96, 303, 428]\nclass = surprise", fillcolor="#e5396418"] ;
0 -> 4 [labeldistance=2.5, labelangle=-45, headlabel="False"] ;
5 [label="gini = 0.819\nsamples = 499\nvalue = [21, 44, 137, 18, 34, 175, 83, 52, 219]\nclass = surprise", fillcolor="#e5396412"] ;
4 -> 5 ;
6 [label="gini = 0.756\nsamples = 467\nvalue = [20, 11, 80, 7, 9, 141, 13, 251, 209]\nclass = anger", fillcolor="#e539d714"] ;
4 -> 6 ;
}