digraph Tree {
node [shape=box, style="filled, rounded", color="black", fontname=helvetica] ;
edge [fontname=helvetica] ;
0 [label="green <= 0.068\ngini = 0.889\nsamples = 3102\nvalue = [562, 531, 561, 557, 574, 544, 521, 533, 495]\nclass = trust", fillcolor="#39d7e501"] ;
1 [label="green <= 0.0\ngini = 0.879\nsamples = 2376\nvalue = [501, 485, 463, 525, 536, 315, 484, 177, 251]\nclass = trust", fillcolor="#39d7e501"] ;
0 -> 1 [labeldistance=2.5, labelangle=45, headlabel="True"] ;
2 [label="gini = 0.825\nsamples = 577\nvalue = [45, 44, 196, 228, 18, 47, 185, 90, 47]\nclass = AMBIGUOUS", fillcolor="#39e5810c"] ;
1 -> 2 ;
3 [label="gini = 0.871\nsamples = 1799\nvalue = [456, 441, 267, 297, 518, 268, 299, 87, 204]\nclass = trust", fillcolor="#39d7e507"] ;
1 -> 3 ;
4 [label="cyan <= 0.018\ngini = 0.802\nsamples = 726\nvalue = [61, 46, 98, 32, 38, 229, 37, 356, 244]\nclass = anger", fillcolor="#e539d720"] ;
0 -> 4 [labeldistance=2.5, labelangle=-45, headlabel="False"] ;
5 [label="gini = 0.823\nsamples = 78\nvalue = [30, 28, 0, 21, 1, 5, 10, 21, 9]\nclass = disgust", fillcolor="#e5813905"] ;
4 -> 5 ;
6 [label="gini = 0.776\nsamples = 648\nvalue = [31, 18, 98, 11, 37, 224, 27, 335, 235]\nclass = anger", fillcolor="#e539d721"] ;
4 -> 6 ;
}