digraph Tree {
node [shape=box, style="filled, rounded", color="black", fontname=helvetica] ;
edge [fontname=helvetica] ;
0 [label="person <= 0.104\ngini = 0.889\nsamples = 3059\nvalue = [527, 563, 565, 549, 524, 535, 541, 544, 530]\nclass = sadness", fillcolor="#64e53900"] ;
1 [label="person <= 0.005\ngini = 0.859\nsamples = 2023\nvalue = [448, 44, 517, 128, 498, 519, 537, 427, 132]\nclass = anticipation", fillcolor="#8139e502"] ;
0 -> 1 [labeldistance=2.5, labelangle=45, headlabel="True"] ;
2 [label="gini = 0.808\nsamples = 1107\nvalue = [213, 12, 88, 17, 201, 472, 479, 285, 44]\nclass = anticipation", fillcolor="#8139e501"] ;
1 -> 2 ;
3 [label="gini = 0.819\nsamples = 916\nvalue = [235, 32, 429, 111, 297, 47, 58, 142, 88]\nclass = sadness", fillcolor="#64e5391d"] ;
1 -> 3 ;
4 [label="green <= 0.039\ngini = 0.763\nsamples = 1036\nvalue = [79, 519, 48, 421, 26, 16, 4, 117, 398]\nclass = joy", fillcolor="#d7e53915"] ;
0 -> 4 [labeldistance=2.5, labelangle=-45, headlabel="False"] ;
5 [label="gini = 0.707\nsamples = 739\nvalue = [67, 455, 40, 392, 24, 10, 4, 20, 138]\nclass = joy", fillcolor="#d7e53915"] ;
4 -> 5 ;
6 [label="gini = 0.64\nsamples = 297\nvalue = [12, 64, 8, 29, 2, 6, 0, 97, 260]\nclass = surprise", fillcolor="#e539646d"] ;
4 -> 6 ;
}