digraph Tree {
node [shape=box, style="filled, rounded", color="black", fontname=helvetica] ;
edge [fontname=helvetica] ;
0 [label="person <= 0.103\ngini = 0.889\nsamples = 3083\nvalue = [567, 540, 514, 544, 528, 567, 522, 522, 574]\nclass = surprise", fillcolor="#e5396400"] ;
1 [label="person <= 0.005\ngini = 0.858\nsamples = 2004\nvalue = [463, 44, 469, 117, 502, 542, 517, 408, 127]\nclass = fear", fillcolor="#3964e502"] ;
0 -> 1 [labeldistance=2.5, labelangle=45, headlabel="True"] ;
2 [label="gini = 0.798\nsamples = 1074\nvalue = [236, 14, 61, 9, 165, 478, 459, 258, 35]\nclass = fear", fillcolor="#3964e504"] ;
1 -> 2 ;
3 [label="gini = 0.824\nsamples = 930\nvalue = [227, 30, 408, 108, 337, 64, 58, 150, 92]\nclass = sadness", fillcolor="#64e53910"] ;
1 -> 3 ;
4 [label="n_red <= 9.913\ngini = 0.77\nsamples = 1079\nvalue = [104, 496, 45, 427, 26, 25, 5, 114, 447]\nclass = joy", fillcolor="#d7e5390a"] ;
0 -> 4 [labeldistance=2.5, labelangle=-45, headlabel="False"] ;
5 [label="gini = 0.78\nsamples = 645\nvalue = [93, 175, 35, 346, 9, 9, 3, 113, 221]\nclass = AMBIGUOUS", fillcolor="#39e58129"] ;
4 -> 5 ;
6 [label="gini = 0.656\nsamples = 434\nvalue = [11, 321, 10, 81, 17, 16, 2, 1, 226]\nclass = joy", fillcolor="#d7e53935"] ;
4 -> 6 ;
}