digraph Tree {
node [shape=box, style="filled, rounded", color="black", fontname=helvetica] ;
edge [fontname=helvetica] ;
0 [label="green <= 0.07\ngini = 0.889\nsamples = 3032\nvalue = [570, 534, 536, 541, 552, 544, 531, 523, 547]\nclass = disgust", fillcolor="#e5813901"] ;
1 [label="n_blue <= 1.002\ngini = 0.88\nsamples = 2365\nvalue = [518, 498, 470, 510, 521, 332, 500, 187, 283]\nclass = trust", fillcolor="#39d7e500"] ;
0 -> 1 [labeldistance=2.5, labelangle=45, headlabel="True"] ;
2 [label="gini = 0.871\nsamples = 1203\nvalue = [163, 169, 363, 261, 54, 204, 329, 180, 225]\nclass = sadness", fillcolor="#64e53905"] ;
1 -> 2 ;
3 [label="gini = 0.836\nsamples = 1162\nvalue = [355, 329, 107, 249, 467, 128, 171, 7, 58]\nclass = trust", fillcolor="#39d7e513"] ;
1 -> 3 ;
4 [label="magenta <= 0.016\ngini = 0.787\nsamples = 667\nvalue = [52, 36, 66, 31, 31, 212, 31, 336, 264]\nclass = anger", fillcolor="#e539d717"] ;
0 -> 4 [labeldistance=2.5, labelangle=-45, headlabel="False"] ;
5 [label="gini = 0.677\nsamples = 330\nvalue = [25, 9, 19, 15, 21, 83, 13, 285, 74]\nclass = anger", fillcolor="#e539d770"] ;
4 -> 5 ;
6 [label="gini = 0.775\nsamples = 337\nvalue = [27, 27, 47, 16, 10, 129, 18, 51, 190]\nclass = surprise", fillcolor="#e5396428"] ;
4 -> 6 ;
}