digraph Tree {
node [shape=box, style="filled, rounded", color="black", fontname=helvetica] ;
edge [fontname=helvetica] ;
0 [label="blue <= 0.001\ngini = 0.889\nsamples = 3118\nvalue = [516, 566, 553, 563, 512, 541, 538, 576, 513]\nclass = anger", fillcolor="#e539d701"] ;
1 [label="n_green <= 1.192\ngini = 0.873\nsamples = 1997\nvalue = [266, 191, 474, 369, 97, 399, 367, 533, 442]\nclass = anger", fillcolor="#e539d706"] ;
0 -> 1 [labeldistance=2.5, labelangle=45, headlabel="True"] ;
2 [label="gini = 0.855\nsamples = 888\nvalue = [135, 103, 220, 331, 48, 113, 258, 122, 83]\nclass = AMBIGUOUS", fillcolor="#39e58110"] ;
1 -> 2 ;
3 [label="gini = 0.837\nsamples = 1109\nvalue = [131, 88, 254, 38, 49, 286, 109, 411, 359]\nclass = anger", fillcolor="#e539d70a"] ;
1 -> 3 ;
4 [label="red <= 0.191\ngini = 0.843\nsamples = 1121\nvalue = [250, 375, 79, 194, 415, 142, 171, 43, 71]\nclass = trust", fillcolor="#39d7e507"] ;
0 -> 4 [labeldistance=2.5, labelangle=-45, headlabel="False"] ;
5 [label="gini = 0.794\nsamples = 90\nvalue = [4, 37, 2, 38, 3, 10, 4, 32, 11]\nclass = AMBIGUOUS", fillcolor="#39e58102"] ;
4 -> 5 ;
6 [label="gini = 0.834\nsamples = 1031\nvalue = [246, 338, 77, 156, 412, 132, 167, 11, 60]\nclass = trust", fillcolor="#39d7e50f"] ;
4 -> 6 ;
}