digraph Tree {
node [shape=box, style="filled, rounded", color="black", fontname=helvetica] ;
edge [fontname=helvetica] ;
0 [label="person <= 0.103\ngini = 0.889\nsamples = 3117\nvalue = [520, 571, 527, 556, 552, 556, 525, 542, 529]\nclass = joy", fillcolor="#d7e53901"] ;
1 [label="magenta <= 0.089\ngini = 0.86\nsamples = 2050\nvalue = [443, 47, 483, 130, 527, 529, 517, 427, 140]\nclass = fear", fillcolor="#3964e500"] ;
0 -> 1 [labeldistance=2.5, labelangle=45, headlabel="True"] ;
2 [label="gini = 0.844\nsamples = 1514\nvalue = [331, 25, 456, 96, 96, 436, 412, 427, 110]\nclass = sadness", fillcolor="#64e53903"] ;
1 -> 2 ;
3 [label="gini = 0.697\nsamples = 536\nvalue = [112, 22, 27, 34, 431, 93, 105, 0, 30]\nclass = trust", fillcolor="#39d7e56e"] ;
1 -> 3 ;
4 [label="n_yellow <= 3.047\ngini = 0.764\nsamples = 1067\nvalue = [77, 524, 44, 426, 25, 27, 8, 115, 389]\nclass = joy", fillcolor="#d7e53915"] ;
0 -> 4 [labeldistance=2.5, labelangle=-45, headlabel="False"] ;
5 [label="gini = 0.744\nsamples = 794\nvalue = [57, 471, 44, 315, 20, 24, 6, 61, 221]\nclass = joy", fillcolor="#d7e5392c"] ;
4 -> 5 ;
6 [label="gini = 0.73\nsamples = 273\nvalue = [20, 53, 0, 111, 5, 3, 2, 54, 168]\nclass = surprise", fillcolor="#e5396430"] ;
4 -> 6 ;
}