digraph Tree {
node [shape=box, style="filled, rounded", color="black", fontname=helvetica] ;
edge [fontname=helvetica] ;
0 [label="n_cyan <= 5.041\ngini = 0.889\nsamples = 3092\nvalue = [547, 549, 519, 529, 506, 547, 562, 585, 534]\nclass = anger", fillcolor="#e539d701"] ;
1 [label="n_magenta <= 4.01\ngini = 0.874\nsamples = 2133\nvalue = [508, 483, 327, 502, 459, 230, 469, 231, 137]\nclass = disgust", fillcolor="#e5813901"] ;
0 -> 1 [labeldistance=2.5, labelangle=45, headlabel="True"] ;
2 [label="gini = 0.844\nsamples = 865\nvalue = [92, 110, 196, 343, 20, 74, 235, 228, 79]\nclass = AMBIGUOUS", fillcolor="#39e58118"] ;
1 -> 2 ;
3 [label="gini = 0.838\nsamples = 1268\nvalue = [416, 373, 131, 159, 439, 156, 234, 3, 58]\nclass = trust", fillcolor="#39d7e504"] ;
1 -> 3 ;
4 [label="sofa <= 0.0\ngini = 0.813\nsamples = 959\nvalue = [39, 66, 192, 27, 47, 317, 93, 354, 397]\nclass = surprise", fillcolor="#e5396409"] ;
0 -> 4 [labeldistance=2.5, labelangle=-45, headlabel="False"] ;
5 [label="gini = 0.81\nsamples = 833\nvalue = [39, 55, 150, 27, 20, 310, 92, 336, 300]\nclass = anger", fillcolor="#e539d707"] ;
4 -> 5 ;
6 [label="gini = 0.699\nsamples = 126\nvalue = [0, 11, 42, 0, 27, 7, 1, 18, 97]\nclass = surprise", fillcolor="#e5396457"] ;
4 -> 6 ;
}