digraph Tree {
node [shape=box, style="filled, rounded", color="black", fontname=helvetica] ;
edge [fontname=helvetica] ;
0 [label="background <= 0.881\ngini = 0.889\nsamples = 3100\nvalue = [533, 543, 547, 508, 550, 529, 555, 564, 549]\nclass = anger", fillcolor="#e539d701"] ;
1 [label="n_magenta <= 4.876\ngini = 0.807\nsamples = 1315\nvalue = [195, 526, 35, 483, 55, 72, 15, 220, 468]\nclass = joy", fillcolor="#d7e53907"] ;
0 -> 1 [labeldistance=2.5, labelangle=45, headlabel="True"] ;
2 [label="gini = 0.754\nsamples = 547\nvalue = [61, 119, 21, 347, 12, 9, 10, 213, 96]\nclass = AMBIGUOUS", fillcolor="#39e58133"] ;
1 -> 2 ;
3 [label="gini = 0.752\nsamples = 768\nvalue = [134, 407, 14, 136, 43, 63, 5, 7, 372]\nclass = joy", fillcolor="#d7e5390b"] ;
1 -> 3 ;
4 [label="yellow <= 0.031\ngini = 0.842\nsamples = 1785\nvalue = [338, 17, 512, 25, 495, 457, 540, 344, 81]\nclass = anticipation", fillcolor="#8139e503"] ;
0 -> 4 [labeldistance=2.5, labelangle=-45, headlabel="False"] ;
5 [label="gini = 0.814\nsamples = 1366\nvalue = [291, 15, 480, 8, 477, 251, 509, 95, 46]\nclass = anticipation", fillcolor="#8139e504"] ;
4 -> 5 ;
6 [label="gini = 0.728\nsamples = 419\nvalue = [47, 2, 32, 17, 18, 206, 31, 249, 35]\nclass = anger", fillcolor="#e539d719"] ;
4 -> 6 ;
}