digraph Tree {
node [shape=box, style="filled, rounded", color="black", fontname=helvetica] ;
edge [fontname=helvetica] ;
0 [label="n_blue <= 1.002\ngini = 0.889\nsamples = 3108\nvalue = [557, 538, 529, 551, 583, 517, 548, 534, 521]\nclass = trust", fillcolor="#39d7e502"] ;
1 [label="person <= 0.019\ngini = 0.868\nsamples = 1798\nvalue = [160, 181, 436, 301, 75, 352, 359, 494, 453]\nclass = anger", fillcolor="#e539d704"] ;
0 -> 1 [labeldistance=2.5, labelangle=45, headlabel="True"] ;
2 [label="gini = 0.766\nsamples = 736\nvalue = [82, 4, 66, 4, 21, 315, 330, 279, 28]\nclass = anticipation", fillcolor="#8139e505"] ;
1 -> 2 ;
3 [label="gini = 0.825\nsamples = 1062\nvalue = [78, 177, 370, 297, 54, 37, 29, 215, 425]\nclass = surprise", fillcolor="#e539640b"] ;
1 -> 3 ;
4 [label="n_yellow <= 4.578\ngini = 0.84\nsamples = 1310\nvalue = [397, 357, 93, 250, 508, 165, 189, 40, 68]\nclass = trust", fillcolor="#39d7e511"] ;
0 -> 4 [labeldistance=2.5, labelangle=-45, headlabel="False"] ;
5 [label="gini = 0.827\nsamples = 1180\nvalue = [393, 331, 93, 199, 497, 105, 169, 17, 63]\nclass = trust", fillcolor="#39d7e512"] ;
4 -> 5 ;
6 [label="gini = 0.801\nsamples = 130\nvalue = [4, 26, 0, 51, 11, 60, 20, 23, 5]\nclass = fear", fillcolor="#3964e50f"] ;
4 -> 6 ;
}