digraph Tree {
node [shape=box, style="filled, rounded", color="black", fontname=helvetica] ;
edge [fontname=helvetica] ;
0 [label="n_cyan <= 5.041\ngini = 0.889\nsamples = 3060\nvalue = [550, 531, 562, 511, 543, 549, 515, 564, 553]\nclass = anger", fillcolor="#e539d700"] ;
1 [label="n_magenta <= 4.392\ngini = 0.875\nsamples = 2133\nvalue = [508, 479, 372, 483, 499, 220, 428, 218, 151]\nclass = disgust", fillcolor="#e5813901"] ;
0 -> 1 [labeldistance=2.5, labelangle=45, headlabel="True"] ;
2 [label="gini = 0.845\nsamples = 918\nvalue = [95, 114, 252, 343, 31, 63, 214, 215, 77]\nclass = AMBIGUOUS", fillcolor="#39e58114"] ;
1 -> 2 ;
3 [label="gini = 0.834\nsamples = 1215\nvalue = [413, 365, 120, 140, 468, 157, 214, 3, 74]\nclass = trust", fillcolor="#39d7e509"] ;
1 -> 3 ;
4 [label="yellow <= 0.032\ngini = 0.809\nsamples = 927\nvalue = [42, 52, 190, 28, 44, 329, 87, 346, 402]\nclass = surprise", fillcolor="#e539640c"] ;
0 -> 4 [labeldistance=2.5, labelangle=-45, headlabel="False"] ;
5 [label="gini = 0.815\nsamples = 500\nvalue = [32, 45, 165, 10, 32, 130, 85, 60, 248]\nclass = surprise", fillcolor="#e5396421"] ;
4 -> 5 ;
6 [label="gini = 0.712\nsamples = 427\nvalue = [10, 7, 25, 18, 12, 199, 2, 286, 154]\nclass = anger", fillcolor="#e539d72b"] ;
4 -> 6 ;
}